time,regd,power,heatflow,pressure
-180,1,1.00000001447924,1.6866653236463,0
-179.975,1,1.00000000913954,1.68666535754175,-1.32663952462364e-08
-179.95,1,0.999999984533953,1.68666539085767,-7.70604168670586e-08
-179.922142331591,1,0.99999988653625,1.68666542673144,-2.43116706474811e-07
-179.890708521698,1,0.999999546738312,1.68666546460268,-5.73706253337303e-07
-179.854210809942,1,0.999998518692971,1.68666550340414,-1.15935826759672e-06
-179.809174391585,1,0.99999556252081,1.68666554065565,-2.17669071615745e-06
-179.754156864842,1,0.999987874591057,1.68666556521505,-3.83187216103364e-06
-179.6991393381,1,0.999973778983372,1.68666556119775,-5.89453707323939e-06
-179.647275778783,1,0.999953030434849,1.68666552673248,-8.16797147523696e-06
-179.593863371654,1,0.999922931016469,1.68666545635516,-1.08023371035437e-05
-179.538326042997,1,0.999881577244995,1.68666534232407,-1.38176949394386e-05
-179.480329569458,1,0.999827442199798,1.6866651757863,-1.72282677727148e-05
-179.419404742113,1,0.999759406145052,1.68666494595035,-2.10601351157969e-05
-179.354555811523,1,0.999676490547975,1.68666463718824,-2.53794741704727e-05
-179.283420449406,1,0.999576913660439,1.68666422044454,-3.03598514297676e-05
-179.204085348975,1,0.999461679945102,1.68666365782128,-3.61643771667058e-05
-179.1294599101,1,0.999356553688126,1.68666303393128,-4.18238607624161e-05
-179.056860784455,1,0.999264259962677,1.68666233926422,-4.74833217176951e-05
-178.988191936269,1,0.999191556443418,1.68666160346476,-5.29528625565767e-05
-178.92126566938,1,0.999138497116189,1.68666081386661,-5.83751835194352e-05
-178.853979761277,1,0.999105738360163,1.68665994937024,-6.39035947412603e-05
-178.784630149447,1,0.999095143204742,1.68665898602238,-6.96697180955774e-05
-178.711027371155,1,0.999109549498612,1.68665788558056,-7.58530025779941e-05
-178.640305301566,1,0.999146308739029,1.68665675500207,-8.18458608620731e-05
-178.57322174926,1,0.99919859480297,1.68665561863833,-8.75695579277969e-05
-178.507236009691,1,0.999262315073256,1.68665444237629,-9.3230968056357e-05
-178.440481732109,1,0.999334127913158,1.68665319567713,-9.89851263717839e-05
-178.37095947158,1,0.999410813371335,1.68665183915249,-0.000105002104097404
-178.295106839174,1,0.999489359116549,1.68665029458644,-0.000111590591311037
-178.212569465292,1,0.99956017683383,1.68664854143236,-0.000118782890801347
-178.125824029816,1,0.999609777723135,1.68664662236991,-0.00012636311854311
-178.054235049554,1,0.999627343948291,1.68664498322864,-0.000132632309636463
-178,1,0.999625607324735,1.68664371003534,-0.000137388534808963
-177.969122337803,1,0.999618859611348,1.68664297359312,-0.000140102078810017
-177.938244675606,1,0.999608075191119,1.68664222869636,-0.000142833633067996
-177.900548009865,1,0.999589692395673,1.68664130708666,-0.00014620443008817
-177.85689966983,1,0.999561742823785,1.68664022161936,-0.000150162811184573
-177.80239873043,1,0.999517927693482,1.686638835615,-0.000155188276823731
-177.729583585612,1,0.999446940409157,1.68663692485832,-0.000162033780367041
-177.661897295993,1,0.999372340716201,1.68663508259143,-0.000168514131846847
-177.597135999555,1,0.999297616796629,1.68663325641463,-0.000174804004078558
-177.531305676025,1,0.999222783304661,1.68663133389204,-0.00018127395435065
-177.46360670416,1,0.999151592542156,1.68662928561043,-0.000187995578141961
-177.395560866103,1,0.999090228795167,1.68662715341062,-0.000194810413022606
-177.3278298135,1,0.999042848907862,1.68662495808995,-0.000201643112910668
-177.25828134614,1,0.999011079821306,1.68662262891871,-0.000208702369859287
-177.184294556674,1,0.998997668809418,1.68662006937353,-0.0002162524412085
-177.108479988122,1,0.999005789442071,1.68661736161516,-0.00022402495461199
-177.039336738085,1,0.999031064143901,1.68661481971114,-0.000231139935569474
-176.973148464094,1,0.999068867924201,1.68661232424855,-0.000237970631898177
-176.907445520933,1,0.999116557778403,1.68660978945349,-0.000244767430683676
-176.840487220919,1,0.999171942694549,1.68660714988292,-0.000251708153846203
-176.770167348386,1,0.999233072112104,1.6866043197263,-0.000259010233791018
-176.692283262232,1,0.99929863426646,1.68660111983713,-0.000267110691605371
-176.597812859798,1,0.999366657836071,1.68659715311777,-0.000276951119286314
-176.513988391947,1,0.999409553103514,1.68659356165001,-0.000285693660940764
-176.444139658368,1,0.999429283511503,1.68659052204946,-0.00029298503201243
-176.377960683363,1,0.999433143474008,1.68658760621046,-0.000299897818123909
-176.312219774154,1,0.999422487227709,1.6865846780545,-0.000306768504428262
-176.245207195023,1,0.999397564458566,1.68658166382757,-0.000313775274814868
-176.174985704621,1,0.99935816078182,1.68657847665975,-0.000321120474867792
-176.098039291847,1,0.999302968095747,1.68657495464838,-0.000329171965498809
-176.01599044122,1,0.999235906001628,1.68657116979479,-0.000337760086882855
-176,1,0.99922242812906,1.68657042908207,-0.000339434102038697
-175.975568835047,1,0.999201845236843,1.68656929561371,-0.000341999052829167
-175.951137670094,1,0.999181439741824,1.68656816004852,-0.000344600240072365
-175.921600756719,1,0.999157243161216,1.68656678427135,-0.000347822979256548
-175.888585770014,1,0.999131077149008,1.68656524246588,-0.000351546087398069
-175.85012030435,1,0.999102045217497,1.68656344025031,-0.000356054226200914
-175.802979738303,1,0.999068862529834,1.68656122207985,-0.000361824290649321
-175.728757967455,1,0.99902213745057,1.68655770611681,-0.000371410686337073
-175.666699079591,1,0.998987973809264,1.68655474239333,-0.000379838804031099
-175.607910899151,1,0.998959255838916,1.68655191369617,-0.000388119369556628
-175.547240426782,1,0.998932803681895,1.68654897234801,-0.000396925771270165
-175.4847986826,1,0.998908387381411,1.68654592165394,-0.000406227118326385
-175.420753270345,1,0.998885722699767,1.68654276824066,-0.000415981875026672
-175.35483765071,1,0.998864350290114,1.68653949776725,-0.000426214771902578
-175.286010152337,1,0.998843626360896,1.68653605703971,-0.000437077059232099
-175.211823851751,1,0.998822643087467,1.68653232082726,-0.000448955584719635
-175.12479715279,1,0.998799434812966,1.6865279046776,-0.00046307636864093
-175.049504951473,1,0.998780537749163,1.68652405824114,-0.000475426388976852
-174.974212750157,1,0.99876297906809,1.68652019115184,-0.000487877772900894
-174.904426771995,1,0.998748297573642,1.68651659124031,-0.000499493884096744
-174.835683481564,1,0.998735810532406,1.68651303306141,-0.000510995699984307
-174.765267252758,1,0.998725567697565,1.6865093785913,-0.000522828662233396
-174.690941693932,1,0.998718073516462,1.68650551364215,-0.000535365654320386
-174.607255399817,1,0.998714174011858,1.68650115661848,-0.000549529462202616
-174.530099604505,1,0.998714939999482,1.68649713846426,-0.000562624931045266
-174.452943809194,1,0.998719568982919,1.68649312291474,-0.000575749456581953
-174.382715737712,1,0.998726522945695,1.68648947315332,-0.000587716491168455
-174.31411136822,1,0.998735027347703,1.6864859151697,-0.000599422935843655
-174.244354440384,1,0.998744434809584,1.68648230736323,-0.000611339755095988
-174.170645366133,1,0.998754035393075,1.68647850872234,-0.000623944319425737
-174.086959699455,1,0.99876300771242,1.68647421628147,-0.0006382679038726
-174,1,0.998768657829362,1.68646978286465,-0.000653163806035931
-173.970716938184,1,0.998769519345591,1.68646829685083,-0.000658186706346098
-173.941433876368,1,0.998769809955527,1.68646681449132,-0.000663232689438631
-173.905223497599,1,0.998769333216721,1.68646498646619,-0.000669520889769862
-173.863937982314,1,0.998767563355747,1.68646290879891,-0.000676765072609428
-173.81417933808,1,0.998763494020996,1.68646041365862,-0.000685602627434029
-173.749071070015,1,0.998754578130786,1.68645716289733,-0.000697330221386155
-173.681688913838,1,0.998740685398844,1.68645381476535,-0.000709639839115039
-173.610583164687,1,0.99872080118119,1.68645029903991,-0.000722791799315545
-173.53841562724,1,0.998695578820615,1.68644674910687,-0.000736283412611699
-173.467544020787,1,0.998666814080827,1.68644328120685,-0.000749650361631826
-173.398076702916,1,0.998636068730626,1.68643990022197,-0.000762847211956283
-173.329063346723,1,0.998604516122183,1.68643655997775,-0.000776035846813822
-173.258990915363,1,0.998573076604083,1.68643318847084,-0.000789493751282816
-173.185783918263,1,0.998542629838926,1.68642968887883,-0.000803613986185392
-173.108075802356,1,0.998514852714032,1.68642600106242,-0.000818658510794157
-173.017908257785,1,0.998490622808178,1.68642175901371,-0.000836174501439926
-172.930250399535,1,0.998476911742073,1.6864176757651,-0.000853252321262529
-172.856426409077,1,0.998473466295866,1.68641427002844,-0.000867665564858247
-172.786667632187,1,0.998476950506133,1.68641108116016,-0.000881306304470877
-172.717060519713,1,0.998486469929964,1.68640792896161,-0.000894934558916954
-172.645313159838,1,0.998501704699432,1.68640471228281,-0.000908996905740367
-172.568285597724,1,0.998522731963268,1.68640129707427,-0.000924108349127692
-172.477389490138,1,0.998551129561322,1.68639732002579,-0.000941956042694592
-172.386789814025,1,0.998579837116467,1.68639341552728,-0.00095975899018079
-172.309696948793,1,0.998601784718286,1.68639014177334,-0.000974916357804015
-172.23723280837,1,0.998618307376587,1.68638710669761,-0.00098916950938828
-172.16559487311,1,0.998629249296759,1.68638414745032,-0.00100326478273641
-172.092119910989,1,0.998633836215092,1.68638115595229,-0.00101772549347599
-172.013660152173,1,0.998630730105694,1.68637801142285,-0.00103317097207982
-172,1,0.998629343455421,1.68637746930193,-0.00103586043049808
-171.964955145812,1,0.998624678738279,1.68637608584169,-0.00104276397477224
-171.929910291624,1,0.99861848464501,1.68637471296626,-0.00104968405564482
-171.886556807837,1,0.998608846020419,1.68637302920581,-0.00105827805577276
-171.83586208831,1,0.998595060139031,1.68637108067754,-0.00106837809253951
-171.772995202242,1,0.998574749714547,1.68636869450747,-0.00108097630140597
-171.702867433905,1,0.998548922739789,1.68636607188639,-0.00109511475522464
-171.632806296082,1,0.9985212180533,1.68636349271414,-0.00110931664028505
-171.558233857768,1,0.998491534139238,1.68636079227727,-0.00112450390484461
-171.47321623384,1,0.998460099379368,1.68635776990891,-0.00114189221938779
-171.388525405272,1,0.99843411744677,1.68635481889257,-0.00115927753129239
-171.303834576703,1,0.998415764837053,1.68635192769428,-0.00117671438867616
-171.229395995985,1,0.998407070420886,1.68634943610083,-0.0011920751505059
-171.15732914877,1,0.998405574063797,1.68634706832451,-0.00120697200699553
-171.084254435118,1,0.998410656109974,1.68634471228044,-0.00122209854095724
-171.007291362287,1,0.998422186289086,1.68634227993033,-0.00123804928277635
-170.920806179878,1,0.998440728053677,1.68633960699514,-0.00125599292404602
-170.825004720972,1,0.998464887609547,1.68633672105304,-0.00127588882407897
-170.74240324481,1,0.998485786843972,1.6863342962487,-0.00129305646429627
-170.665642227276,1,0.998503041813059,1.6863320957849,-0.00130901902020018
-170.590703800698,1,0.99851631376009,1.68632999683787,-0.00132460927505559
-170.514093356882,1,0.998525126749726,1.68632790145817,-0.00134055304268285
-170.432087762939,1,0.998528552036504,1.68632571502652,-0.00135762484653744
-170.33529323933,1,0.998524529189338,1.68632320948243,-0.00137778101289439
-170.249042016876,1,0.998514337525665,1.68632104537397,-0.00139574579280716
-170.171813103406,1,0.998501043443974,1.68631916232696,-0.00141183401377594
-170.09637397777,1,0.998485496445006,1.68631737266777,-0.00142755136631248
-170.01928101244,1,0.998468375017131,1.68631559439277,-0.00144361495520234
-170,1,0.998464067100686,1.68631515761918,-0.00144763269961681
-169.970613799711,1,0.998457575936153,1.68631449805373,-0.00145376062425083
-169.941227599421,1,0.998451238786469,1.68631384586069,-0.00145990989875171
-169.9039112718,1,0.998443497123661,1.68631302824248,-0.001467766117405
-169.861260256605,1,0.998435130013667,1.68631210813753,-0.00147681990571481
-169.809051933664,1,0.998425576489573,1.68631100259247,-0.00148801129283466
-169.737686168405,1,0.998413500808714,1.68630952792978,-0.0015034880835908
-169.6629447201,1,0.998401556904802,1.68630802824308,-0.00151988944917755
-169.589390630391,1,0.998389960955591,1.68630659649663,-0.00153619174843314
-169.512389503466,1,0.998377586394234,1.68630514395553,-0.00155340064511446
-169.429697494015,1,0.998363862627174,1.68630363614065,-0.00157201527659001
-169.335941078219,1,0.998347954967504,1.68630199093618,-0.00159325651183037
-169.233162271345,1,0.998330817227949,1.68630026482482,-0.00161667347900077
-169.141832616224,1,0.998316732715679,1.68629879788063,-0.00163757277063634
-169.055401143824,1,0.998305149383403,1.68629746668017,-0.00165741348839521
-168.969895617176,1,0.998295918618342,1.6862962035311,-0.00167708950449476
-168.880150831279,1,0.998289001365854,1.68629493441776,-0.00169778220267537
-168.777408643756,1,0.998284752772181,1.68629355154642,-0.00172151284342233
-168.668969896654,1,0.998284324684915,1.68629217156439,-0.00174659630291962
-168.578784901317,1,0.998286700241663,1.68629108487669,-0.00176747994611842
-168.493168281561,1,0.998290726493398,1.68629010348896,-0.00178732064519263
-168.405525598626,1,0.99829603506923,1.68628914862002,-0.00180764295336157
-168.310139700834,1,0.998302400029564,1.68628816543754,-0.0018297718520694
-168.185418956031,1,0.998310200387434,1.68628696592775,-0.00185871979608519
-168.076669668957,1,0.998315168896872,1.68628599749554,-0.00188397027050097
-168,1,0.998317049322652,1.68628535698693,-0.00190177629896715
-167.964050531491,1,0.99831738120563,1.68628506845934,-0.00191012926875987
-167.928101062982,1,0.998317333850179,1.68628478735218,-0.00191849676354625
-167.881885180376,1,0.998316670240721,1.68628443671042,-0.00192928463471154
-167.82685658113,1,0.998314889045986,1.68628403468608,-0.00194217827023095
-167.751762925328,1,0.998310461590081,1.68628351258674,-0.00195985382990099
-167.655254024332,1,0.998301001134972,1.68628288520444,-0.00198268736120986
-167.567802705055,1,0.998288784078333,1.6862823576647,-0.00200347077149152
-167.48179019999,1,0.99827397374997,1.68628187551019,-0.00202398113326473
-167.394766877609,1,0.998257265818173,1.68628142354521,-0.0020447885300013
-167.303797869084,1,0.998239533539588,1.68628098839828,-0.00206658768568711
-167.202527445325,1,0.998221680065791,1.6862805473075,-0.00209090148525359
-167.096340618443,1,0.998207535890347,1.68628013204674,-0.00211643635379319
-166.990153791561,1,0.9981999533095,1.68627976327792,-0.00214200331280892
-166.899030324982,1,0.998199283249527,1.68627948247931,-0.00216396326806668
-166.809800268968,1,0.998203588003622,1.68627923826482,-0.00218548091066263
-166.716787305147,1,0.998212337530173,1.68627901493448,-0.00220792252234703
-166.612527516404,1,0.998225426273322,1.68627880106205,-0.00223308891760575
-166.499980869923,1,0.998240557081753,1.68627861163091,-0.0022602658980734
-166.398581734621,1,0.998252466814413,1.68627847617352,-0.00228475807186543
-166.30427492028,1,0.998260303078177,1.68627837882358,-0.0023075417633122
-166.209885401953,1,0.998263978632952,1.68627830783733,-0.00233034892954484
-166.108963850755,1,0.998262891595503,1.6862782599236,-0.00235473745769861
-166,1,0.998256331740146,1.68627823912022,-0.00238107221232169
-165.963174283572,1,0.998253066666695,1.68627823905881,-0.00238997546465194
-165.926348567144,1,0.998249381868971,1.68627824238687,-0.00239889095663433
-165.878073296062,1,0.998244019864066,1.68627825169376,-0.00241060515872836
-165.82014089556,1,0.998236938224166,1.68627826990927,-0.00242470562988197
-165.735551677115,1,0.99822565200462,1.68627830940342,-0.00244537249477064
-165.648184975776,1,0.998213281957564,1.68627836500948,-0.0024668011865777
-165.563207404779,1,0.9982011261974,1.68627843231246,-0.00248770998472532
-165.464851889879,1,0.9981877618636,1.68627852508211,-0.00251197555302973
-165.350962167886,1,0.998174575174014,1.6862786506192,-0.00254014188733794
-165.246345004681,1,0.998165867455732,1.68627878143993,-0.00256606461159818
-165.148752876008,1,0.998161457245298,1.68627891560884,-0.00259027950594611
-165.050282257741,1,0.9981609233539,1.68627906180301,-0.00261473740328362
-164.943300007934,1,0.998164524719668,1.68627923184534,-0.00264133154583311
-164.825453497727,1,0.998172372573212,1.68627943136404,-0.00267064678979621
-164.723868631106,1,0.998180860241444,1.68627961259389,-0.00269592990264726
-164.625839799461,1,0.998188986476901,1.68627979477449,-0.00272033676967043
-164.522452643568,1,0.998195911862745,1.68627999389576,-0.00274608501181967
-164.410073140987,1,0.998200010163146,1.68628021757897,-0.00277407929969292
-164.283721436446,1,0.99819927404267,1.68628047694725,-0.00280556024880849
-164.181949066591,1,0.99819466388749,1.68628069109878,-0.00283092071746614
-164.085854071794,1,0.998187780809026,1.68628089698631,-0.00285486866229392
-164,1,0.998180453501377,1.68628108354172,-0.00287626588755646
-163.965480137112,1,0.998177409186785,1.68628115916182,-0.00288487214176697
-163.930960274224,1,0.998174395975363,1.68628123507451,-0.00289349102119922
-163.885242318511,1,0.998170524848988,1.68628133593824,-0.00290493453026001
-163.831480961592,1,0.998166208432405,1.68628145477955,-0.00291843702734121
-163.758760907604,1,0.998160781292184,1.68628161540456,-0.00293677592359425
-163.666792569281,1,0.99815441003455,1.68628181736545,-0.00296007578779074
-163.587420659403,1,0.998149092770236,1.68628198978332,-0.00298026366519823
-163.503647123507,1,0.998143417766004,1.68628216917059,-0.00300163564725389
-163.413148612864,1,0.998137050528829,1.6862823593269,-0.00302478367013437
-163.310267978168,1,0.998129508508305,1.6862825702269,-0.00305115937274131
-163.182448049895,1,0.998120119694293,1.68628282353871,-0.00308399761002338
-163.0800281943,1,0.99811324718515,1.68628301900419,-0.00311035199435561
-162.984870882587,1,0.998108021609799,1.68628319432518,-0.00313486289501239
-162.88661148737,1,0.998104350104407,1.68628336882439,-0.0031601928165965
-162.779092510231,1,0.998102775457736,1.6862835520168,-0.00318792784100268
-162.676526771692,1,0.998103735694088,1.68628371914324,-0.0032143987981936
-162.573961033153,1,0.998106767493736,1.68628387879603,-0.00324088001914355
-162.479365877792,1,0.998110794197554,1.68628401942799,-0.00326531041737649
-162.383457298056,1,0.998115297051197,1.68628415556951,-0.00329008545868278
-162.278428216441,1,0.998119730724756,1.6862842972818,-0.00331722141166603
-162.165656352356,1,0.998122859692698,1.68628444096433,-0.00334636224059866
-162.05288448827,1,0.998123580010167,1.68628457600889,-0.00337550653314424
-162,1,0.998123028284086,1.68628463640867,-0.00338917472406733
-161.957616770741,1,0.998122200629227,1.68628468347697,-0.00340013096733797
-161.915233541483,1,0.998121059503821,1.68628472931636,-0.00341109555491906
-161.859286070022,1,0.99811911745507,1.68628478779505,-0.00342558675566694
-161.790808825293,1,0.998116134603976,1.68628485591554,-0.00344335108727623
-161.681820663535,1,0.998110235110091,1.68628495562264,-0.00347168023735549
-161.584921490311,1,0.99810414587055,1.68628503447903,-0.00349691369903289
-161.493475655486,1,0.998098078374746,1.68628509993431,-0.00352075853166839
-161.401229716572,1,0.998092070117268,1.68628515686794,-0.00354483652208168
-161.304373314323,1,0.998086342581485,1.68628520668012,-0.00357013892950908
-161.195988362579,1,0.998081163812167,1.68628525030642,-0.00359847293147554
-161.086933098129,1,0.998077722323775,1.68628528142811,-0.00362699851863257
-160.977877833679,1,0.998076343935465,1.68628530000549,-0.00365553660154795
-160.881939760906,1,0.998076888370209,1.68628530626422,-0.00368065006451485
-160.785569314794,1,0.998078959830619,1.68628530335598,-0.00370588253056275
-160.681318102442,1,0.998082568996913,1.68628529021225,-0.00373318353433251
-160.546716489474,1,0.998088366232623,1.68628525858174,-0.0037684385937287
-160.435107636945,1,0.998093051249832,1.68628522048608,-0.00379767517366926
-160.337111757396,1,0.998096228900868,1.68628517866482,-0.00382334789545112
-160.23815790915,1,0.998097939252875,1.68628512892114,-0.00384927315129016
-160.13143228411,1,0.998097685847631,1.68628506728533,-0.00387723593305674
-160,1,0.998094357960508,1.68628498074621,-0.00391167349379536
-159.956548116172,1,0.998092641999815,1.68628494970171,-0.00392306051560778
-159.913096232344,1,0.998090697971667,1.68628491746534,-0.00393445479145814
-159.85510653202,1,0.998087832202532,1.6862848725139,-0.00394967675895518
-159.784840141902,1,0.99808408128533,1.68628481493063,-0.00396814534777747
-159.686245698785,1,0.99807861972532,1.68628472805137,-0.00399409880764509
-159.579604832908,1,0.9980729525474,1.68628462575631,-0.00402221222657488
-159.472307953821,1,0.998068060980306,1.686284513942,-0.00405053258448131
-159.37119979056,1,0.998064592780455,1.68628440045845,-0.00407724348117947
-159.27378297694,1,0.998062479528244,1.68628428383059,-0.00410299626692585
-159.174216638739,1,0.998061553579212,1.68628415749187,-0.00412933080069082
-159.062856510946,1,0.99806177617716,1.68628400803648,-0.00415879722145912
-158.954938931258,1,0.998062894666424,1.68628385546413,-0.00418736240242835
-158.847021351571,1,0.998064490856585,1.68628369580024,-0.00421593483225963
-158.747093866851,1,0.998066073957876,1.68628354210958,-0.00424239675794816
-158.645607030294,1,0.998067541416868,1.68628338073618,-0.00426927539320328
-158.532302980331,1,0.998068801319024,1.68628319485797,-0.00429928726023469
-158.419904568132,1,0.99806949762864,1.68628300513359,-0.00432906199105564
-158.307506155933,1,0.998069529450787,1.68628281073456,-0.00435883878689017
-158.20657328659,1,0.998068938665673,1.68628263269428,-0.00438557945043987
-158.103496232592,1,0.998067736735525,1.68628244795546,-0.00441288918911913
-158,1,0.998066012163965,1.6862822599554,-0.00444031077814019
-157.957654701921,1,0.998065198760798,1.68628218241223,-0.00445153180336899
-157.915309403842,1,0.998064345861491,1.68628210453232,-0.00446275902360566
-157.856082150084,1,0.998063104320525,1.68628199502349,-0.0044784766240664
-157.785300970919,1,0.998061551901116,1.68628186321934,-0.00449728280650544
-157.689557531243,1,0.998059318123562,1.68628168324081,-0.0045227556992216
-157.59044497114,1,0.998056847798747,1.68628149484928,-0.00454915903534435
-157.479137668411,1,0.998053976691376,1.68628128082651,-0.00457884320660114
-157.355054748349,1,0.998050884857425,1.68628103941459,-0.00461196491093245
-157.246062225779,1,0.99804847939247,1.68628082520556,-0.00464107838062669
-157.142670654307,1,0.998046597455692,1.68628062044637,-0.00466870871988286
-157.035525656283,1,0.998045116272262,1.68628040698494,-0.00469735232752667
-156.910266593865,1,0.998043994397258,1.68628015627379,-0.00473084842458195
-156.800958745064,1,0.998043528029731,1.68627993690386,-0.00476008553862149
-156.691650896264,1,0.998043517820999,1.68627971739981,-0.00478932726937935
-156.586523599803,1,0.998043921418422,1.68627950652573,-0.00481745395508505
-156.475285137161,1,0.998044749186465,1.68627928402318,-0.00484721838235773
-156.338713684008,1,0.998046171489003,1.68627901229235,-0.00488376407910472
-156.209794722581,1,0.998047608289498,1.68627875782263,-0.00491826411682242
-156.102793560849,1,0.998048554404404,1.68627854851481,-0.0049468998605384
-156,1,0.998049002105133,1.68627834935122,-0.00497441029199813
-155.94713444508,1,0.998048999538386,1.68627824773421,-0.00498855979331513
-155.89426889016,1,0.998048819417898,1.68627814669549,-0.00500271360812499
-155.820380115858,1,0.998048248513574,1.68627800645373,-0.00502250517579163
-155.728507252842,1,0.99804699995856,1.68627783367726,-0.00504712792165157
-155.622883257638,1,0.998044887768581,1.68627763726757,-0.00507545203412559
-155.518769866333,1,0.998042318058396,1.6862774460707,-0.00510338416145374
-155.406816810255,1,0.998039424949731,1.68627724325533,-0.0051334306764418
-155.265899245127,1,0.998036339216257,1.68627699228506,-0.0051712630255511
-155.132831103499,1,0.998034641464632,1.68627675998205,-0.00520699708855034
-155.023680468702,1,0.998034328528244,1.6862765730322,-0.00523631311867213
-154.913482603825,1,0.998034909989371,1.68627638774581,-0.00526591366002381
-154.788240947164,1,0.998036328113703,1.68627618157316,-0.00529955812552897
-154.642318448317,1,0.998038343861421,1.68627594753819,-0.00533876112614386
-154.525225991357,1,0.998039766025359,1.68627576474851,-0.00537022039116902
-154.414193346573,1,0.998040693124308,1.68627559567633,-0.00540005254832714
-154.29322377615,1,0.998041115693282,1.68627541631921,-0.00543255536524094
-154.16792800388,1,0.998040906713989,1.68627523600313,-0.00546622123742772
-154.04263223161,1,0.99804013354465,1.68627506135381,-0.00549988760689822
-154,1,0.998039767613938,1.68627500323886,-0.00551134277027324
-153.948519431368,1,0.99803927171935,1.68627493395645,-0.00552517659753334
-153.897038862736,1,0.998038726110949,1.6862748656571,-0.00553901517693635
-153.824277135547,1,0.998037874142817,1.68627477080849,-0.00555858482651392
-153.730586162163,1,0.998036619109226,1.68627465159731,-0.00558380060876058
-153.598780477969,1,0.998034523970556,1.68627448948217,-0.00561930106677153
-153.483215540422,1,0.998032459916791,1.6862743527426,-0.005650446696287
-153.369250219567,1,0.998030445143846,1.68627422284691,-0.00568117437117581
-153.247065874558,1,0.998028638745037,1.68627408904335,-0.00571412891752163
-153.083489786001,1,0.998027311307624,1.68627391873236,-0.00575825992351625
-152.947011805987,1,0.998027339037711,1.68627378431874,-0.00579508794918435
-152.831173830696,1,0.998028030619206,1.68627367567216,-0.00582635027040376
-152.708356342865,1,0.998029113709604,1.68627356588173,-0.00585949909118175
-152.548764525883,1,0.998030446134264,1.68627343142104,-0.00590257659426922
-152.408697020055,1,0.998031079021055,1.68627332093108,-0.00594038611991342
-152.290522650359,1,0.998031087476217,1.68627323308312,-0.00597228692495143
-152.165645448511,1,0.998030639849857,1.68627314549806,-0.00600599790850867
-152,1,0.998029632747013,1.68627303745806,-0.00605071527632001
-151.948811230854,1,0.998029294012217,1.68627300591173,-0.00606453526263591
-151.897622461708,1,0.998028961119448,1.68627297522278,-0.00607835963249823
-151.823227628808,1,0.998028483115435,1.68627293214135,-0.00609846126605859
-151.72488044483,1,0.998027802321881,1.68627287793361,-0.00612505221355102
-151.594172269578,1,0.998026637335413,1.68627281066577,-0.00616041766160627
-151.463763831747,1,0.998025051537539,1.68627274888468,-0.00619572313461894
-151.333196404034,1,0.998023127740277,1.68627269223428,-0.00623108691229543
-151.21109174274,1,0.998021296301314,1.6862726438396,-0.00626416861516658
-151.082472973463,1,0.998019710300928,1.68627259750819,-0.00629902281535791
-150.917106959208,1,0.998018702848704,1.6862725446876,-0.00634384325847463
-150.772573447657,1,0.998018943781338,1.68627250448127,-0.006383022531996
-150.649573900077,1,0.998019803794187,1.6862724744525,-0.00641636717663711
-150.518307660954,1,0.998021020617482,1.68627244647091,-0.00645195482488878
-150.374297184932,1,0.99802221611815,1.68627242038418,-0.00649099922410409
-150.23028670891,1,0.998022851460806,1.6862723988829,-0.00653004484563603
-150.104692007072,1,0.998022816362764,1.68627238368216,-0.00656409809650184
-150,1,0.998022412364252,1.68627237341644,-0.00659248424040465
-149.946682730299,1,0.99802210891807,1.68627236899645,-0.00660694142856681
-149.893365460598,1,0.998021758784103,1.68627236510588,-0.00662140152256302
-149.809946701635,1,0.998021138101473,1.68627236005291,-0.00664403277025802
-149.697066467923,1,0.998020173337566,1.68627235515334,-0.00667466999324572
-149.573689377055,1,0.998018963801583,1.68627235222874,-0.0067081699730077
-149.447185414195,1,0.998017601014742,1.68627235172082,-0.00674253007975958
-149.28562528712,1,0.998015879721974,1.68627235450015,-0.00678642353457566
-149.139123494161,1,0.998014653821937,1.68627236010423,-0.00682623374256285
-149.009571998568,1,0.998014096940049,1.68627236731591,-0.0068614422217057
-148.871842297561,1,0.998014195230881,1.68627237712712,-0.00689887645847871
-148.733363727381,1,0.998014960381514,1.68627238904339,-0.00693651656950814
-148.594885157201,1,0.998016118323026,1.68627240284176,-0.00697415833816595
-148.466204768154,1,0.998017175468313,1.68627241720221,-0.00700913778713194
-148.323915483012,1,0.998017904566135,1.68627243464426,-0.00704781741421463
-148.184090923915,1,0.998017907307335,1.68627245322257,-0.00708582764928919
-148.044266364817,1,0.998017206609736,1.68627247306955,-0.00712383831253247
-148,1,0.998016876151313,1.68627247959295,-0.00713587198795987
-147.943661681204,1,0.998016411317432,1.68627248804985,-0.00715118813352718
-147.887323362409,1,0.998015920778171,1.68627249666765,-0.00716650729722169
-147.80310561242,1,0.998015181365049,1.68627250981607,-0.00718941423909833
-147.688221480823,1,0.998014221606958,1.68627252818343,-0.00722067455419489
-147.556863544398,1,0.998013245327222,1.68627254965967,-0.007256431010943
-147.431137810128,1,0.998012448395126,1.68627257056025,-0.00729066434688767
-147.295004038002,1,0.998011733905836,1.68627259344381,-0.0073277395971679
-147.116776180802,1,0.998011042468846,1.68627262361058,-0.00737628762851303
-146.964053978721,1,0.998010730241694,1.68627264949241,-0.00741789342276257
-146.831976789481,1,0.998010729379346,1.6862726718009,-0.00745387762362439
-146.684659648597,1,0.998011035050816,1.68627269651431,-0.00749401597100344
-146.547313746405,1,0.998011525517501,1.68627271932333,-0.00753143890855859
-146.409967844214,1,0.998012035454621,1.68627274184701,-0.00756886277916788
-146.276189453793,1,0.998012348758092,1.68627276345995,-0.00760531521589893
-146.12109213164,1,0.998012295882046,1.6862727880557,-0.00764757726823485
-146,1,0.998011925929315,1.68627280687647,-0.00768057363086441
-145.936955039458,1,0.998011648760991,1.68627281653184,-0.00769775340426038
-145.873910078915,1,0.998011338004956,1.6862728260764,-0.00771493563669656
-145.781397934704,1,0.998010854121749,1.68627283984585,-0.00774015408234333
-145.65598054092,1,0.998010203719003,1.68627285798391,-0.00777435104744582
-145.494801695156,1,0.99800947162166,1.68627288026045,-0.00781830989998566
-145.354175502382,1,0.998008975871724,1.68627289864951,-0.00785667046339478
-145.220988675062,1,0.998008622848863,1.68627291511427,-0.00789300592265473
-145.0685875459,1,0.998008324494911,1.68627293278741,-0.00793458689152313
-144.929471845183,1,0.998008139789933,1.68627294782217,-0.00797254539966133
-144.790356144466,1,0.998008066158283,1.6862729618122,-0.00801050545391865
-144.652318712424,1,0.998008143458119,1.68627297467319,-0.00804817236472161
-144.485543422283,1,0.998008442492068,1.68627298888223,-0.00809368210103785
-144.322064041658,1,0.998008838668832,1.6862730014365,-0.00813829316356175
-144.185492721369,1,0.998009085267828,1.68627301091474,-0.00817556178877583
-144.036820464863,1,0.998009111835176,1.68627302022415,-0.00821613287114008
-144,1,0.998009070492576,1.68627302237169,-0.00822618081757502
-143.926184025884,1,0.998008932620425,1.686273026491,-0.00824632488415415
-143.852368051768,1,0.998008730731618,1.68627303035461,-0.00826647044888858
-143.743770486064,1,0.998008349152616,1.68627303554225,-0.00829611143772679
-143.606010491451,1,0.998007808639524,1.68627304121825,-0.00833371631046423
-143.447760598266,1,0.998007278754232,1.68627304643791,-0.00837691858513097
-143.308218305651,1,0.998007009611815,1.68627304987484,-0.00841501627397968
-143.168676013036,1,0.998006946880686,1.68627305223446,-0.00845311564797074
-143.026125695052,1,0.998007031482899,1.68627305356571,-0.00849203753133392
-142.842225329462,1,0.99800720483956,1.68627305374682,-0.00854225086038697
-142.680133062911,1,0.998007315868536,1.68627305255752,-0.00858651034281885
-142.539032213551,1,0.998007372861278,1.68627305056467,-0.00862503848733463
-142.374758823015,1,0.998007424344752,1.68627304720542,-0.00866989429762406
-142.230457879616,1,0.9980074618846,1.68627304340463,-0.00870929670494673
-142.086156936217,1,0.998007458384761,1.6862730388768,-0.00874869923419086
-142,1,0.99800741725931,1.68627303585318,-0.00877222511861442
-141.933010041901,1,0.998007360006155,1.68627303334681,-0.00879051755585358
-141.866020083802,1,0.998007279854149,1.68627303070558,-0.00880881097639856
-141.753881464652,1,0.998007095218911,1.68627302597271,-0.00883943596722803
-141.617910518182,1,0.998006805031878,1.68627301969595,-0.0088765730874405
-141.473088018107,1,0.998006481960296,1.68627301236021,-0.00891613091538934
-141.305078521582,1,0.998006209810171,1.6862730030367,-0.00896202498864006
-141.158828624203,1,0.998006125198125,1.68627299425318,-0.0090019767981461
-141.012578726824,1,0.998006161549945,1.68627298490051,-0.00904192966078961
-140.86048301289,1,0.998006245854574,1.68627297463052,-0.00908348026786271
-140.696351089545,1,0.998006295272098,1.68627296300176,-0.009128319614938
-140.5322191662,1,0.998006271107567,1.68627295088897,-0.00917315938084796
-140.383615247479,1,0.998006226072186,1.68627293957485,-0.00921375724027491
-140.204674839107,1,0.998006216364155,1.68627292560173,-0.00926264308239678
-140.02407901941,1,0.998006271005379,1.68627291120959,-0.00931198132439878
-140,1,0.998006279668341,1.68627290927402,-0.00931855964931505
-139.914889394075,1,0.998006304468308,1.68627290240771,-0.00934181197925289
-139.82977878815,1,0.998006309445729,1.68627289550528,-0.00936506554397469
-139.700433692681,1,0.998006248243351,1.68627288494897,-0.0094004070581219
-139.534543754589,1,0.998006021542775,1.68627287130547,-0.00944573713168832
-139.381221070383,1,0.998005716677598,1.68627285861658,-0.00948763541769382
-139.223553588694,1,0.998005429246355,1.68627284552484,-0.00953072252020723
-139.063800712382,1,0.998005274569895,1.68627283225673,-0.00957438057849545
-138.904047836069,1,0.998005285463362,1.68627281902975,-0.00961803935584325
-138.74964557635,1,0.998005396975432,1.68627280632666,-0.00966023632661667
-138.556413721452,1,0.998005546487472,1.6862727906008,-0.009713045547435
-138.382421424421,1,0.998005613658951,1.68627277665937,-0.00976059696039083
-138.228473189078,1,0.998005623137125,1.68627276453711,-0.0098026705450639
-138.050994336667,1,0.998005612925865,1.6862727508517,-0.00985117507216669
-138,1,0.998005608763724,1.68627274698263,-0.00986511171586853
-137.916722619196,1,0.998005599478088,1.68627274072874,-0.00988787153596102
-137.833445238392,1,0.998005581791739,1.68627273455792,-0.00991063243535385
-137.692850045357,1,0.998005505694608,1.68627272433654,-0.00994906159582369
-137.487185456685,1,0.998005234043798,1.68627270985357,-0.0100052804711438
-137.358365330842,1,0.998004990831639,1.6862727010807,-0.0100404955098583
-137.229545204999,1,0.998004756220557,1.68627269254794,-0.0100757114204952
-137.066301618502,1,0.998004569783315,1.68627268209141,-0.0101203386634917
-136.900877002922,1,0.998004573853518,1.68627267191367,-0.0101655628605653
-136.735452387341,1,0.998004740805958,1.68627266216794,-0.0102107875301824
-136.57201712662,1,0.998004951658555,1.68627265297173,-0.0102554686468216
-136.398324276306,1,0.998005092259021,1.68627264367561,-0.0103029542769587
-136.224631425993,1,0.998005085306392,1.68627263487511,-0.0103504400552883
-136.06053040827,1,0.998004976523014,1.68627262701712,-0.0103953036190206
-136,1,0.998004926347369,1.68627262423046,-0.0104118520410823
-135.920746728513,1,0.998004861858277,1.68627262067286,-0.0104335194113514
-135.841493457026,1,0.998004802412623,1.68627261721919,-0.0104551879141696
-135.705438068085,1,0.99800470471895,1.68627261153615,-0.0104923893387717
-135.538291068086,1,0.99800455239809,1.68627260498492,-0.0105380958017914
-135.348225859524,1,0.998004300586174,1.68627259811343,-0.0105900725799892
-135.185833782208,1,0.998004061131939,1.68627259272497,-0.0106344834782224
-135.048468543339,1,0.998003907690059,1.68627258850803,-0.0106720509323964
-134.900947316332,1,0.998003850171121,1.68627258431994,-0.0107123965006839
-134.711194714395,1,0.998003956641511,1.6862725794372,-0.0107642925382819
-134.54297057711,1,0.998004145188579,1.68627257556684,-0.0108103010809042
-134.376650707674,1,0.998004298365483,1.68627257214718,-0.0108557890467619
-134.205482834429,1,0.998004332099277,1.68627256903268,-0.0109026030812315
-134.051043885522,1,0.998004248738076,1.68627256655953,-0.0109448418914186
-134,1,0.99800420559408,1.68627256580988,-0.0109588023331487
-133.92041284599,1,0.998004132281326,1.68627256470642,-0.0109805695530477
-133.840825691979,1,0.998004058631136,1.68627256368176,-0.0110023376442362
-133.699215494435,1,0.998003937202167,1.68627256205163,-0.0110410720529979
-133.524426120127,1,0.998003797734944,1.6862725603741,-0.0110888849423386
-133.354755080756,1,0.998003653333611,1.68627255908712,-0.0111352998951017
-133.176201379827,1,0.99800349307824,1.68627255807835,-0.0111841462538821
-133.024864093399,1,0.998003383681572,1.68627255748545,-0.0112255479136966
-132.884215569776,1,0.998003341016002,1.68627255713738,-0.0112640258611141
-132.724502819627,1,0.998003385208052,1.68627255696456,-0.0113077196468393
-132.530054283002,1,0.998003540410632,1.68627255705023,-0.0113609166778681
-132.358835242998,1,0.998003677768453,1.6862725573725,-0.0114077588080975
-132.187973220995,1,0.998003722888447,1.68627255790359,-0.0114545033814373
-132.031308435976,1,0.998003656428793,1.68627255855781,-0.0114973639410078
-132,1,0.998003633026766,1.68627255870638,-0.0115059293568376
-131.907347918991,1,0.998003552558656,1.68627255917891,-0.0115312774689362
-131.814695837981,1,0.99800346552174,1.68627255969845,-0.0115566263381334
-131.663497762465,1,0.998003335642238,1.68627256064051,-0.0115979944801007
-131.448897921632,1,0.998003213344329,1.68627256215901,-0.011656711862502
-131.273666785037,1,0.998003162298401,1.68627256353727,-0.011704658788416
-131.128658374279,1,0.998003134456393,1.68627256475904,-0.0117443367607201
-130.996293270807,1,0.998003113906905,1.68627256593025,-0.011780555508611
-130.848626159044,1,0.998003101981061,1.68627256729148,-0.0118209615401045
-130.679239058732,1,0.998003117855882,1.68627256891285,-0.011867311011074
-130.479171870752,1,0.998003181277103,1.68627257089377,-0.0119220556781005
-130.288950657552,1,0.998003244916407,1.68627257282651,-0.0119741062919336
-130.12230664219,1,0.998003252760538,1.68627257454664,-0.0120197055090586
-130,1,0.998003216895093,1.68627257581916,-0.012053172635453
-129.894290648551,1,0.998003163599905,1.68627257692255,-0.0120820983362164
-129.788581297102,1,0.998003100866011,1.68627257802564,-0.0121110245701994
-129.631818050294,1,0.998003015255067,1.68627257965271,-0.0121539220251729
-129.414765498116,1,0.998002956316281,1.68627258187113,-0.012213318529048
-129.257975170654,1,0.998002960024519,1.68627258343826,-0.0122562248397892
-129.101184843193,1,0.998002977714744,1.68627258496892,-0.0122991314507881
-128.932497523693,1,0.998002983135477,1.68627258656969,-0.0123452939637633
-128.768879248907,1,0.998002966351257,1.68627258807256,-0.0123900694472413
-128.612413002228,1,0.998002944724398,1.6862725894608,-0.0124328878137676
-128.447847136349,1,0.998002938374449,1.68627259086673,-0.0124779227728337
-128.254473185867,1,0.99800296070529,1.68627259244507,-0.0125308413670703
-128.07797499478,1,0.998002985640447,1.68627259381425,-0.0125791417867219
-128,1,0.998002989094286,1.68627259439713,-0.0126004804334014
-127.849528207859,1,0.998002976099127,1.68627259548224,-0.0126416585783926
-127.715991581687,1,0.998002945572806,1.68627259639782,-0.0126782024827118
-127.570250046056,1,0.998002906990037,1.68627259734015,-0.0127180865695522
-127.394109787484,1,0.998002880187985,1.68627259839497,-0.0127662898303935
-127.173128032051,1,0.998002897294356,1.68627259958423,-0.0128267647362519
-127.037234852647,1,0.998002921522885,1.68627260024197,-0.012863954011617
-126.901341673243,1,0.998002937999074,1.68627260084398,-0.0129011432990024
-126.730462379344,1,0.998002933384273,1.68627260152384,-0.0129479070990446
-126.547176858422,1,0.998002904551391,1.68627260216079,-0.012998066078246
-126.370854631153,1,0.998002881875861,1.68627260268733,-0.0130463194571631
-126.196928687458,1,0.998002885526388,1.68627260312795,-0.0130939170637978
-126.025003152264,1,0.998002909360457,1.68627260349068,-0.0131409672326087
-126,1,0.998002913064703,1.68627260353776,-0.0131478097570905
-125.874984238681,1,0.998002927655689,1.68627260375131,-0.0131820223488264
-125.720299094024,1,0.99800292851676,1.68627260396554,-0.0132243544923317
-125.536946852312,1,0.998002904877396,1.68627260414712,-0.0132745319195798
-125.355280428712,1,0.99800287770432,1.68627260425091,-0.0133242480374902
-125.179992788068,1,0.998002872418312,1.6862726042822,-0.0133722185200682
-125.010911518577,1,0.998002889744276,1.68627260425204,-0.0134184905420196
-124.851275871634,1,0.998002910593904,1.6862726041729,-0.0134621776232126
-124.698591267769,1,0.998002917933601,1.68627260405447,-0.013503962439191
-124.543819749163,1,0.998002907169756,1.68627260389503,-0.0135463183763089
-124.380516749287,1,0.998002885809609,1.6862726036875,-0.013591009101914
-124.206227643439,1,0.998002872302792,1.68627260342584,-0.0136387063662876
-124.018951191025,1,0.998002882308381,1.68627260310356,-0.0136899578373154
-124,1,0.998002884454183,1.68627260306892,-0.0136951441706323
-123.905244044875,1,0.998002896654652,1.68627260288988,-0.0137210758409163
-123.763031496931,1,0.998002912139345,1.68627260260469,-0.0137599950335396
-123.564117425554,1,0.998002907682491,1.68627260217636,-0.0138144320126374
-123.407761670042,1,0.998002879816188,1.68627260181879,-0.01385722222218
-123.251405914529,1,0.99800284518451,1.68627260144559,-0.0139000125378317
-123.075752848733,1,0.998002820874624,1.68627260101075,-0.0139480840805156
-122.878461196495,1,0.998002825258987,1.68627260050674,-0.014002077575613
-122.737125453285,1,0.998002841208361,1.68627260013821,-0.0140407574880127
-122.595789710076,1,0.998002856036155,1.68627259976507,-0.0140794374047948
-122.424648749805,1,0.998002862129499,1.68627259930924,-0.0141262742378198
-122.239052462006,1,0.998002855650077,1.68627259881274,-0.0141770671245907
-122.059807829989,1,0.9980028495323,1.68627259833378,-0.0142261217335886
-122,1,0.998002849333492,1.68627259817461,-0.0142424896074498
-121.877664444439,1,0.998002852198386,1.68627259785019,-0.0142759697726379
-121.755328888878,1,0.998002855531896,1.68627259752738,-0.0143094502276503
-121.569570778897,1,0.998002847082455,1.68627259703955,-0.014360288420714
-121.398756971649,1,0.998002815727501,1.68627259659345,-0.0144070369932642
-121.2279431644,1,0.998002771157983,1.68627259615032,-0.0144537857670405
-121.05637213381,1,0.998002736191432,1.68627259570922,-0.0145007419111162
-120.886020259142,1,0.998002730004143,1.68627259527639,-0.0145473644780684
-120.717027468531,1,0.998002752363162,1.68627259485331,-0.0145936151410806
-120.552879060917,1,0.998002784796797,1.68627259444954,-0.0146385400110075
-120.395422163035,1,0.99800280688641,1.68627259406986,-0.014681633544375
-120.239248101265,1,0.998002810068217,1.68627259370153,-0.0147243759981985
-120.076434820413,1,0.998002796198643,1.68627259332714,-0.0147689355108102
-120,1,0.998002786820405,1.686272593155,-0.0147898545658803
-119.883120542201,1,0.998002773087512,1.68627259289639,-0.0148218427826325
-119.766241084402,1,0.998002761782202,1.68627259264324,-0.0148538313077628
-119.572236332109,1,0.998002744265195,1.68627259223442,-0.0149069286531487
-119.396102432307,1,0.998002720762857,1.68627259187517,-0.0149551353214522
-119.219968532505,1,0.998002688947847,1.68627259152724,-0.0150033422361557
-119.055914957154,1,0.998002662213992,1.68627259121358,-0.0150482429828704
-118.901520368455,1,0.998002651847458,1.68627259092783,-0.0150905001977017
-118.741518149532,1,0.99800266224375,1.68627259064162,-0.0151342922531179
-118.563934512324,1,0.998002691577086,1.68627259033615,-0.0151828963191373
-118.379440971194,1,0.998002719961806,1.68627259003272,-0.0152333916261572
-118.216918855834,1,0.998002726030601,1.68627258977747,-0.0152778734589916
-118.074517633881,1,0.998002713907451,1.68627258956324,-0.0153168482856404
-118,1,0.998002703053595,1.68627258945467,-0.015337243562471
-117.876008701042,1,0.998002683029158,1.68627258927939,-0.0153711797121739
-117.752017402083,1,0.998002665095067,1.68627258911066,-0.0154051161418872
-117.567303232811,1,0.998002646765658,1.68627258887093,-0.0154556728225292
-117.34318387318,1,0.998002632719314,1.686272588598,-0.0155170151861057
-117.216108049875,1,0.99800262379299,1.6862725884518,-0.0155517965492878
-117.089032226569,1,0.998002613969959,1.68627258831164,-0.0155865779471809
-116.916180012835,1,0.998002603116934,1.6862725881306,-0.01563388866969
-116.710818868257,1,0.998002603724798,1.6862725879297,-0.015690097348551
-116.551762863419,1,0.998002616246074,1.68627258778455,-0.0157336320591501
-116.392706858582,1,0.998002632582981,1.68627258764835,-0.0157771667884541
-116.217025456927,1,0.998002642702729,1.68627258750815,-0.0158252520103387
-116.039344507863,1,0.998002635948966,1.68627258737704,-0.0158738845286287
-116,1,0.998002632191507,1.68627258734944,-0.0158846534130329
-115.827720832443,1,0.998002611859177,1.68627258723449,-0.0159318074797588
-115.68766271366,1,0.998002596225915,1.6862725871479,-0.0159701426205952
-115.551459801134,1,0.998002587313939,1.68627258706923,-0.0160074226404329
-115.38407264566,1,0.998002586224888,1.68627258697968,-0.0160532381579523
-115.175020005515,1,0.998002592466594,1.68627258687834,-0.0161104580007591
-115.034652994191,1,0.998002594530244,1.68627258681657,-0.016148877960621
-114.894285982868,1,0.998002592883863,1.6862725867596,-0.0161872979290015
-114.72027015619,1,0.998002588293149,1.68627258669541,-0.0162349279497534
-114.521015768882,1,0.998002586744571,1.68627258663026,-0.016289466042426
-114.329835805365,1,0.998002591698863,1.68627258657571,-0.0163417940699835
-114.176110563005,1,0.998002595902143,1.68627258653725,-0.0163838703859324
-114.044080148223,1,0.998002596078345,1.68627258650787,-0.0164200085962586
-114,1,0.998002595153012,1.68627258649879,-0.0164320738270654
-113.80079377854,1,0.998002586207339,1.68627258646195,-0.0164865987703455
-113.628559570828,1,0.998002577242448,1.68627258643518,-0.0165337412439321
-113.488694671569,1,0.998002574104471,1.68627258641652,-0.0165720239297538
-113.350155496993,1,0.998002576639134,1.68627258640039,-0.0166099437474173
-113.180191431768,1,0.998002584647548,1.68627258638353,-0.0166564649299648
-112.974976194251,1,0.998002591795074,1.68627258636708,-0.0167126347690918
-112.832874338796,1,0.998002590260848,1.68627258635806,-0.0167515297684135
-112.690772483342,1,0.998002584182988,1.68627258635077,-0.0167904247604376
-112.516552631814,1,0.998002575861538,1.68627258634403,-0.0168381108269028
-112.316175539177,1,0.998002573274293,1.68627258633903,-0.0168929564316504
-112.166616081401,1,0.998002577239808,1.68627258633712,-0.016933892668321
-112.017056623625,1,0.998002583084067,1.68627258633661,-0.0169748289006041
-112,1,0.998002583665047,1.68627258633664,-0.0169794975063566
-111.914716881873,1,0.998002585963641,1.68627258633701,-0.0170028405233997
-111.650341529436,1,0.9980025851091,1.68627258634021,-0.0170752031341761
-111.503938725759,1,0.998002582588626,1.68627258634311,-0.017115275204205
-111.357535922082,1,0.998002582756879,1.68627258634649,-0.0171553472523786
-111.169271431881,1,0.998002588685639,1.68627258635136,-0.0172068772876683
-110.967337025032,1,0.998002597294872,1.68627258635702,-0.0172621489268958
-110.794492654111,1,0.998002599826736,1.68627258636221,-0.0173094582852218
-110.65385029548,1,0.998002596847076,1.68627258636676,-0.0173479535629273
-110.515606662597,1,0.998002590912417,1.68627258637125,-0.017385792298301
-110.348204058809,1,0.99800258443542,1.6862725863767,-0.0174316121637211
-110.15063117712,1,0.998002583685512,1.68627258638314,-0.017485689966775
-110,1,0.998002588396856,1.68627258638816,-0.0175269193013533
-109.843941738995,1,0.998002594355863,1.68627258639341,-0.0175696341013561
-109.652183019182,1,0.998002597174719,1.68627258640048,-0.0176221205647239
-109.445234541419,1,0.998002592105705,1.68627258640971,-0.0176787647092773
-109.313642389488,1,0.998002587326535,1.68627258641697,-0.0177147829258765
-109.182050237556,1,0.998002583487272,1.68627258642511,-0.0177508011773514
-109.008451511455,1,0.998002581906118,1.68627258643728,-0.0177983171255175
-108.801734460762,1,0.998002583719979,1.68627258645383,-0.0178548979620156
-108.651919672875,1,0.998002584919797,1.68627258646726,-0.0178959039730393
-108.502104884988,1,0.998002584595349,1.6862725864817,-0.0179369099909911
-108.32467344904,1,0.998002583325832,1.68627258649993,-0.0179854750143272
-108.13019756948,1,0.998002583933473,1.68627258652113,-0.0180387053160534
-108,1,0.998002586457635,1.6862725865361,-0.0180743418612751
-107.850584135666,1,0.998002589829377,1.68627258655371,-0.0181152387015045
-107.644735510928,1,0.998002590966012,1.68627258657867,-0.018171581894155
-107.47027904063,1,0.99800258626206,1.68627258660039,-0.0182193327088428
-107.295822570332,1,0.998002578462091,1.68627258662247,-0.0182670835406761
-107.124099055912,1,0.998002572744924,1.68627258664444,-0.0183140863391624
-106.964209540318,1,0.998002572554568,1.68627258666506,-0.0183578500253538
-106.810590412986,1,0.9980025768731,1.68627258668491,-0.0183998974312856
-106.650017778708,1,0.998002583019079,1.68627258670555,-0.0184438481039014
-106.475691115747,1,0.998002587196884,1.68627258672774,-0.0184915634292796
-106.295898579771,1,0.998002586458956,1.68627258675029,-0.0185407748380957
-106.127894397931,1,0.998002582714167,1.68627258677108,-0.0185867596241256
-106,1,0.998002579979468,1.6862725867868,-0.0186217658514175
-105.844794774078,1,0.998002578167504,1.6862725868054,-0.018664247429107
-105.643656968142,1,0.998002577362448,1.68627258682912,-0.0187193014657578
-105.493848299013,1,0.998002575148871,1.68627258684683,-0.0187603061522404
-105.344039629885,1,0.998002570461455,1.68627258686457,-0.0188013108794263
-105.169100725045,1,0.998002563336972,1.68627258688532,-0.0188491941323619
-104.978974128327,1,0.998002557909158,1.6862725869079,-0.0189012344911911
-104.802444848504,1,0.998002558162231,1.68627258692889,-0.0189495530899435
-104.651195538092,1,0.998002561885854,1.68627258694692,-0.018990952232639
-104.508011001469,1,0.998002566299524,1.68627258696391,-0.0190301439322971
-104.347806439424,1,0.998002569488312,1.68627258698271,-0.0190739942536527
-104.163521402367,1,0.998002568966157,1.68627258700404,-0.0191244357457207
-104,1,0.998002565711202,1.6862725870227,-0.0191691939391599
-103.833088014599,1,0.998002562345529,1.68627258704143,-0.0192148801875196
-103.667569876548,1,0.998002560711313,1.68627258705981,-0.0192601849384575
-103.503724215094,1,0.998002560663999,1.68627258707801,-0.0193050319207353
-103.340117877584,1,0.99800256092535,1.68627258709625,-0.0193498134043171
-103.175455872726,1,0.998002560565341,1.68627258711469,-0.0193948838442256
-103.009620432094,1,0.998002559889793,1.68627258713333,-0.0194402754737471
-102.843219909578,1,0.998002560072239,1.68627258715207,-0.0194858217765661
-102.676830033446,1,0.998002561779699,1.68627258717077,-0.0195313651668227
-102.510951893722,1,0.998002564181464,1.68627258718933,-0.0195767684885028
-102.34608603677,1,0.998002565425605,1.68627258720764,-0.0196218947345868
-102.18221391256,1,0.998002564201876,1.68627258722562,-0.0196667489822217
-102.018339175872,1,0.998002560919717,1.68627258724335,-0.0197116039451668
-102,1,0.99800256047859,1.68627258724533,-0.0197166236561804
-101.908304120642,1,0.998002558465856,1.68627258725511,-0.0197417222002387
-101.729222406499,1,0.998002556184066,1.68627258727363,-0.0197907395861243
-101.496958891839,1,0.998002557209575,1.68627258729587,-0.0198543136702322
-101.366046025768,1,0.998002558190829,1.68627258730748,-0.019890146605682
-101.235133159698,1,0.998002558566952,1.68627258731816,-0.0199259795281876
-101.055678989745,1,0.998002557023836,1.68627258733133,-0.0199750989697846
-100.839429875753,1,0.998002553199854,1.6862725873449,-0.0200342897557392
-100.699713967737,1,0.998002551166438,1.68627258735249,-0.0200725322419133
-100.559998059721,1,0.998002550825354,1.68627258735907,-0.0201107747175065
-100.381399432384,1,0.998002552757995,1.68627258736607,-0.0201596600031582
-100.172376236326,1,0.998002555977439,1.68627258737236,-0.0202168729552603
-100,1,0.998002556926245,1.68627258737617,-0.0202640550687511
-99.8595827031307,1,0.998002556025857,1.6862725873786,-0.0203024895188414
-99.7056639293962,1,0.998002555235664,1.68627258738119,-0.0203446193753006
-99.5211748364559,1,0.998002557862327,1.68627258738571,-0.0203951166329994
-99.3228234581576,1,0.998002566646251,1.68627258739343,-0.0204494080650263
-99.1506266944284,1,0.998002576452514,1.68627258740309,-0.0204965405817457
-99.0102753350412,1,0.998002582804107,1.68627258741317,-0.02053495660384
-98.8723961810008,1,0.99800258604047,1.68627258742488,-0.0205726959191928
-98.706414702004,1,0.998002585347493,1.68627258744128,-0.0206181271774003
-98.5097038747952,1,0.998002579967259,1.68627258746378,-0.0206719694254984
-98.3187423302735,1,0.998002573988041,1.6862725874885,-0.0207242379967173
-98.1638618314698,1,0.998002570676835,1.6862725875105,-0.0207666307693484
-98.0298074715289,1,0.998002569720399,1.68627258753076,-0.0208033231688465
-98,1,0.998002569761787,1.68627258753541,-0.0208114818560412
-97.8509626423554,1,0.998002571311225,1.68627258755917,-0.0208522752890537
-97.6851265312646,1,0.998002574290633,1.68627258758612,-0.0208976668437998
-97.5041859537624,1,0.998002576706411,1.686272587615,-0.0209471927625561
-97.3274262289029,1,0.998002576268874,1.68627258764195,-0.0209955743737751
-97.1684730544508,1,0.998002572838854,1.68627258766477,-0.0210390821256869
-97.0194363203491,1,0.998002567514587,1.68627258768474,-0.0210798756270736
-96.8616819700897,1,0.998002561124635,1.68627258770424,-0.0211230552690658
-96.6856497179755,1,0.998002555602639,1.68627258772396,-0.0211712378379864
-96.5034094992089,1,0.998002554395727,1.68627258774211,-0.0212211196168653
-96.3353966753489,1,0.998002558086202,1.68627258775689,-0.0212671071642473
-96.1839513312419,1,0.998002564019003,1.68627258776867,-0.0213085599678314
-96.0327117858273,1,0.998002570045072,1.68627258777897,-0.0213499564381886
-96,1,0.998002571085026,1.68627258778102,-0.0213589101346773
-95.8364410708633,1,0.998002574004999,1.68627258779015,-0.0214036785749078
-95.6289108639475,1,0.998002572007549,1.6862725877984,-0.0214604824825713
-95.4845807599902,1,0.998002569088001,1.68627258780176,-0.0214999875529404
-95.340250656033,1,0.998002566990197,1.68627258780272,-0.021539492602287
-95.1633377773966,1,0.998002567476653,1.68627258780056,-0.0215879159708044
-94.964178868245,1,0.998002572060125,1.68627258779384,-0.0216424283627708
-94.7847748889738,1,0.998002577460531,1.68627258778417,-0.0216915335601425
-94.6394816131927,1,0.998002580894114,1.68627258777431,-0.0217313021648375
-94.5033226259284,1,0.998002582188011,1.68627258776325,-0.0217685706054707
-94.3435421650535,1,0.998002581253169,1.68627258774816,-0.0218123045575505
-94.1504383037667,1,0.998002577904291,1.68627258772725,-0.0218651595602079
-94,1,0.998002575083051,1.68627258770932,-0.0219063364347866
-93.8332671916964,1,0.998002572720113,1.68627258768791,-0.0219519733538363
-93.6018752383262,1,0.998002570407475,1.6862725876563,-0.0220153084583634
-93.4726687553628,1,0.998002568489516,1.6862725876389,-0.0220506741366935
-93.3434622723994,1,0.998002566348913,1.68627258762136,-0.0220860398183912
-93.1644567162623,1,0.998002563407662,1.68627258759728,-0.0221350362436091
-92.9438865498832,1,0.998002561014445,1.68627258756827,-0.0221954095144442
-92.8067302695832,1,0.99800256018994,1.68627258755122,-0.0222329512417023
-92.6695739892833,1,0.998002560008106,1.68627258753457,-0.0222704929602482
-92.4909739097077,1,0.998002560356213,1.68627258751366,-0.022319378457466
-92.2812238468418,1,0.998002561270936,1.68627258749023,-0.0223767901525559
-92.1402269421124,1,0.998002561839647,1.68627258747561,-0.022415383129065
-92,1,0.99800256247199,1.68627258746165,-0.0224537653453873
-91.8227786365674,1,0.998002563002014,1.68627258744485,-0.02250227347532
-91.6010523765761,1,0.998002562788701,1.68627258742498,-0.0225629632146729
-91.4618022258868,1,0.998002561937969,1.68627258741383,-0.0226010780574916
-91.3225520751975,1,0.998002561096118,1.68627258740315,-0.0226391928847457
-91.1436519378383,1,0.998002560656903,1.68627258739016,-0.0226881604842753
-90.9356367499195,1,0.998002561718078,1.68627258737603,-0.0227450972777415
-90.7944690951405,1,0.99800256294815,1.68627258736767,-0.0227837369584236
-90.6533014403614,1,0.998002564246326,1.68627258735975,-0.0228223766275792
-90.4766672609622,1,0.99800256512872,1.68627258735047,-0.0228707239950092
-90.2732976130366,1,0.998002564585355,1.68627258734063,-0.0229263892343782
-90.1295585475503,1,0.998002563297572,1.68627258733476,-0.0229657327433125
-90,1,0.998002562144491,1.68627258732986,-0.0230011948296649
-89.8214585404051,1,0.998002561293775,1.6862725873236,-0.0230500642534169
-89.6309887447288,1,0.998002561247194,1.6862725873178,-0.0231021986679588
-89.4625728598625,1,0.998002561124062,1.68627258731361,-0.0231482966357834
-89.3186769941953,1,0.998002560465817,1.6862725873108,-0.0231876831391094
-89.17441539968,1,0.998002559458802,1.68627258730851,-0.0232271697443173
-89.0054172589782,1,0.998002558220537,1.68627258730651,-0.0232734271155987
-88.8128523589051,1,0.99800255745692,1.68627258730507,-0.0233261350619989
-88.6293809786268,1,0.99800255770437,1.6862725873045,-0.0233763539699238
-88.4763102014835,1,0.998002558210972,1.68627258730479,-0.0234182518038197
-88.3376034146568,1,0.998002558675664,1.6862725873055,-0.0234562179954909
-88.183352380032,1,0.998002558997832,1.68627258730664,-0.0234984388736458
-88,1,0.99800255896401,1.6862725873085,-0.0235486252279218
-87.8056393385426,1,0.998002558727186,1.68627258731112,-0.0236018246995451
-87.626934687467,1,0.998002558840466,1.68627258731446,-0.0236507388533702
-87.4770338990501,1,0.998002559264758,1.68627258731837,-0.0236917689729984
-87.3366993140198,1,0.998002559997489,1.68627258732288,-0.0237301806672726
-87.1776805326329,1,0.998002561005642,1.68627258732897,-0.0237737064884302
-86.9902798640191,1,0.998002562034509,1.68627258733748,-0.023825000840908
-86.7995576833798,1,0.998002562717926,1.68627258734753,-0.0238772043230431
-86.6366539052962,1,0.998002562816632,1.6862725873573,-0.0239217935170017
-86.4963991124002,1,0.998002562538059,1.68627258736653,-0.0239601833629205
-86.3501148584789,1,0.998002562072704,1.68627258737671,-0.0240002235475346
-86.1750831828766,1,0.998002561330468,1.68627258738959,-0.0240481323190563
-86,1,0.998002560620498,1.68627258740316,-0.024096055187241
-85.8178179778154,1,0.998002560401321,1.68627258741795,-0.0241459211049402
-85.6472082251093,1,0.998002560930564,1.68627258743262,-0.0241926195195371
-85.493756221831,1,0.998002561896137,1.68627258744672,-0.0242346216151227
-85.3433803121547,1,0.998002563014773,1.68627258746136,-0.0242757817338709
-85.1785491824528,1,0.998002563925194,1.68627258747831,-0.0243208984510051
-84.997128287802,1,0.998002564066188,1.68627258749798,-0.024370556022652
-84.8181971337902,1,0.998002563341323,1.68627258751834,-0.0244195321111462
-84.6582808943801,1,0.998002562321233,1.6862725875373,-0.024463303552863
-84.5103504510304,1,0.998002561542801,1.68627258755536,-0.0245037943110682
-84.3543610296771,1,0.998002561253946,1.68627258757478,-0.0245464909225737
-84.1782205355235,1,0.998002561584959,1.68627258759708,-0.0245947031721415
-84,1,0.998002562308836,1.68627258761991,-0.0246434847561275
-83.8294893509595,1,0.998002562978856,1.686272587642,-0.0246901560236995
-83.662417118167,1,0.998002563798181,1.68627258766416,-0.0247358860963355
-83.4989352385148,1,0.998002565137599,1.68627258768668,-0.0247806334073761
-83.3365444133001,1,0.998002567045406,1.68627258771001,-0.0248250820607274
-83.1716266192776,1,0.998002569146775,1.68627258773471,-0.0248702223651219
-83.0035092054003,1,0.998002570763199,1.68627258776087,-0.0249162384384971
-82.8354829258542,1,0.99800257130079,1.68627258778792,-0.0249622295604828
-82.6708902718766,1,0.998002570715349,1.68627258781517,-0.0250072808495373
-82.5089532411119,1,0.998002569479841,1.68627258784257,-0.0250516052566737
-82.3456538647846,1,0.998002568226328,1.68627258787065,-0.0250963025538907
-82.1783947102796,1,0.99800256751795,1.68627258789972,-0.0251420836936963
-82,1,0.998002567710033,1.68627258793089,-0.025190912779756
-81.8351673141871,1,0.998002568519119,1.68627258795988,-0.0252360297537044
-81.67671061974,1,0.998002569804715,1.68627258798824,-0.0252794014973493
-81.5155469497419,1,0.998002571611932,1.68627258801805,-0.0253235141492928
-81.3462202950548,1,0.998002573806233,1.68627258805066,-0.0253698610967792
-81.1729252753461,1,0.998002575801205,1.68627258808547,-0.0254172942226463
-81.005198838109,1,0.998002576859738,1.68627258812052,-0.0254632031491843
-80.8459894637618,1,0.998002576738802,1.68627258815492,-0.0255067808451057
-80.6882052824294,1,0.998002575670588,1.68627258818993,-0.025549968443761
-80.5229122538562,1,0.998002574091661,1.6862725882274,-0.025595211305763
-80.3495065746934,1,0.998002572759833,1.68627258826736,-0.0256426747002235
-80.1774523476094,1,0.998002572437484,1.68627258830748,-0.0256897681831382
-80,1,0.998002573351093,1.6862725883491,-0.0257383391940733
-79.8460387730478,1,0.998002574648964,1.68627258838543,-0.0257804803886041
-79.6937115465144,1,0.998002576333408,1.6862725884218,-0.0258221742728549
-79.526406457667,1,0.998002578680994,1.68627258846275,-0.0258679677323895
-79.3445830292086,1,0.998002581659436,1.68627258850876,-0.0259177349952637
-79.1677208890216,1,0.998002584405448,1.68627258855511,-0.0259661442683769
-79.0095765315988,1,0.998002586040788,1.68627258859786,-0.0260094302644733
-78.8611905687258,1,0.998002586530421,1.68627258863895,-0.0260500452683571
-78.7030446356962,1,0.998002585908439,1.68627258868357,-0.0260933316784385
-78.5254836555465,1,0.998002584194529,1.68627258873445,-0.0261419322036428
-78.3420069364318,1,0.998002582291375,1.68627258878763,-0.0261921519251877
-78.1749977864484,1,0.998002581335001,1.68627258883636,-0.0262378642889292
-78.0257274299122,1,0.998002581508304,1.68627258888002,-0.0262787213504144
-78,1,0.998002581622256,1.68627258888755,-0.0262857632562595
-77.871362850439,1,0.99800258269473,1.68627258892498,-0.0263209727694831
-77.6992542103581,1,0.998002584356613,1.68627258897384,-0.0263680809856923
-77.4854923349727,1,0.998002584556926,1.68627258903063,-0.0264265902352148
-77.3435897990541,1,0.998002582554474,1.68627258906545,-0.0264654307596113
-77.2016872631355,1,0.998002579354277,1.68627258909745,-0.0265042712864565
-77.0238364158779,1,0.99800257493769,1.68627258913339,-0.0265529513227385
-76.8199435715524,1,0.998002571626582,1.68627258916882,-0.0266087593759832
-76.6772505388374,1,0.998002571135512,1.68627258919022,-0.0266478163041422
-76.5345575061225,1,0.998002572397984,1.68627258920872,-0.026686873224616
-76.3588017149679,1,0.998002575528868,1.68627258922765,-0.0267349798379861
-76.1580190131147,1,0.998002579287773,1.68627258924433,-0.0267899366225805
-76,1,0.998002580792988,1.68627258925415,-0.0268331884641398
-75.8512175288894,1,0.99800258056272,1.68627258926087,-0.0268739121363475
-75.6786774140978,1,0.998002578993663,1.68627258926606,-0.0269211385029385
-75.4858061875767,1,0.998002577531659,1.68627258926939,-0.0269739296773101
-75.3051315867502,1,0.998002578095202,1.6862725892708,-0.0270233824501776
-75.1541212695553,1,0.998002580159977,1.68627258927123,-0.0270647157725057
-75.0146124908657,1,0.998002583067395,1.68627258927099,-0.0271029009768805
-74.8574602827376,1,0.998002586597088,1.68627258927001,-0.0271459153755488
-74.6707105265096,1,0.99800258951103,1.68627258926807,-0.0271970309524524
-74.4780488548976,1,0.998002589774388,1.68627258926531,-0.027249764669342
-74.3134684028773,1,0.998002587645547,1.68627258926265,-0.027294812251373
-74.1736644889368,1,0.998002584835308,1.68627258926027,-0.0273330782271914
-74.0293578545959,1,0.998002582132871,1.68627258925747,-0.0273725766345265
-74,1,0.998002581674112,1.68627258925689,-0.0273806122226524
-73.8532107270206,1,0.998002580272845,1.68627258925364,-0.027420790171965
-73.6849248514459,1,0.998002580000315,1.68627258924877,-0.0274668520947189
-73.4989895771981,1,0.998002579729031,1.68627258924074,-0.0275177449581275
-73.3219943686519,1,0.998002577907967,1.68627258922988,-0.0275661908685006
-73.1680300674567,1,0.99800257472148,1.68627258921778,-0.0276083329688492
-73.0231565137412,1,0.998002571050969,1.68627258920402,-0.0276479868271539
-72.8640053205994,1,0.998002567454157,1.68627258918629,-0.0276915486713649
-72.6815082285136,1,0.998002565319756,1.6862725891628,-0.027741500607209
-72.4948819514769,1,0.998002566099688,1.68627258913559,-0.0277925827552044
-72.3303790395986,1,0.998002568619318,1.6862725891093,-0.0278376094577208
-72.1857144557021,1,0.998002571224292,1.68627258908464,-0.0278772061558864
-72.0371126010039,1,0.998002573379553,1.68627258905787,-0.0279178805305425
-72,1,0.998002573717311,1.686272589051,-0.027928038763226
-71.8144369949805,1,0.998002574088467,1.68627258901519,-0.0279788299019007
-71.5876346425429,1,0.998002571883725,1.68627258896675,-0.0280409087735508
-71.4552263602597,1,0.998002569722691,1.68627258893722,-0.0280771507525036
-71.3228180779764,1,0.998002567921969,1.68627258890521,-0.0281133927111853
-71.144014545752,1,0.998002566759719,1.68627258885852,-0.0281623336696599
-70.9276812730341,1,0.998002567849422,1.68627258879695,-0.0282215470043406
-70.7891720834658,1,0.998002569426595,1.68627258875619,-0.0282594588716512
-70.6506628938975,1,0.998002571375647,1.68627258871351,-0.0282973707266425
-70.4726987361625,1,0.998002573494346,1.68627258865633,-0.0283460819329074
-70.2643477488356,1,0.998002574279014,1.68627258858652,-0.0284031104080097
-70.123081061827,1,0.998002573290797,1.68627258853895,-0.0284417770362708
-70,1,0.998002571785167,1.6862725884968,-0.0284754660040632
-69.8197708039369,1,0.99800256931234,1.68627258843411,-0.028524797189389
-69.6299501747507,1,0.998002567151057,1.68627258836801,-0.0285767537186798
-69.4640243221927,1,0.998002565901721,1.68627258831104,-0.028622169961069
-69.3211987309095,1,0.998002565336367,1.68627258826299,-0.0286612633701933
-69.1754992221037,1,0.998002565313037,1.68627258821492,-0.0287011434084047
-69.0038032524487,1,0.99800256568467,1.68627258815975,-0.0287481390464257
-68.8104654920845,1,0.998002566160731,1.68627258809979,-0.028801058345342
-68.6298387957149,1,0.998002566321471,1.68627258804608,-0.0288504984455168
-68.479364804227,1,0.998002566024394,1.68627258800334,-0.028891685354762
-68.3402296978615,1,0.998002565614879,1.68627258796532,-0.0289297686465964
-68.1828744906059,1,0.998002565169301,1.68627258792402,-0.0289728390301449
-68,1,0.998002564759374,1.68627258787837,-0.0290228944008402
-67.8063496513938,1,0.998002564625749,1.686272587833,-0.0290758992631794
-67.6345068401417,1,0.998002564815549,1.68627258779592,-0.0291229350927809
-67.4899583651955,1,0.998002565150278,1.68627258776756,-0.0291625000974896
-67.3480717816103,1,0.998002565762864,1.68627258774226,-0.0292013364916808
-67.1819513214589,1,0.998002566613921,1.68627258771591,-0.0292468060312249
-66.9891614373829,1,0.99800256733212,1.68627258768979,-0.0292995753585167
-66.8025193080635,1,0.998002567411125,1.68627258766894,-0.0293506619462291
-66.6475802014875,1,0.998002566812574,1.68627258765501,-0.0293930710010456
-66.5099721148797,1,0.998002566067387,1.68627258764501,-0.0294307363134768
-66.3585230210312,1,0.9980025654178,1.68627258763637,-0.0294721900919982
-66.1754477912388,1,0.998002565137734,1.68627258762907,-0.0295223003843973
-66,1,0.998002565440829,1.68627258762515,-0.0295703229384171
-65.8254272563273,1,0.998002566115156,1.68627258762408,-0.029618105973124
-65.6570672145032,1,0.998002566966312,1.6862725876258,-0.0296641884808552
-65.4976204595474,1,0.998002567894108,1.68627258763005,-0.0297078312880191
-65.3401056286135,1,0.998002568869063,1.68627258763673,-0.0297509452911164
-65.1752115424417,1,0.99800256979576,1.68627258764625,-0.0297960790879322
-65.0017571724941,1,0.998002570422664,1.68627258765888,-0.0298435559434587
-64.8292186926464,1,0.998002570491454,1.68627258767393,-0.0298907821031032
-64.6664257111143,1,0.998002570020813,1.68627258769021,-0.0299353407903767
-64.5104277101315,1,0.998002569294294,1.68627258770752,-0.0299780396004535
-64.3503819929186,1,0.998002568631093,1.6862725877268,-0.0300218463220726
-64.1795883311488,1,0.998002568362152,1.68627258774884,-0.0300685948985318
-64,1,0.998002568734765,1.68627258777341,-0.0301177506897621
-63.8326255099571,1,0.998002569454919,1.68627258779756,-0.030163563383317
-63.6724492934302,1,0.998002570454793,1.686272587822,-0.0302074057744633
-63.512227236652,1,0.998002571831603,1.68627258784808,-0.0302512606854109
-63.345600072189,1,0.998002573567986,1.68627258787705,-0.0302968687372191
-63.1736537843445,1,0.998002575338793,1.68627258790892,-0.0303439326867522
-63.0041893221134,1,0.99800257659947,1.68627258794217,-0.0303903173203097
-62.8422220902976,1,0.998002577003686,1.68627258797551,-0.0304346498640422
-62.6838440374187,1,0.998002576574684,1.68627258800939,-0.0304780000011683
-62.5208952058601,1,0.998002575520866,1.68627258804534,-0.0305226012145999
-62.3501913735388,1,0.998002574268827,1.68627258808397,-0.0305693250668346
-62.1778823825041,1,0.998002573473205,1.68627258812373,-0.0306164882689677
-62,1,0.998002573625351,1.68627258816531,-0.0306651769728285
-61.8435898602566,1,0.998002574423294,1.68627258820231,-0.0307079884554338
-61.6914731344661,1,0.998002575837008,1.68627258823889,-0.0307496247303669
-61.5272181802698,1,0.998002578005609,1.68627258827946,-0.0307945833516178
-61.348026079028,1,0.998002580715569,1.68627258832525,-0.0308436304219984
-61.1700272055346,1,0.998002583045023,1.68627258837235,-0.0308923508704803
-61.0086084208632,1,0.998002584211468,1.68627258841641,-0.0309365331507525
-60.8586954261875,1,0.998002584283587,1.68627258845832,-0.0309775661580851
-60.7024798471576,1,0.998002583469681,1.68627258850279,-0.0310203242484615
-60.528388507086,1,0.998002581931204,1.68627258855309,-0.0310679751395267
-60.3455505008361,1,0.998002580403358,1.68627258860648,-0.0311180200882686
-60.1755224909437,1,0.998002579739341,1.68627258865642,-0.0311645587924468
-60.0234966446482,1,0.998002580020244,1.68627258870114,-0.0312061701034047
-60,1,0.998002580116816,1.68627258870806,-0.031212601423783
-59.8825167767588,1,0.998002580981942,1.68627258874247,-0.0312447580073944
-59.7086032972694,1,0.998002582514758,1.68627258879231,-0.0312923602619964
-59.4819241515304,1,0.998002582892446,1.68627258885336,-0.0313544051537722
-59.3451852070484,1,0.998002581249053,1.68627258888763,-0.0313918323588352
-59.2084462625663,1,0.998002578639241,1.68627258891946,-0.0314292595583223
-59.0285722691062,1,0.998002574753587,1.6862725889575,-0.0314784933692437
-58.8164331551753,1,0.998002571735462,1.68627258899663,-0.0315365585412159
-58.6774084002066,1,0.998002571294268,1.68627258901921,-0.0315746114273172
-58.5383836452379,1,0.998002572388149,1.6862725890392,-0.0316126643017155
-58.361176385994,1,0.998002575238832,1.68627258906106,-0.0316611682102797
-58.1543686576012,1,0.998002578721946,1.68627258908169,-0.031717774129574
-58,1,0.998002579925086,1.68627258909405,-0.0317600268336437
-57.8532682941822,1,0.998002579621517,1.68627258910346,-0.0318001891948568
-57.6804420707562,1,0.998002578127996,1.68627258911197,-0.0318474938932235
-57.4852533099716,1,0.998002576801915,1.68627258911892,-0.0319009194339738
-57.3031484506842,1,0.99800257740841,1.68627258912341,-0.0319507637157677
-57.1531215111911,1,0.998002579270606,1.68627258912616,-0.0319918279075832
-57.0155633755884,1,0.998002581796779,1.68627258912786,-0.0320294792274655
-56.8593128455913,1,0.998002584837602,1.68627258912886,-0.0320722468594495
-56.6713497075021,1,0.99800258732456,1.68627258912895,-0.0321236945935867
-56.4765518909223,1,0.998002587512698,1.68627258912787,-0.0321770130386871
-56.3115785776118,1,0.998002585656242,1.68627258912637,-0.0322221681873999
-56.1731470819952,1,0.998002583247623,1.68627258912481,-0.0322600585493775
-56.0303969773929,1,0.998002580951286,1.68627258912268,-0.0322991309488118
-56,1,0.998002580540343,1.68627258912219,-0.0323074509636483
-55.8480151130353,1,0.998002579298947,1.68627258911926,-0.0323490510451478
-55.6780038416735,1,0.998002579004091,1.68627258911458,-0.0323955852594819
-55.4970627274671,1,0.99800257857613,1.68627258910682,-0.0324451111820103
-55.3254272340937,1,0.998002576813747,1.68627258909628,-0.0324920900888061
-55.170723345621,1,0.998002573870321,1.68627258908398,-0.0325344346325339
-55.0204079855288,1,0.998002570423316,1.68627258906942,-0.0325755779925116
-54.8570260073564,1,0.998002567132655,1.68627258905074,-0.032620297868236
-54.6768552079456,1,0.99800256533607,1.68627258902691,-0.0326696130755334
-54.4971336877866,1,0.998002566067587,1.68627258900006,-0.0327188053112815
-54.3354074179222,1,0.998002568344109,1.68627258897363,-0.0327630720187447
-54.1868406559491,1,0.998002570858527,1.68627258894765,-0.0328037367980409
-54.0321503918562,1,0.998002572929187,1.68627258891903,-0.0328460776583815
-54,1,0.998002573185004,1.68627258891292,-0.0328548776678682
-53.8392480407189,1,0.998002573542304,1.68627258888131,-0.0328988776928148
-53.6150865210523,1,0.998002571617054,1.68627258883367,-0.0329602337544487
-53.4640989685974,1,0.998002569511126,1.6862725887993,-0.0330015611144889
-53.3131114161425,1,0.998002567807846,1.68627258876261,-0.0330428884677256
-53.1332368021141,1,0.998002567154841,1.68627258871582,-0.0330921225913128
-52.9389680137301,1,0.998002568395459,1.68627258866173,-0.0331452965799495
-52.7664543746589,1,0.998002570536275,1.68627258861136,-0.0331925158966372
-52.6223467842747,1,0.998002572264418,1.68627258856831,-0.0332319601195858
-52.4814329219842,1,0.998002573524455,1.68627258852485,-0.0332705301654293
-52.3158175661399,1,0.998002573976151,1.68627258847233,-0.0333158613349864
-52.1223355520396,1,0.998002572928124,1.68627258840947,-0.0333688199754799
-52,1,0.998002571493119,1.6862725883697,-0.0334023048892475
-51.8338251529519,1,0.998002569484451,1.68627258831501,-0.0334477892063296
-51.6461034016958,1,0.998002567666572,1.68627258825371,-0.0334991712391669
-51.4660904111255,1,0.998002566654683,1.68627258819648,-0.0335484433037616
-51.3116133978344,1,0.998002566234699,1.68627258814928,-0.0335907258547646
-51.1689022093166,1,0.998002566198548,1.68627258810738,-0.0336297879433142
-51.0122359855861,1,0.99800256641505,1.68627258806336,-0.0336726697181993
-50.8296430016241,1,0.998002566660243,1.68627258801485,-0.0337226480121135
-50.6400499951484,1,0.998002566682444,1.68627258796774,-0.0337745423036312
-50.4735555460494,1,0.99800256637747,1.68627258792929,-0.0338201142099192
-50.3298691299636,1,0.998002565929668,1.68627258789836,-0.0338594432531977
-50.1839297862841,1,0.998002565574054,1.68627258786887,-0.0338993889446711
-50,1,0.998002565382129,1.68627258783442,-0.0339497331490792
-49.809961606313,1,0.998002565478299,1.68627258780215,-0.0340017493523601
-49.6401509414601,1,0.998002565807601,1.68627258777665,-0.0340482289345191
-49.4938281108769,1,0.998002566263654,1.68627258775759,-0.0340882795787343
-49.3486441259578,1,0.998002566978895,1.68627258774135,-0.0341280184916465
-49.181163269036,1,0.998002567929368,1.68627258772595,-0.0341738603592917
-48.9910285345008,1,0.998002568763759,1.68627258771272,-0.0342259028973776
-48.808020666545,1,0.998002568964999,1.6862725877041,-0.0342759947035825
-48.6532306172192,1,0.998002568464487,1.68627258769995,-0.0343183629263173
-48.5127915619253,1,0.998002567735222,1.68627258769846,-0.0343568030831662
-48.3585643479844,1,0.998002567013765,1.68627258769907,-0.0343990172397999
-48.175822634356,1,0.99800256660226,1.68627258770265,-0.0344490362052865
-48,1,0.998002566806101,1.68627258770883,-0.0344971613214445
-47.8284900189129,1,0.998002567450178,1.68627258771729,-0.034544105999892
-47.6632581520567,1,0.998002568361191,1.68627258772778,-0.0345893322486597
-47.5033604119723,1,0.998002569435777,1.68627258774027,-0.0346330984605579
-47.3423422648639,1,0.998002570581328,1.68627258775515,-0.0346771713314779
-47.1748873331505,1,0.998002571611377,1.68627258777298,-0.0347230060274486
-47.0031084735378,1,0.998002572235014,1.6862725877936,-0.0347700242334206
-46.8346844449492,1,0.998002572249132,1.68627258781591,-0.0348161241747766
-46.6734331434424,1,0.998002571729642,1.68627258783904,-0.0348602608463417
-46.5146491230385,1,0.998002570948355,1.68627258786328,-0.0349037221892184
-46.3506196602269,1,0.99800257023042,1.68627258788963,-0.034948619276728
-46.1793983054067,1,0.9980025699394,1.68627258791833,-0.0349954848780777
-46,1,0.998002570334182,1.68627258794945,-0.0350445886135271
-45.8369009642689,1,0.998002571073224,1.68627258797865,-0.03508923102072
-45.6797384647368,1,0.99800257216277,1.68627258800783,-0.0351322484750997
-45.5177140379169,1,0.998002573777766,1.68627258803936,-0.0351765966681173
-45.3462008286756,1,0.998002575891382,1.68627258807453,-0.0352235420362027
-45.1720851291975,1,0.998002577999663,1.68627258811212,-0.0352711997205893
-45.0059983983628,1,0.998002579414128,1.68627258814967,-0.0353166597690534
-44.8488269464166,1,0.998002579859782,1.68627258818658,-0.0353596795928072
-44.6910534422625,1,0.998002579398622,1.68627258822476,-0.0354028642003015
-44.5235401238396,1,0.998002578189094,1.68627258826631,-0.0354487147104037
-44.3481932690163,1,0.998002576743787,1.68627258831068,-0.0354967093515927
-44.1770423779325,1,0.998002575843395,1.68627258835462,-0.0355435555045186
-44.0171649572016,1,0.998002575843863,1.68627258839603,-0.035587315974387
-44,1,0.998002575871843,1.68627258840051,-0.0355920142450813
-43.9141752139922,1,0.998002576245987,1.68627258842283,-0.035615505583538
-43.7341637945558,1,0.998002577610989,1.6862725884692,-0.0356647770014887
-43.5073777189138,1,0.998002578800931,1.68627258852544,-0.0357268512421958
-43.3743767030894,1,0.998002578172515,1.68627258855709,-0.0357632553793105
-43.241375687265,1,0.998002576820944,1.68627258858726,-0.0357996595020753
-43.0623675861635,1,0.998002574309307,1.68627258862544,-0.0358486563594502
-42.8465151960756,1,0.99800257177341,1.68627258866758,-0.0359077379613456
-42.7079554763965,1,0.998002570917533,1.68627258869262,-0.0359456635985385
-42.5693957567174,1,0.998002571140945,1.68627258871586,-0.0359835892230987
-42.3914978175817,1,0.998002572698474,1.68627258874315,-0.0360322822255967
-42.1834663174065,1,0.998002575222639,1.68627258877148,-0.0360892231592468
-42.0418287734584,1,0.99800257631898,1.68627258878888,-0.0361279912376754
-42,1,0.998002576494287,1.68627258879371,-0.0361394403310288
-41.8003003913429,1,0.998002576568714,1.68627258881426,-0.0361941007296395
-41.650493431675,1,0.998002575413296,1.68627258882701,-0.0362351048866228
-41.5006864720071,1,0.998002573658404,1.68627258883657,-0.0362761090437533
-41.3256857670276,1,0.998002571552722,1.68627258884333,-0.0363240090583485
-41.1343308858083,1,0.998002570138813,1.68627258884515,-0.0363763854192219
-40.9588466008019,1,0.998002570172882,1.68627258884194,-0.036424417792571
-40.810292074474,1,0.998002571061311,1.68627258883601,-0.0364650791615854
-40.6683313498983,1,0.998002572469424,1.68627258882745,-0.0365039357141415
-40.5063081081146,1,0.998002574161982,1.68627258881438,-0.0365482836349155
-40.3175847156621,1,0.998002575324007,1.68627258879513,-0.0365999397327847
-40.1293076143855,1,0.998002575050314,1.68627258877203,-0.0366514736637521
-40,1,0.998002573860823,1.68627258875468,-0.0366868669080385
-39.8555277003656,1,0.998002572313269,1.68627258873342,-0.0367264109098727
-39.6754304612531,1,0.998002570596601,1.68627258870536,-0.0367757059374609
-39.4731280468866,1,0.998002569739169,1.68627258867331,-0.0368310788123808
-39.3317651892441,1,0.998002569719077,1.68627258865151,-0.0368697717575879
-39.1904023316015,1,0.998002570274474,1.68627258863026,-0.0369084646940897
-39.0150007426511,1,0.998002571342612,1.68627258860493,-0.0369564744844749
-38.8128507645603,1,0.998002572407017,1.68627258857741,-0.0370118056560613
-38.6678267770156,1,0.998002572515077,1.68627258855913,-0.03705150070548
-38.522802789471,1,0.998002572190367,1.68627258854189,-0.0370911957474454
-38.3473195009138,1,0.998002571380047,1.68627258852246,-0.0371392279043661
-38.1495067227828,1,0.998002570374493,1.68627258850241,-0.0371933719303121
-38,1,0.998002569701627,1.68627258848876,-0.0372342939640838
-37.8492195259935,1,0.998002569478698,1.68627258847614,-0.0372755646357782
-37.6804885386952,1,0.998002569826165,1.6862725884636,-0.0373217486029299
-37.4960317436369,1,0.998002570697487,1.68627258845215,-0.0373722369318734
-37.3189123394784,1,0.998002571550259,1.68627258844358,-0.0374207169181341
-37.1631502255638,1,0.998002571858903,1.68627258843811,-0.0374633511442269
-37.0169114667551,1,0.998002571690319,1.68627258843464,-0.0375033787004629
-36.8583123122258,1,0.998002571104719,1.6862725884326,-0.0375467894572882
-36.6778867457897,1,0.998002570204739,1.68627258843233,-0.0375961743929585
-36.4924200633099,1,0.998002569515752,1.68627258843419,-0.0376469391420732
-36.3267556442871,1,0.99800256933234,1.68627258843763,-0.0376922837562172
-36.180234505012,1,0.998002569542858,1.68627258844199,-0.0377323886088772
-36.031103896608,1,0.998002570114261,1.68627258844749,-0.0377732077005015
-36,1,0.998002570238962,1.68627258844878,-0.0377817212657289
-35.84448051696,1,0.998002570926517,1.68627258845564,-0.0378242890798052
-35.6509714121164,1,0.998002571231279,1.68627258846431,-0.037877255195921
-35.4529377056824,1,0.998002570354175,1.68627258847172,-0.0379314597610627
-35.291584089976,1,0.998002568567691,1.68627258847644,-0.0379756245223202
-35.1581046404004,1,0.998002566732435,1.68627258847924,-0.0380121597590555
-35.0164794278357,1,0.998002565123259,1.68627258848064,-0.0380509245891036
-34.8393629761248,1,0.998002564071642,1.68627258848025,-0.0380994038663615
-34.6359204786362,1,0.99800256459812,1.68627258847692,-0.0381550889394473
-34.4925206397961,1,0.998002565668728,1.6862725884732,-0.0381943395254776
-34.3491208009561,1,0.99800256708454,1.6862725884681,-0.0382335901030102
-34.1734032818901,1,0.998002568583179,1.68627258846011,-0.0382816864787939
-34,1,0.99800256909252,1.68627258845061,-0.0383291494152825
-33.8140016929676,1,0.998002568361573,1.68627258843891,-0.0383800597755838
-33.6292132397492,1,0.99800256705436,1.68627258842651,-0.0384306389418661
-33.4673351141772,1,0.998002566283888,1.68627258841592,-0.0384749472339084
-33.322879463106,1,0.998002566424712,1.68627258840698,-0.0385144867554379
-33.1719242909417,1,0.998002567602194,1.68627258839813,-0.0385558052698147
-32.9968163302451,1,0.998002569802443,1.68627258838867,-0.0386037347211841
-32.8067007943676,1,0.998002572130234,1.68627258837949,-0.0386557719362231
-32.6321774048587,1,0.998002573165963,1.68627258837221,-0.0387035413692355
-32.4832648426991,1,0.998002572778858,1.68627258836707,-0.0387443007930328
-32.3401942605924,1,0.998002571596312,1.68627258836281,-0.0387834611807652
-32.1774843729392,1,0.998002569846414,1.68627258835869,-0.0388279971046062
-32,1,0.998002568241643,1.68627258835511,-0.0388765770018149
-31.8111147522665,1,0.998002567740178,1.68627258835245,-0.0389282774667313
-31.646656059672,1,0.998002568151826,1.6862725883517,-0.0389732920955192
-31.5047221994024,1,0.9980025687056,1.68627258835267,-0.0390121413966285
-31.3584936466063,1,0.998002569209577,1.68627258835527,-0.0390521662111725
-31.1853386940343,1,0.998002569277317,1.68627258836057,-0.0390995611573513
-30.9912197112146,1,0.998002568523196,1.68627258836934,-0.0391526942464684
-30.8115505812472,1,0.998002567302625,1.68627258838006,-0.0392018722098134
-30.6624385772365,1,0.998002566136087,1.6862725883909,-0.0392426862941265
-30.5236036356152,1,0.998002565400281,1.68627258840232,-0.0392806873973055
-30.3652001256618,1,0.998002565247116,1.68627258841673,-0.0393240446828731
-30.1765392524574,1,0.998002565972843,1.68627258843563,-0.0393756838273579
-30,1,0.998002567137779,1.68627258845488,-0.0394240051139984
-29.8345554972924,1,0.99800256811604,1.68627258847421,-0.0394692896069152
-29.6698168155209,1,0.998002568996561,1.68627258849485,-0.0395143808510526
-29.5031272787022,1,0.998002570118991,1.68627258851745,-0.0395600060323356
-29.3356614618486,1,0.998002571660364,1.68627258854199,-0.0396058436663003
-29.1699063962544,1,0.998002573428061,1.68627258856806,-0.0396512130294055
-29.0063987228482,1,0.998002575007802,1.68627258859542,-0.0396959672422733
-28.842991570376,1,0.998002575991856,1.68627258862421,-0.0397406939342797
-28.6773423183889,1,0.998002576111753,1.6862725886547,-0.0397860343124802
-28.5097265018847,1,0.99800257538058,1.68627258868668,-0.0398319129609039
-28.3428681067581,1,0.998002574188612,1.68627258871944,-0.0398775842914337
-28.1786723249295,1,0.998002573123518,1.68627258875239,-0.039922526830114
-28,1,0.998002572721809,1.68627258878876,-0.0399714317762901
-27.8382017031273,1,0.998002573104377,1.68627258882224,-0.0400157180868344
-27.6842436480339,1,0.998002574189089,1.68627258885497,-0.0400578583968966
-27.524203458521,1,0.998002575966194,1.68627258889053,-0.0401016634413544
-27.351014750071,1,0.998002578182577,1.68627258893113,-0.0401490673822989
-27.1732839102919,1,0.998002580069802,1.6862725889752,-0.0401977145470072
-27.0061153628943,1,0.998002580896428,1.68627258901885,-0.0402434706793113
-26.8515429004042,1,0.998002580651795,1.68627258906097,-0.0402857791107661
-26.6970162895031,1,0.998002579656408,1.68627258910452,-0.0403280749871167
-26.529608361963,1,0.998002578213377,1.68627258915308,-0.0403738966333184
-26.350639052377,1,0.998002576957375,1.68627258920625,-0.0404228827667052
-26.1764669300382,1,0.998002576593925,1.68627258925897,-0.0404705558492024
-26.0177822561719,1,0.998002577120857,1.68627258930761,-0.0405139898357788
-26,1,0.99800257719887,1.68627258931311,-0.0405188570679746
-25.9110887191405,1,0.998002577801688,1.68627258934055,-0.0405431932111594
-25.7322046698945,1,0.998002579330296,1.68627258939525,-0.0405921560300805
-25.5044507799232,1,0.998002580345119,1.68627258946218,-0.0406544951348244
-25.3704644963586,1,0.99800257957407,1.68627258949982,-0.0406911689225505
-25.236478212794,1,0.998002578127187,1.68627258953555,-0.040727842695977
-25.0570239903549,1,0.998002575670547,1.68627258958026,-0.0407769616209184
-24.8418980155997,1,0.99800257346438,1.6862725896289,-0.0408358443418379
-24.703453414039,1,0.998002572873689,1.68627258965764,-0.0408737384356999
-24.5650088124784,1,0.998002573331558,1.68627258968411,-0.0409116325165151
-24.3872749720402,1,0.99800257505786,1.68627258971486,-0.0409602805586094
-24.1792349516213,1,0.998002577527732,1.68627258974635,-0.0410172237722955
-24.0368707298369,1,0.998002578455999,1.68627258976551,-0.0410561907153659
-24,1,0.998002578553655,1.68627258977015,-0.0410662827170688
-23.8156463508154,1,0.998002578379666,1.68627258979077,-0.0411167426857817
-23.6289263224929,1,0.998002576881567,1.68627258980676,-0.0411678503658263
-23.4671515944225,1,0.998002574870372,1.68627258981606,-0.0412121302213428
-23.3246382789526,1,0.998002573114991,1.68627258982042,-0.0412511379930853
-23.1753351557721,1,0.998002571928804,1.68627258982074,-0.0412920042151688
-22.9997779060856,1,0.998002571762534,1.68627258981573,-0.0413400565282798
-22.8073330198645,1,0.99800257307368,1.68627258980384,-0.0413927311975555
-22.6315039467231,1,0.998002574948316,1.68627258978767,-0.0414408579060807
-22.4835780284827,1,0.998002576222098,1.68627258977078,-0.041481347185678
-22.3424213564873,1,0.998002576869275,1.68627258975174,-0.0415199836279158
-22.1805310444591,1,0.998002576675071,1.68627258972662,-0.0415642951287174
-22,1,0.998002575359988,1.686272589695,-0.0416137088364269
-21.8093343495851,1,0.998002573522761,1.68627258965827,-0.0416658965080986
-21.6423547009941,1,0.998002572173602,1.68627258962492,-0.0417116010399129
-21.4995316789946,1,0.998002571528658,1.68627258959669,-0.0417506936122095
-21.3548052523353,1,0.998002571622792,1.68627258956878,-0.0417903071635838
-21.1840756434242,1,0.998002572479275,1.68627258953727,-0.0418370381246046
-20.9904092547781,1,0.998002573805445,1.68627258950389,-0.041890047176912
-20.8084217542532,1,0.998002574679873,1.6862725894751,-0.041939859559686
-20.6573268625374,1,0.998002574638864,1.68627258945345,-0.0419812162611887
-20.5188457504065,1,0.99800257412684,1.68627258943524,-0.0420191204019519
-20.3627542654087,1,0.998002573266115,1.68627258941645,-0.0420618447238095
-20.1759278467634,1,0.998002572216716,1.68627258939643,-0.042112981596769
-20,1,0.998002571605234,1.68627258938002,-0.0421611353865123
-19.8316368777879,1,0.998002571600912,1.6862725893666,-0.0422072186124724
-19.6722768110588,1,0.998002572179267,1.68627258935642,-0.0422508375788383
-19.5146131570054,1,0.998002573234249,1.68627258934927,-0.042293992208271
-19.3494677897555,1,0.998002574553646,1.68627258934516,-0.0423391946728271
-19.1759739891032,1,0.998002575681983,1.68627258934466,-0.042386682205922
-19.0036904655594,1,0.998002576097093,1.68627258934799,-0.0424338384675249
-18.8411200043639,1,0.998002575686813,1.68627258935452,-0.0424783361419547
-18.6850341297845,1,0.998002574760399,1.68627258936368,-0.0425210589026482
-18.5246710032119,1,0.998002573702425,1.6862725893758,-0.0425649523994629
-18.353685132716,1,0.998002572955832,1.6862725893915,-0.0426117534753801
-18.1782187892064,1,0.998002572939913,1.68627258941029,-0.0426597809116265
-18,1,0.99800257370488,1.68627258943186,-0.0427085617223269
-17.8446385407428,1,0.998002574581905,1.68627258945272,-0.042751086190485
-17.6916100537561,1,0.998002575770192,1.68627258947547,-0.0427929720318157
-17.5250550850091,1,0.998002577710746,1.68627258950344,-0.0428385601900425
-17.3446734763803,1,0.998002580566596,1.68627258953792,-0.0428879328279095
-17.1681566961582,1,0.998002583519822,1.68627258957596,-0.0429362475903457
-17.0089603332131,1,0.998002585497876,1.68627258961384,-0.0429798215477977
-16.8594570734437,1,0.998002586288942,1.68627258965227,-0.0430207423836515
-16.7013904540293,1,0.998002585885843,1.68627258969557,-0.0430640071009503
-16.5251543283638,1,0.99800258426898,1.68627258974672,-0.0431122450165575
-16.3426493994366,1,0.998002582252231,1.68627258980245,-0.0431621987676988
-16.1750206478375,1,0.998002581015852,1.68627258985575,-0.0432080807404793
-16.0244614101961,1,0.99800258088243,1.68627258990506,-0.0432492905982595
-16,1,0.998002580939137,1.6862725899132,-0.0432559859820424
-15.8776929490196,1,0.998002581718148,1.68627258995406,-0.0432894628857995
-15.7059009161661,1,0.99800258325056,1.68627259001123,-0.0433364844603115
-15.485633388095,1,0.998002583704594,1.68627259008142,-0.0433967744111878
-15.3457418924388,1,0.998002582006213,1.68627259012348,-0.0434350645077489
-15.2058503967826,1,0.998002579138444,1.68627259016285,-0.0434733546052655
-15.0267873813451,1,0.998002574850557,1.68627259020905,-0.0435223664504302
-14.8192527884122,1,0.998002571292026,1.68627259025643,-0.0435791713218775
-14.678474920265,1,0.998002570504709,1.68627259028511,-0.0436177040654882
-14.5376970521177,1,0.998002571432097,1.68627259031077,-0.0436562367997772
-14.361291071549,1,0.99800257434027,1.68627259033878,-0.0437045214018365
-14.1574522607346,1,0.998002578223698,1.68627259036562,-0.0437603147084452
-14,1,0.998002579926748,1.68627259038275,-0.0438034114443269
-13.8523705862088,1,0.998002579923962,1.68627259039607,-0.0438438195297115
-13.6798085160955,1,0.998002578570438,1.6862725904087,-0.0438910519252421
-13.4855040335003,1,0.998002577253797,1.68627259042003,-0.0439442354174023
-13.3035680161511,1,0.998002577932795,1.68627259042856,-0.0439940334686554
-13.1528518240771,1,0.998002580036711,1.68627259043475,-0.0440352862979658
-13.0146069628592,1,0.998002582902264,1.68627259043962,-0.0440731255643419
-12.8583691755568,1,0.998002586337219,1.68627259044418,-0.0441158896868969
-12.6711439019626,1,0.998002589127744,1.68627259044854,-0.0441671354319805
-12.4769879833093,1,0.998002589297596,1.68627259045191,-0.0442202781543735
-12.3117969308663,1,0.998002587186478,1.68627259045425,-0.0442654928753704
-12.1727110219156,1,0.998002584495471,1.68627259045598,-0.0443035623353851
-12.0295788159484,1,0.998002581969672,1.68627259045719,-0.0443427392980925
-12,1,0.998002581538776,1.6862725904574,-0.0443508353678155
-11.8521059202579,1,0.998002580250647,1.68627259045794,-0.044391315724955
-11.6832994202305,1,0.99800258001612,1.68627259045681,-0.0444375201570993
-11.498334518341,1,0.998002579686454,1.68627259045179,-0.0444881474233879
-11.3225893043404,1,0.998002577832668,1.68627259044249,-0.0445362511986327
-11.16860619824,1,0.9980025746896,1.68627259043054,-0.0445783984474495
-11.0226022810331,1,0.998002571093246,1.68627259041581,-0.0446183617018534
-10.8624153571019,1,0.998002567611489,1.68627259039586,-0.0446622070404587
-10.6802259593078,1,0.998002565596559,1.68627259036865,-0.0447120747570929
-10.4951217216491,1,0.998002566362634,1.68627259033647,-0.0447627403040782
-10.3314313662436,1,0.998002568787251,1.68627259030472,-0.0448075446000473
-10.18607028264,1,0.998002571342634,1.68627259027422,-0.044847331938704
-10.036085169508,1,0.998002573478621,1.6862725902406,-0.0448883849298498
-10,1,0.998002573801961,1.68627259023224,-0.044898261940472
-9.95971124284404,1,0.998002573967567,1.68627259022277,-0.0449092908527184
-9.91942248568808,1,0.998002571163375,1.68627259021315,-0.0449203258376498
-9.86083308399284,1,0.998002538448096,1.68627259019889,-0.0449363886826976
-9.79051453773484,1,0.99800237183476,1.68627259018129,-0.0449556920334876
-9.6797528186811,1,0.998001507188176,1.68627259015229,-0.0449861460109544
-9.57240802494957,1,0.997999587092164,1.68627259012253,-0.0450157060551432
-9.46238201350654,1,0.997996325860816,1.6862725900902,-0.0450460399606673
-9.3443085300526,1,0.997991552320456,1.68627259005341,-0.0450786228281624
-9.21418605227846,1,0.997985468127568,1.68627259001035,-0.0451145576556166
-9.05402279911107,1,0.997978451283522,1.68627258995389,-0.0451588163207429
-8.90403176406808,1,0.997974139391223,1.68627258989777,-0.0452002833044332
-8.76724210862469,1,0.997973118112496,1.68627258984412,-0.045238111762057
-8.62895438224765,1,0.997975005565744,1.68627258978773,-0.045276362095889
-8.48591265623474,1,0.997979242431819,1.68627258972742,-0.0453159330558195
-8.3519389173116,1,0.997983987280787,1.68627258966937,-0.0453529991536423
-8.21068214345327,1,0.997988200360413,1.68627258960679,-0.0453920829604761
-8.04376799087745,1,0.997990354911188,1.68627258953142,-0.0454382683201732
-8,1,0.997990279203093,1.68627258951145,-0.0454503793127866
-7.96704823480347,1,0.9979900438234,1.68627258949636,-0.0454594947260396
-7.93409646960693,1,0.997989664554062,1.68627258948124,-0.045468597219822
-7.88978765799107,1,0.997988971340131,1.68627258946083,-0.0454808062220354
-7.83830181502921,1,0.997988034233889,1.68627258943699,-0.0454949437765582
-7.77086195436684,1,0.997986969442844,1.68627258940549,-0.0455133851496444
-7.68977824367301,1,0.997986712900521,1.68627258936716,-0.0455354552206703
-7.60869453297918,1,0.99798846755044,1.68627258932825,-0.0455574317144608
-7.52495565187798,1,0.99799310111933,1.68627258928741,-0.0455800474951691
-7.43555105018309,1,0.998001536130293,1.68627258924304,-0.0456041204262084
-7.33947691449729,1,0.99801432444678,1.68627258919448,-0.0456299219645207
-7.23377132466364,1,0.998031613534703,1.68627258914002,-0.0456582469339999
-7.12044675262331,1,0.998051472941234,1.6862725890805,-0.0456885568952794
-7.00899927966797,1,0.99806932967845,1.6862725890209,-0.0457183214209243
-6.89307422826534,1,0.998083061434939,1.68627258895792,-0.0457492474123853
-6.78271616953336,1,0.99808945277541,1.68627258889715,-0.0457786636909138
-6.66981158768352,1,0.998088403115393,1.68627258883429,-0.0458087400583523
-6.56153437605431,1,0.998080758062827,1.68627258877349,-0.0458375702800858
-6.45848271388912,1,0.998069035152707,1.68627258871526,-0.0458649997859794
-6.35341789728151,1,0.99805493008337,1.68627258865564,-0.045892957931124
-6.23813726333752,1,0.998040067182842,1.68627258859006,-0.0459236281451539
-6.11382491460571,1,0.998028342745199,1.68627258851932,-0.0459566955951387
-6,1,0.998023889942676,1.68627258845466,-0.045986969536273
-5.96171411837202,1,0.998023936708078,1.68627258843296,-0.0459971540615391
-5.92342823674404,1,0.998024759870201,1.68627258841129,-0.0460073489974826
-5.87284619846486,1,0.998026960416756,1.68627258838269,-0.0460208413788009
-5.81237072312566,1,0.998031006296678,1.68627258834853,-0.0460370095319436
-5.72836839604136,1,0.998038357957235,1.68627258830111,-0.0460595289202152
-5.62315281825503,1,0.998048356369529,1.68627258824169,-0.046087819488609
-5.52653176150851,1,0.998056017600045,1.68627258818708,-0.0461138648155706
-5.41874929957312,1,0.998060540930053,1.6862725881261,-0.0461429762332976
-5.3069645946059,1,0.998059189740028,1.68627258806281,-0.0461732178329962
-5.1995895033142,1,0.998051835701695,1.68627258800202,-0.046202302403911
-5.09203334302638,1,0.998039532834415,1.68627258794119,-0.0462314628929024
-4.97850124813124,1,0.998023409608666,1.68627258787711,-0.0462622657683963
-4.85164970457639,1,0.998005256200723,1.6862725878058,-0.0462967026034707
-4.71529502159704,1,0.997990217316665,1.68627258772962,-0.0463337366868874
-4.59275397827199,1,0.997983793336408,1.68627258766171,-0.0463670301187973
-4.47875746847441,1,0.997984943508324,1.6862725875991,-0.0463980090030069
-4.36240051743353,1,0.997992659618868,1.68627258753587,-0.0464296344787937
-4.25014658014916,1,0.998004611138401,1.68627258747559,-0.0464601484624106
-4.13659566257369,1,0.998018615756266,1.68627258741543,-0.0464910177794711
-4.01374051434403,1,0.998032611540561,1.68627258735134,-0.0465244188451396
-4,1,0.998033956694932,1.68627258734424,-0.0465281546504898
-3.96968457090283,1,0.998036708186091,1.68627258732863,-0.046536392027959
-3.93936914180566,1,0.998039137067244,1.68627258731309,-0.0465446054719113
-3.90221239910722,1,0.998041663928262,1.68627258729413,-0.0465546223242788
-3.85936141390477,1,0.998044023563713,1.6862725872724,-0.0465660962872684
-3.80642376370242,1,0.998046360929585,1.68627258724573,-0.0465801554915814
-3.72650955007853,1,0.998049641082803,1.68627258720585,-0.0466011575822579
-3.6532818396104,1,0.998053700227445,1.68627258716968,-0.0466202004534968
-3.58295504918821,1,0.998059708132715,1.68627258713528,-0.0466383369496595
-3.508738037708,1,0.998069157553289,1.68627258709934,-0.0466573417089888
-3.4302165972729,1,0.998083117585498,1.6862725870617,-0.0466773232815577
-3.34671513249115,1,0.998102341015686,1.68627258702214,-0.0466984558695319
-3.25622248311611,1,0.998127311014841,1.6862725869798,-0.0467212480946404
-3.15216307844355,1,0.998158922797043,1.68627258693181,-0.0467473453700799
-3.05289688574886,1,0.998188656427607,1.68627258688677,-0.0467721531080473
-2.95593299343744,1,0.998213891098455,1.68627258684349,-0.0467963213185425
-2.86075036944945,1,0.998232154472254,1.6862725868017,-0.0468199971869786
-2.76634429859166,1,0.998241940754479,1.68627258676097,-0.0468434426242843
-2.66770710313014,1,0.998242400350077,1.68627258671919,-0.0468679076582143
-2.56946725786862,1,0.998233409836676,1.68627258667839,-0.0468922492795738
-2.47846321923175,1,0.998218259529966,1.68627258664134,-0.0469147806246382
-2.38859903015838,1,0.998199177355437,1.68627258660548,-0.0469370167454753
-2.29503059568798,1,0.998177899205941,1.68627258656891,-0.0469601585161965
-2.19003610709204,1,0.998156202252423,1.68627258652883,-0.0469861157792936
-2.08662858836547,1,0.998140792535564,1.68627258649037,-0.047011672299472
-2,1,0.998134411334036,1.68627258645892,-0.0470330769960762
-1.9774626603311,1,0.998133847035229,1.68627258645086,-0.047038637085912
-1.9549253206622,1,0.998133751985821,1.68627258644285,-0.0470441562815577
-1.92707000584673,1,0.998134319598402,1.68627258643301,-0.0470508850194553
-1.89620033252898,1,0.99813594400752,1.6862725864222,-0.047058195891684
-1.86044139081111,1,0.99813940025634,1.68627258640978,-0.0470664581619004
-1.81693209824331,1,0.998146477195612,1.68627258639484,-0.0470762135132735
-1.74852431635307,1,0.998165973749715,1.68627258637169,-0.0470909356051852
