time,regd,power,heatflow,pressure
-180,1,1.00000001447924,1.6866653236463,0
-179.975,1,1.00000000944874,1.68666535753638,-3.73996893177075e-09
-179.95,1,0.999999993601471,1.68666539078063,-1.00049390300283e-08
-179.910333269091,1,0.999999936302235,1.686665440667,-2.84634310288023e-08
-179.866590872212,1,0.999999788746439,1.68666548814567,-6.32088831276079e-08
-179.812306980919,1,0.999999370207838,1.68666552924352,-1.27829514279254e-07
-179.735029580233,1,0.999997982052079,1.68666553815887,-2.57750757237662e-07
-179.656333888164,1,0.999995118378648,1.68666546824874,-4.29567767135097e-07
-179.58329604262,1,0.999990772596583,1.68666531706688,-6.18753945219597e-07
-179.507272045022,1,0.999984327080904,1.68666505994647,-8.40867024523573e-07
-179.427187656072,1,0.999975450676609,1.68666466974537,-1.09782459421781e-06
-179.341023691888,1,0.99996386739103,1.6866641054554,-1.39582012943784e-06
-179.24285667462,1,0.999949020526887,1.68666327368009,-1.75716675748783e-06
-179.130475989174,1,0.999931732802072,1.68666207058009,-2.19316430191685e-06
-179.036461627077,1,0.999918831235314,1.68666085875603,-2.57211252292777e-06
-178.947765453369,1,0.999909378093989,1.68665954662157,-2.93889073769982e-06
-178.859340387579,1,0.999903592960518,1.68665807916755,-3.31169019066047e-06
-178.766020240928,1,0.999902079131194,1.68665636328856,-3.71130244075646e-06
-178.658461913043,1,0.999906262440889,1.68665418116191,-4.17807219819932e-06
-178.560647430352,1,0.999914801659975,1.68665201570908,-4.60704286929514e-06
-178.472919011564,1,0.999925070041555,1.68664993459484,-4.99462502645542e-06
-178.386059486776,1,0.999936236657953,1.68664775160749,-5.38047916577578e-06
-178.294738037755,1,0.999947401307547,1.6866453325245,-5.78796938885406e-06
-178.190079779546,1,0.999957402110799,1.68664241403853,-6.25677947062309e-06
-178.094398456872,1,0.99996239925413,1.68663961912381,-6.68670408091043e-06
-178,1,0.999962678158869,1.68663675224803,-7.11183490130496e-06
-177.964825075086,1,0.999961583516301,1.68663565788457,-7.27026499915129e-06
-177.929650150172,1,0.999959871991132,1.68663454915378,-7.42790822830242e-06
-177.884888035101,1,0.999956859129905,1.68663311527518,-7.62676356914904e-06
-177.832268571275,1,0.999952235920717,1.68663139228973,-7.85775261009924e-06
-177.763511627937,1,0.999944712798741,1.68662907088963,-8.15524626750219e-06
-177.684674940697,1,0.999934578085783,1.6866262986492,-8.49102277390712e-06
-177.605838253457,1,0.999923594331615,1.68662339647498,-8.8220176070325e-06
-177.528650904605,1,0.999912819822091,1.68662042096564,-9.14226433643139e-06
-177.450284015092,1,0.999902630791159,1.68661725933691,-9.46421840604394e-06
-177.369733902864,1,0.999893645780325,1.68661385954271,-9.79239222861916e-06
-177.285463019933,1,0.999886452739497,1.68661013978906,-1.013328812699e-05
-177.190903073132,1,0.999881537553772,1.68660577027547,-1.05134140395424e-05
-177.101902306902,1,0.999880117530924,1.68660147370163,-1.08693434880819e-05
-177.012901540673,1,0.999881675074332,1.68659700548156,-1.12238447379787e-05
-176.930878838878,1,0.999885430778621,1.68659274241075,-1.15495335438753e-05
-176.849473681659,1,0.999890918846049,1.68658838075806,-1.18719882583052e-05
-176.764578227178,1,0.999897929475155,1.68658370129363,-1.22075936021815e-05
-176.669735198822,1,0.999906461040731,1.68657832607643,-1.25818674470285e-05
-176.570327646409,1,0.999915073005412,1.68657253827411,-1.29735648780049e-05
-176.470920093996,1,0.999922133776415,1.68656660734133,-1.33647901010975e-05
-176.386420404663,1,0.999926085715474,1.68656146427699,-1.36970514078016e-05
-176.303754993879,1,0.999927596617191,1.68655635167249,-1.40218916637458e-05
-176.217961666191,1,0.999926413493831,1.68655096968866,-1.43588467034217e-05
-176.122998971729,1,0.999921857682958,1.6865449332512,-1.4731646107019e-05
-176.03195475623,1,0.99991474204134,1.68653907862824,-1.50889299694312e-05
-176,1,0.999911758919351,1.68653701014621,-1.52143040843822e-05
-175.966777687679,1,0.999908469147002,1.68653485282053,-1.53456603075031e-05
-175.933555375359,1,0.99990504292403,1.68653268841917,-1.54818915230198e-05
-175.891802423101,1,0.999900621996309,1.68652995684409,-1.56634625988888e-05
-175.843313056617,1,0.999895429665014,1.68652676565303,-1.58903761313944e-05
-175.782490993287,1,0.999888976353987,1.68652272854246,-1.61987681238374e-05
-175.693111554955,1,0.999879911524472,1.68651671410838,-1.66945769703025e-05
-175.610488281927,1,0.999872262813402,1.68651105607689,-1.71907354110379e-05
-175.532728690241,1,0.999865906980705,1.68650563781902,-1.76847508062683e-05
-175.455326164087,1,0.999860497551645,1.68650015124151,-1.81978944277655e-05
-175.377308228962,1,0.999855987943383,1.68649452603467,-1.87329109199719e-05
-175.29755422423,1,0.999852285623523,1.68648867811901,-1.92950133794945e-05
-175.21254563036,1,0.999849191694195,1.68648233942818,-1.99079569965233e-05
-175.111924721812,1,0.99984639044158,1.68647470268905,-2.06482447925316e-05
-175.025651608982,1,0.999844522677125,1.68646804683255,-2.12931414167727e-05
-174.939378496152,1,0.999843044237106,1.68646129929636,-2.194550940815e-05
-174.859001306363,1,0.9998420244295,1.68645493777272,-2.25587383439751e-05
-174.778493132521,1,0.999841426098415,1.68644850061644,-2.31772498280741e-05
-174.693467861212,1,0.99984137191382,1.6864416396142,-2.38342569102018e-05
-174.595378297642,1,0.999842172757946,1.68643365592082,-2.45961028903646e-05
-174.505933320338,1,0.999843713913465,1.68642632305045,-2.52937019629002e-05
-174.416488343034,1,0.99984586079084,1.68641895064169,-2.59934918730303e-05
-174.33509996664,1,0.999848057040583,1.68641221665697,-2.66317813905209e-05
-174.254181599244,1,0.99985011470211,1.68640550518348,-2.72675576520054e-05
-174.169242330383,1,0.999851730103049,1.68639845072126,-2.79359500900689e-05
-174.072904372697,1,0.999852414786519,1.68639044813737,-2.86950604040936e-05
-174,1,0.999851914045893,1.68638439799636,-2.92701053328792e-05
-173.964818132375,1,0.999851342171164,1.68638148174105,-2.95479335221255e-05
-173.929636264751,1,0.999850561401488,1.68637856765997,-2.98266731466046e-05
-173.884942278616,1,0.999849278965969,1.68637486716338,-3.01826405341293e-05
-173.832803668593,1,0.999847388352063,1.68637054881412,-3.06007430579958e-05
-173.767150473351,1,0.999844440994151,1.68636510230652,-3.11313695695592e-05
-173.681588708705,1,0.999839777390394,1.68635797790755,-3.18289903051966e-05
-173.587711254375,1,0.999833891978412,1.68635011365465,-3.26009673278921e-05
-173.501880635152,1,0.999828188542968,1.68634287186526,-3.33116015768797e-05
-173.420065479265,1,0.999822813426408,1.6863359194624,-3.39924431637523e-05
-173.339811952434,1,0.999817871359011,1.68632905234437,-3.46629527244458e-05
-173.259135293316,1,0.999813430386447,1.68632210303511,-3.53391692273636e-05
-173.174420214074,1,0.999809471194931,1.68631475932226,-3.60511451976825e-05
-173.078022448643,1,0.999805935782617,1.68630635067646,-3.68632217250808e-05
-172.986134422888,1,0.999803573524336,1.68629829104709,-3.76388193336907e-05
-172.894246397133,1,0.999802234477338,1.68629019650848,-3.84155852852647e-05
-172.811367920739,1,0.99980194695909,1.68628287311017,-3.9116992058566e-05
-172.729272788919,1,0.999802560373211,1.68627560487233,-3.98123745536522e-05
-172.643435673846,1,0.999804165445024,1.68626799784078,-4.05399760518704e-05
-172.546791139582,1,0.999807065005373,1.68625943359207,-4.13597003743466e-05
-172.453960173999,1,0.999810694509143,1.68625121792045,-4.21474857387333e-05
-172.361129208416,1,0.999814720974513,1.68624302267717,-4.29355863689335e-05
-172.277951617112,1,0.999818190175111,1.68623570493398,-4.3641947364878e-05
-172.195382344555,1,0.999821020151556,1.68622847130041,-4.43433035522273e-05
-172.108500582375,1,0.999822853400181,1.68622089985807,-4.50814311695746e-05
-172.011563492598,1,0.999823051258085,1.68621250926283,-4.59051228197949e-05
-172,1,0.999822931127229,1.68621151281986,-4.60033880003291e-05
-171.961588084875,1,0.99982230880723,1.68620821002705,-4.6329407833598e-05
-171.923176169751,1,0.999821348630788,1.68620491782562,-4.66535367716209e-05
-171.876040473826,1,0.99981972652515,1.68620089019342,-4.70475683765903e-05
-171.82011404551,1,0.999817211813226,1.68619612449508,-4.75094394985914e-05
-171.749058612189,1,0.999813218989826,1.68619008187502,-4.80879626045677e-05
-171.660832438458,1,0.999807361296136,1.68618258518052,-4.87951276624543e-05
-171.553268346018,1,0.999799683216436,1.68617343730723,-4.9643737582955e-05
-171.45571223374,1,0.999793126177746,1.68616512199806,-5.04032729065906e-05
-171.366488248918,1,0.999788143555959,1.68615749715348,-5.10913471841595e-05
-171.282412704921,1,0.999784707697438,1.68615029459319,-5.17351226961144e-05
-171.19837555503,1,0.999782644824864,1.68614307974059,-5.237500931074e-05
-171.109782209092,1,0.99978191675601,1.686135460127,-5.30464454888552e-05
-171.007674861541,1,0.999782644146061,1.68612666702738,-5.38171170318819e-05
-170.915342265161,1,0.999784357064776,1.68611871236189,-5.45116918201083e-05
-170.823009668781,1,0.99978666550205,1.68611076206715,-5.52045322654848e-05
-170.736736539441,1,0.999789048303324,1.68610334435548,-5.58506537786385e-05
-170.650317527794,1,0.99979141858823,1.68609593135476,-5.64968971896174e-05
-170.558202107404,1,0.999793734866054,1.68608805629976,-5.71848804270247e-05
-170.447365092553,1,0.999796017687904,1.68607862839973,-5.80117665074098e-05
-170.355936903614,1,0.999797326854787,1.68607090000053,-5.86932614926872e-05
-170.264508714676,1,0.999797971559781,1.68606322377352,-5.93743365439048e-05
-170.177516835089,1,0.999797846982558,1.68605597529332,-6.00220529538287e-05
-170.088786670008,1,0.999796888626331,1.68604864407491,-6.06824618721025e-05
-170,1,0.999795070146137,1.68604137728374,-6.13430883978638e-05
-169.965579139672,1,0.999794149066311,1.6860385799353,-6.15991358474677e-05
-169.931158279344,1,0.999793120245746,1.6860357935309,-6.18550712057908e-05
-169.885200393601,1,0.999791592768448,1.68603208842918,-6.2196550207394e-05
-169.831869419482,1,0.999789617190648,1.68602780687533,-6.25924466413907e-05
-169.763956638583,1,0.999786815583521,1.68602237514137,-6.30960499937161e-05
-169.673713487289,1,0.999782687692504,1.68601517909374,-6.37644300499479e-05
-169.570976648479,1,0.999777671702313,1.68600699932765,-6.45244228310166e-05
-169.471326520474,1,0.999772860099851,1.68599906501903,-6.5260845140136e-05
-169.375044882471,1,0.999768638425925,1.68599139195865,-6.59718367262974e-05
-169.282487967522,1,0.999765249786319,1.68598400731491,-6.66549317425297e-05
-169.191496572868,1,0.999762707415387,1.68597674041171,-6.73261766858807e-05
-169.096496959281,1,0.999760924697558,1.68596914886215,-6.80267419183728e-05
-168.987822065187,1,0.999759894412869,1.6859604649766,-6.8827910505817e-05
-168.887499986329,1,0.999759745666563,1.68595245651346,-6.95673216117992e-05
-168.787177907471,1,0.999760204248342,1.68594446408421,-7.03065998310937e-05
-168.693852784153,1,0.999761056973274,1.68593705118643,-7.09942237966249e-05
-168.599154419938,1,0.999762247547451,1.6859295587196,-7.169189355824e-05
-168.495024331387,1,0.999763823078916,1.68592136358276,-7.24589835671696e-05
-168.384061407765,1,0.999765626760855,1.68591269218625,-7.32763499103201e-05
-168.273098484142,1,0.999767276382833,1.6859040962638,-7.40936700206196e-05
-168.177943141215,1,0.999768292837133,1.68589679406208,-7.47945279140488e-05
-168.083016026729,1,0.999768695272241,1.68588958061093,-7.54936846073945e-05
-168,1,0.999768407104338,1.68588333601056,-7.61051006520491e-05
-167.964764242307,1,0.99976808855477,1.6858807045808,-7.63643347065912e-05
-167.929528484615,1,0.999767652229126,1.68587808427921,-7.66222649733472e-05
-167.88212576212,1,0.999766879394751,1.68587457473482,-7.69662241601604e-05
-167.826821880468,1,0.999765706407348,1.68587049850481,-7.7362739432027e-05
-167.754950171669,1,0.999763747471645,1.68586522209905,-7.78707633654618e-05
-167.652703689545,1,0.999760179407767,1.68585773862786,-7.85813239211203e-05
-167.556299089234,1,0.999756172273376,1.68585069062363,-7.92407042658344e-05
-167.458777133148,1,0.999751812819457,1.68584355709545,-7.98995459369012e-05
-167.361349270184,1,0.999747532462471,1.68583642050487,-8.05513028099281e-05
-167.26359673973,1,0.999743681751571,1.68582924809296,-8.12001548491509e-05
-167.163349890961,1,0.999740505768346,1.68582188126106,-8.1861433800734e-05
-167.053459697465,1,0.999738169029655,1.68581379687758,-8.25826055874251e-05
-166.940872716887,1,0.999737135679241,1.68580551197413,-8.33183900956908e-05
-166.828285736308,1,0.99973744986671,1.68579723473033,-8.40518122467576e-05
-166.727972095681,1,0.999738732158957,1.68578987529993,-8.47037662398686e-05
-166.626437080055,1,0.999740779492333,1.68578245006013,-8.53625391591256e-05
-166.51441784182,1,0.999743566587435,1.6857742965909,-8.60883289846848e-05
-166.398244467402,1,0.999746538521915,1.68576589592516,-8.68401862778312e-05
-166.282071092984,1,0.999748995141179,1.68575756457908,-8.75913955084295e-05
-166.179618261983,1,0.999750274263626,1.68575028504461,-8.82534773741644e-05
-166.076173782512,1,0.99975041125224,1.68574300865927,-8.89216722213676e-05
-166,1,0.999749695453686,1.68573770271142,-8.94135634588872e-05
-165.964360542986,1,0.99974912872837,1.6857352364012,-8.96433133077273e-05
-165.928721085973,1,0.999748424414799,1.68573278014286,-8.98713680867885e-05
-165.88057673064,1,0.999747269935471,1.68572947597163,-9.01754992583964e-05
-165.824253389418,1,0.999745649174859,1.68572562643014,-9.05250882080599e-05
-165.750062520047,1,0.999743129670551,1.68572057311286,-9.09759508522651e-05
-165.657735989741,1,0.999739533037096,1.68571429763059,-9.15238666421153e-05
-165.565409459435,1,0.999735666311201,1.68570802278421,-9.20598836580688e-05
-165.472715140735,1,0.999731804892154,1.68570171371456,-9.25885124352932e-05
-165.378239054875,1,0.999728183924135,1.685695268107,-9.31195182473504e-05
-165.280832541024,1,0.999725042336218,1.68568860404023,-9.36605016229747e-05
-165.177823347028,1,0.999722574630244,1.68568153684342,-9.42269897295234e-05
-165.055081309529,1,0.999720922085223,1.68567309412924,-9.48962344343302e-05
-164.931174096526,1,0.999720677889478,1.685664556781,-9.55670772654904e-05
-164.829073200497,1,0.999721458086052,1.68565751994804,-9.61171776104053e-05
-164.729353381374,1,0.99972293193953,1.68565065379086,-9.66526689138714e-05
-164.622489078092,1,0.999725070147414,1.68564331209561,-9.72250155351351e-05
-164.487993093329,1,0.99972809105122,1.68563411153905,-9.79436779237897e-05
-164.366839014274,1,0.999730513339754,1.68562587697648,-9.85898671267832e-05
-164.264825325718,1,0.99973186500766,1.68561899371059,-9.9133325057732e-05
-164.162553377762,1,0.999732263730113,1.68561214832073,-9.96777088234091e-05
-164.051173969677,1,0.999731423594707,1.68560476598106,-0.000100270176543391
-164,1,0.999730599007262,1.68560140223592,-0.000100542279312513
-163.963034494461,1,0.99972985036204,1.68559898415268,-0.000100738463322481
-163.926068988921,1,0.999728988914991,1.68559657552628,-0.000100933062391256
-163.877598284925,1,0.999727711583514,1.68559342947534,-0.000101184762572759
-163.820398267323,1,0.999726024429523,1.68558973033064,-0.00010147638189259
-163.744667781892,1,0.999723564014675,1.68558484640637,-0.000101854042369745
-163.653818777131,1,0.999720412894035,1.68557899431605,-0.000102296219090345
-163.56296977237,1,0.999717231372259,1.68557313712306,-0.000102728718425427
-163.472987128179,1,0.999714235587044,1.68556732217317,-0.000103149469487848
-163.382003126702,1,0.999711513432809,1.6855614238619,-0.00010356874875217
-163.288541013983,1,0.99970913888854,1.68555534337668,-0.000103994320297396
-163.188435925234,1,0.999707121331214,1.68554880708175,-0.000104445591058711
-163.064745055467,1,0.999705393297167,1.68554070163861,-0.000104998188756422
-162.94573190195,1,0.999704529769516,1.68553288076334,-0.000105525965316364
-162.848062120724,1,0.999704425536212,1.68552645413765,-0.000105956931194431
-162.752408008718,1,0.999704872387743,1.68552015996569,-0.000106377549166772
-162.650081219622,1,0.999705940917142,1.68551343439422,-0.000106826263594234
-162.524141714621,1,0.999707948769471,1.68550518037117,-0.000107377171215728
-162.406435148101,1,0.999710165162037,1.6854975030014,-0.000107891053507753
-162.308962907177,1,0.99971186611441,1.68549118223993,-0.000108316041284778
-162.212476327901,1,0.999713072322017,1.68548496600689,-0.000108736349529834
-162.108402192432,1,0.999713510310437,1.68547831423884,-0.000109189377730162
-162,1,0.999712805614817,1.68547145346609,-0.000109660961944036
-161.96250569426,1,0.999712285817223,1.68546909806644,-0.000109823509944304
-161.92501138852,1,0.999711637074088,1.68546675151166,-0.000109983657007998
-161.875455068408,1,0.999710601273474,1.68546366150198,-0.000110190014337666
-161.81700332674,1,0.999709154899403,1.68546002911013,-0.00011042513644384
-161.739779367935,1,0.999706958076662,1.68545524155536,-0.000110722982801875
-161.645783226086,1,0.999704035110751,1.68544941777209,-0.000111068763849378
-161.551787084238,1,0.999701094923666,1.68544358509754,-0.000111399647279298
-161.460986710581,1,0.999698469279849,1.68543793408594,-0.00011170804624179
-161.370785341313,1,0.999696227637113,1.68543229994137,-0.000112005715651842
-161.279740765522,1,0.999694411946565,1.68542659108295,-0.000112299161307158
-161.182742814827,1,0.999692974756611,1.68542048540348,-0.000112605651407457
-161.065956146713,1,0.999691853430879,1.68541310610188,-0.000112968136878527
-160.945349592595,1,0.999691298024467,1.68540546148897,-0.00011333680173807
-160.848744668416,1,0.999691271013927,1.68539932811036,-0.000113628953321634
-160.755987271503,1,0.999691616002578,1.68539343709527,-0.000113907438306693
-160.657955163931,1,0.999692402686494,1.68538721594351,-0.000114200057381594
-160.542621023576,1,0.999693859104661,1.68537991317478,-0.000114542584499999
-160.444530752256,1,0.999695421360605,1.68537372492259,-0.00011483275945795
-160.346440480937,1,0.999697045699709,1.68536756548498,-0.000115122126765288
-160.253154984208,1,0.999698368002388,1.68536174124672,-0.000115396731395129
-160.156835883964,1,0.999699204366906,1.68535576855683,-0.000115679792375589
-160.049212269038,1,0.999699206926722,1.68534915211755,-0.00011599563016447
-160,1,0.999698834985848,1.68534614911004,-0.000116139924636605
-159.961148409537,1,0.999698377170527,1.68534378896368,-0.000116253119807563
-159.922296819074,1,0.999697782962516,1.68534143778089,-0.000116363161496782
-159.871659567069,1,0.999696822176581,1.68533838457312,-0.000116499847340315
-159.811594246969,1,0.999695448131537,1.68533477470465,-0.000116651559002326
-159.732363345764,1,0.999693348274701,1.68533002342333,-0.000116835709763938
-159.613985874615,1,0.999689951553522,1.68532292584552,-0.000117082660017184
-159.515325777394,1,0.999687264401271,1.68531699643929,-0.000117268126258036
-159.421630970987,1,0.99968510984693,1.68531134572195,-0.0001174310437458
-159.331114152697,1,0.999683526410806,1.68530586544884,-0.000117578776213975
-159.239520664007,1,0.999682442062874,1.6853002984002,-0.000117720587428316
-159.140827272029,1,0.999681779958091,1.68529427730037,-0.000117866546880938
-159.016373996328,1,0.999681482589971,1.68528665720969,-0.000118042803103777
-158.901300312851,1,0.999681541241014,1.68527959279684,-0.000118199929595719
-158.80661815606,1,0.999681763324001,1.68527377408176,-0.000118326029854579
-158.713540397164,1,0.999682146596957,1.68526805493744,-0.000118447819804551
-158.613889605944,1,0.999682780632905,1.68526193996607,-0.000118576330088715
-158.490022487278,1,0.999683915739307,1.68525436192099,-0.000118733984360075
-158.371038314811,1,0.999685248653749,1.68524711936064,-0.000118883785688112
-158.275068823512,1,0.999686284013182,1.68524131286164,-0.000119003731133452
-158.181121727164,1,0.999687024859153,1.68523566598543,-0.000119120561119318
-158.080499058331,1,0.999687274536285,1.68522966557935,-0.000119245186238653
-158,1,0.999686949659339,1.68522490537561,-0.0001193445877814
-157.961234176329,1,0.999686616218438,1.68522262680931,-0.000119391660962281
-157.922468352658,1,0.999686171608647,1.68522035689956,-0.000119435372324589
-157.871121937501,1,0.999685423134341,1.68521736145423,-0.000119485897809427
-157.810389267838,1,0.99968433119725,1.68521383018581,-0.000119534232176796
-157.730460380841,1,0.999682633330485,1.68520919310761,-0.000119580455348017
-157.615777125452,1,0.999679952288087,1.68520254137718,-0.0001196179971589
-157.51210206111,1,0.999677629756743,1.68519651437768,-0.000119628950223064
-157.414691190564,1,0.999675804014412,1.68519083138273,-0.000119623953299147
-157.321856211711,1,0.999674511216936,1.6851853941838,-0.000119608403092469
-157.228866488392,1,0.999673665719928,1.68517992703679,-0.000119584492223032
-157.129595501201,1,0.999673177429142,1.68517406950666,-0.000119551704607201
-157.008400153118,1,0.999672963347677,1.68516689445057,-0.000119503834822315
-156.887240169564,1,0.999672965699737,1.68515970438589,-0.000119449488431581
-156.789714612586,1,0.999673065064826,1.68515391221147,-0.000119402196721574
-156.695020524637,1,0.99967327277472,1.68514829090531,-0.00011935395026369
-156.593973093496,1,0.999673681474999,1.68514230248956,-0.000119300485416959
-156.469253893922,1,0.999674519691901,1.68513493674982,-0.000119232332524366
-156.347242316029,1,0.999675626818914,1.68512777125748,-0.000119163926148289
-156.249286503944,1,0.999676536842052,1.68512205646532,-0.000119108077471619
-156.153436929202,1,0.999677221916419,1.68511650423812,-0.000119052814774659
-156.050350289151,1,0.999677493600811,1.68511058356953,-0.000118992849338126
-156,1,0.999677394504134,1.68510771300735,-0.000118963398661784
-155.960425688534,1,0.999677199895311,1.68510546724574,-0.000118939362336742
-155.920851377068,1,0.999676902467396,1.685103230255,-0.000118911473595273
-155.868491983346,1,0.999676356633658,1.68510028176666,-0.000118866198074968
-155.806295948315,1,0.999675502624486,1.68509679118989,-0.000118799434051395
-155.723797451686,1,0.999674093863381,1.68509217160407,-0.000118690973345367
-155.602913467056,1,0.999671728332781,1.68508540366585,-0.000118498203139514
-155.496220469232,1,0.99966968919812,1.6850794155188,-0.000118302017336494
-155.395373527857,1,0.999668073482479,1.68507373469103,-0.000118099513473677
-155.29968077512,1,0.999666946409447,1.68506832294443,-0.000117895449643787
-155.203385632574,1,0.999666226377349,1.68506285653197,-0.00011768093037344
-155.099437219282,1,0.999665838721918,1.68505693511265,-0.000117441289420345
-154.965088871639,1,0.999665731128581,1.68504925805125,-0.000117122149820084
-154.846409397147,1,0.999665840448533,1.68504246388982,-0.000116833665908728
-154.747764146794,1,0.999666040158995,1.68503681580015,-0.000116590392101712
-154.648853227782,1,0.99966636942617,1.68503115883526,-0.000116344022563303
-154.539831690404,1,0.999666932935116,1.68502493923169,-0.000116070275101937
-154.424649440901,1,0.999667764934051,1.68501839595708,-0.000115779147142309
-154.309467191397,1,0.99966872931501,1.6850118919442,-0.000115486538622034
-154.210251734265,1,0.999669481758604,1.68500632915312,-0.000115233591012232
-154.110088322117,1,0.999669955794072,1.68500075747569,-0.000114977576274183
-154,1,0.999669931903486,1.68499469274871,-0.000114695611008575
-153.962476434012,1,0.99966976875641,1.68499264107752,-0.00011459867281477
-153.924952868025,1,0.999669524861551,1.68499059711484,-0.000114498340752375
-153.872271090777,1,0.999669050667368,1.68498773840503,-0.000114349220124127
-153.81057714747,1,0.999668316020859,1.68498440246857,-0.000114161593646148
-153.728525426167,1,0.99966709679069,1.68497997645,-0.000113892052617845
-153.603591676118,1,0.999664954360051,1.68497323964784,-0.000113445447623831
-153.496657040071,1,0.999663155747372,1.68496745973784,-0.000113036206100786
-153.393514970795,1,0.999661697522739,1.68496186455059,-0.000112623659063116
-153.295132901407,1,0.999660675232492,1.68495650639938,-0.000112217541813689
-153.195551498841,1,0.999660020507049,1.6849510622501,-0.000111796719374321
-153.086767557097,1,0.999659669250377,1.68494509420568,-0.000111328316977355
-152.968368107951,1,0.999659582010626,1.68493858013522,-0.000110810648848353
-152.849968658805,1,0.999659684974172,1.68493205547394,-0.000110286831945305
-152.748382209837,1,0.999659896597704,1.68492645665567,-0.000109833705074072
-152.646202802726,1,0.999660247849066,1.68492083193413,-0.000109375305031578
-152.532612561942,1,0.999660837699915,1.68491459593453,-0.000108863336908266
-152.413617180409,1,0.999661663777638,1.68490809290715,-0.000108324974712942
-152.294621798876,1,0.999662564762155,1.68490163163131,-0.000107785060599774
-152.192821575042,1,0.999663201992627,1.68489614566138,-0.000107322238485044
-152.088122965739,1,0.999663521533283,1.6848905511021,-0.000106845559904034
-152,1,0.99966340850055,1.68488588483277,-0.000106443930600331
-151.960982968697,1,0.999663233216533,1.68488383231083,-0.00010626522102028
-151.921965937394,1,0.999662981301698,1.68488178780251,-0.00010608282797657
-151.868524906348,1,0.999662517956608,1.68487899831063,-0.000105824504576621
-151.805290351369,1,0.999661811657335,1.68487570921672,-0.00010550552609831
-151.71997707586,1,0.999660649472921,1.68487128214775,-0.000105054306371075
-151.615040463802,1,0.999659051761123,1.68486583848493,-0.000104471922682994
-151.510103851744,1,0.999657491797663,1.68486038372774,-0.000103865732769617
-151.408390889568,1,0.999656202253538,1.68485507836996,-0.000103260621547696
-151.309058549183,1,0.999655250199164,1.68484987692566,-0.00010265675672691
-151.207988161605,1,0.999654602226769,1.68484456394662,-0.000102032140960481
-151.096999209987,1,0.999654197137222,1.68483870846338,-0.000101337092542522
-150.977606539511,1,0.999654006490881,1.68483239086381,-0.000100581308859829
-150.858213869036,1,0.999653988617903,1.68482606227841,-9.98192426114319e-05
-150.755505737426,1,0.99965411031706,1.68482061692027,-9.91598930945026e-05
-150.651297024279,1,0.999654404133515,1.68481509834632,-9.84881916648306e-05
-150.533677031609,1,0.999654985968701,1.68480888651073,-9.77275324408194e-05
-150.419822580631,1,0.99965577766495,1.68480290046847,-9.6989305829645e-05
-150.305968129653,1,0.99965665773187,1.684796950736,-9.62496634753091e-05
-150.203003538946,1,0.999657335769643,1.68479160925687,-9.55798409388864e-05
-150.096353353081,1,0.999657704689935,1.6847861233028,-9.48853352033541e-05
-150,1,0.999657607022065,1.68478121383367,-9.42574031750215e-05
-149.960433899527,1,0.999657434059303,1.68477921188303,-9.39986282361693e-05
-149.920867799054,1,0.999657184833791,1.68477721785071,-9.37360376548624e-05
-149.866756755082,1,0.999656728378036,1.6847745014283,-9.33681689305049e-05
-149.802547093926,1,0.999656035989694,1.68477128937607,-9.29179555639176e-05
-149.715254061662,1,0.999654904556998,1.68476693267297,-9.22842493705084e-05
-149.587149731854,1,0.99965310159227,1.6847605392549,-9.1317459422563e-05
-149.483151404515,1,0.999651762893413,1.68475533527043,-9.05077206305449e-05
-149.381625289209,1,0.999650723512168,1.68475023644968,-8.97009689509454e-05
-149.282577275569,1,0.999650011943855,1.68474524241898,-8.8901894841148e-05
-149.179156927016,1,0.999649553857558,1.68474000789544,-8.80577157395812e-05
-149.059473044618,1,0.999649277113964,1.68473392845157,-8.70711878397518e-05
-148.951373990682,1,0.999649162343511,1.68472842297085,-8.61734344266146e-05
-148.843274936745,1,0.999649137857252,1.68472291041606,-8.52708656417234e-05
-148.74166395655,1,0.999649224235691,1.68471772878812,-8.44191009878592e-05
-148.635670976407,1,0.999649488686546,1.68471233089333,-8.3527930838212e-05
-148.510530486991,1,0.999650090501184,1.68470597751146,-8.24731056316003e-05
-148.403543142779,1,0.999650823202994,1.68470057156762,-8.15695683272361e-05
-148.296555798567,1,0.999651624442032,1.68469519758423,-8.06648320822584e-05
-148.193950197048,1,0.999652268348628,1.68469008071399,-7.979628503757e-05
-148.085534399136,1,0.999652598704406,1.68468472069588,-7.88778492443881e-05
-148,1,0.999652495247863,1.68468053040523,-7.81528519155361e-05
-147.959389766557,1,0.999652322011425,1.68467855383978,-7.78076567453795e-05
-147.918779533114,1,0.999652070692343,1.68467658526516,-7.74583841832432e-05
-147.863918771828,1,0.999651616604844,1.68467393634819,-7.69774627542991e-05
-147.798453665539,1,0.999650929107101,1.68467078642759,-7.63894164895057e-05
-147.70898575014,1,0.99964981765381,1.68466649115246,-7.55632748896534e-05
-147.58238019906,1,0.999648170692133,1.68466041207048,-7.43581420434708e-05
-147.477837483161,1,0.999646992709342,1.68465537861321,-7.33384577206175e-05
-147.377268922949,1,0.999646153869463,1.68465051861847,-7.23416520139464e-05
-147.278736424806,1,0.999645635084132,1.6846457382356,-7.13532971240299e-05
-147.175431074387,1,0.999645352149047,1.68464070708519,-7.0307374662501e-05
-147.054773327543,1,0.999645216550157,1.68463480974199,-6.90761536340651e-05
-146.948234123756,1,0.999645157525179,1.68462958887423,-6.79824625090808e-05
-146.841694919969,1,0.999645116858824,1.68462436150199,-6.68841314190871e-05
-146.740770528667,1,0.999645131828327,1.68461940972406,-6.58403910978739e-05
-146.635249628661,1,0.999645282978074,1.68461423926432,-6.47464749896631e-05
-146.510282155177,1,0.999645735502584,1.68460813470454,-6.34483082765092e-05
-146.404084057877,1,0.999646352783382,1.68460297148497,-6.23434114022658e-05
-146.297885960577,1,0.999647075481628,1.68459783846448,-6.12373317314813e-05
-146.195916568039,1,0.999647693879061,1.6845929448559,-6.01744387120073e-05
-146.08825517825,1,0.999648053989578,1.68458782213329,-5.90515144455045e-05
-146,1,0.999648003312441,1.68458366127188,-5.81305818136285e-05
-145.958933379814,1,0.999647858837399,1.68458173800862,-5.7701041574626e-05
-145.917866759628,1,0.999647638317882,1.68457982258818,-5.72672884254083e-05
-145.86231042428,1,0.9996472277504,1.6845772415775,-5.66711179850743e-05
-145.79594601383,1,0.999646595169819,1.68457416917921,-5.59443739574783e-05
-145.705413883094,1,0.999645570251384,1.68456998699063,-5.49299473831394e-05
-145.575125535502,1,0.999644051074193,1.68456396653141,-5.34323479991633e-05
-145.468562890002,1,0.999643026368425,1.68455902795106,-5.21821119946614e-05
-145.36765260187,1,0.999642365527642,1.68455433353155,-5.09823471662452e-05
-145.268981270231,1,0.999642015666022,1.68454972504777,-4.97976550379725e-05
-145.165331959874,1,0.999641882291481,1.6845448655984,-4.85436422628244e-05
-145.04345246875,1,0.999641864248359,1.68453913119989,-4.70594999667645e-05
-144.937548726503,1,0.999641846950861,1.68453413593066,-4.57635237861576e-05
-144.831644984256,1,0.999641791296894,1.68452913503984,-4.44630646337651e-05
-144.730757737191,1,0.999641747880603,1.68452437168132,-4.3220994044052e-05
-144.624968156812,1,0.999641807396631,1.68451938406726,-4.1915974146059e-05
-144.498798082466,1,0.999642140476273,1.68451345479614,-4.03569052444264e-05
-144.393072596159,1,0.999642659761564,1.68450851056668,-3.90488014942042e-05
-144.287347109853,1,0.999643306704086,1.68450359581386,-3.77395523961099e-05
-144.185340513802,1,0.999643888115068,1.68449888818291,-3.64755201982953e-05
-144.077306652714,1,0.999644250328595,1.68449394563401,-3.51361120127375e-05
-144,1,0.999644251067939,1.68449043978718,-3.41773194474232e-05
-143.958295555692,1,0.999644147096449,1.68448856009033,-3.36590296444589e-05
-143.916591111384,1,0.99964396930123,1.68448668815607,-3.31363361788517e-05
-143.860261427611,1,0.999643619077575,1.68448416980947,-3.24206172706842e-05
-143.792807145694,1,0.999643058839406,1.68448116457485,-3.15484403362182e-05
-143.701099597846,1,0.999642137711581,1.68447708737478,-3.0339036099572e-05
-143.567411674846,1,0.999640758599651,1.68447114116766,-2.85367917284562e-05
-143.458292345288,1,0.999639864443573,1.68446627247471,-2.70394835142351e-05
-143.356198428454,1,0.999639339685887,1.68446169930766,-2.56225661199594e-05
-143.256610377033,1,0.999639112943711,1.68445722047688,-2.42289185187622e-05
-143.151777473351,1,0.999639085506858,1.68445248783046,-2.27523606628893e-05
-143.027363581064,1,0.999639151198655,1.68444685161779,-2.09903670060074e-05
-142.92144240128,1,0.999639166221694,1.6844420417578,-1.94840363823279e-05
-142.815521221496,1,0.999639111915792,1.68443722737295,-1.79733758392114e-05
-142.71377763756,1,0.999639046463087,1.68443260442268,-1.65191578465895e-05
-142.606375426931,1,0.999639066912487,1.68442773255778,-1.49814946367594e-05
-142.475455459761,1,0.999639353014578,1.68442181534503,-1.31044409240749e-05
-142.370101368729,1,0.999639814498281,1.6844170788567,-1.15923242804405e-05
-142.264747277697,1,0.999640393243894,1.68441237194027,-1.00791282434953e-05
-142.161638761368,1,0.999640913878646,1.68440780010508,-8.59738076214311e-06
-142.051013267303,1,0.999641218180115,1.68440293979818,-7.00693005298292e-06
-142,1,0.999641221595167,1.68440071601303,-6.27332850698659e-06
-141.957522008086,1,0.999641148306919,1.68439887329342,-5.66139527424792e-06
-141.915044016171,1,0.999641004764747,1.68439703830299,-5.04488082676835e-06
-141.857947154603,1,0.999640706726768,1.68439458167026,-4.20621802306453e-06
-141.78929613931,1,0.999640212517571,1.68439163811499,-3.18236514368353e-06
-141.695835885547,1,0.999639385705789,1.68438763892705,-1.76433189565117e-06
-141.561692496785,1,0.999638168347289,1.68438189555025,3.09977938747763e-07
-141.450575671654,1,0.999637386446422,1.68437712245014,2.05464321263726e-06
-141.34702762608,1,0.999636957155263,1.68437265649257,3.69655515851386e-06
-141.245977434353,1,0.999636804652749,1.6843682805405,5.31035750407638e-06
-141.139279917747,1,0.999636831112074,1.68436364241355,7.02386225766294e-06
-141.010979507841,1,0.999636928948617,1.68435804594854,9.09409246466208e-06
-140.904581778194,1,0.999636946956917,1.68435339446056,1.08170090605958e-05
-140.798184048547,1,0.999636886684486,1.68434873951525,1.2544085049318e-05
-140.694852906696,1,0.999636812927379,1.68434422127625,1.42244421199589e-05
-140.584584691085,1,0.999636827224663,1.68433940922211,1.60201556752976e-05
-140.443950328204,1,0.99963713091279,1.68433329767391,1.83132272304626e-05
-140.31629311127,1,0.999637686109933,1.68432778678832,2.03967216090284e-05
-140.210979556609,1,0.999638214168307,1.6843232749287,2.21166012632917e-05
-140.104341062931,1,0.999638629818064,1.68431874465281,2.38588508969101e-05
-140,1,0.999638756884855,1.68431435506139,2.5564113311588e-05
-139.959073794542,1,0.999638707330706,1.68431264606478,2.6233979609297e-05
-139.918147589084,1,0.999638598263943,1.68431094401059,2.69079411107931e-05
-139.860731743458,1,0.999638348896289,1.68430856574828,2.78631198253193e-05
-139.792491632302,1,0.99963792616312,1.68430574912584,2.90135092845117e-05
-139.699583665739,1,0.999637204467425,1.68430192242825,3.0603370651569e-05
-139.560434868949,1,0.999636082625488,1.68429618811597,3.30252275149018e-05
-139.447575531661,1,0.999635384330971,1.68429152154285,3.50166126851237e-05
-139.342093188275,1,0.999635012604773,1.68428714201051,3.68940790366756e-05
-139.239380730788,1,0.999634895631021,1.68428285986393,3.87337866544907e-05
-139.130532563693,1,0.999634936305365,1.68427830446718,4.06929387841981e-05
-138.997312882226,1,0.999635027135956,1.6842727098064,4.31008009584288e-05
-138.864132017842,1,0.999635015249911,1.68426710414843,4.55160612079647e-05
-138.757115863258,1,0.999634935216222,1.68426259798368,4.74611112849799e-05
-138.650834382045,1,0.999634877823693,1.68425812774971,4.93956395821588e-05
-138.532138389354,1,0.999634961807752,1.68425314896848,5.15586665793127e-05
-138.409702951408,1,0.999635294002382,1.68424803741071,5.37919349705845e-05
-138.287267513462,1,0.999635829748993,1.68424295980043,5.60267762995947e-05
-138.181352854908,1,0.999636315409193,1.68423860192535,5.79610064903591e-05
-138.070757791863,1,0.999636656816817,1.68423409235918,5.99814168263935e-05
-138,1,0.999636709734083,1.68423123198057,6.12743556083623e-05
-137.957316912272,1,0.999636664862245,1.684229516624,6.20553541591379e-05
-137.914633824544,1,0.99963655995781,1.68422780849333,6.28407982431883e-05
-137.856357416171,1,0.999636324115901,1.68422548576246,6.39230929325579e-05
-137.786282960797,1,0.999635920211517,1.6842227025142,6.52399275765103e-05
-137.689959708954,1,0.999635229931653,1.68421888426574,6.70743689283465e-05
-137.558105004562,1,0.999634269728407,1.68421365389608,6.96219758233724e-05
-137.445529858141,1,0.999633651261552,1.68420917334963,7.18223398357282e-05
-137.339859117859,1,0.999633331412204,1.68420495022502,7.39035442095942e-05
-137.235904421092,1,0.999633241758114,1.68420077842208,7.59623566033707e-05
-137.125078609383,1,0.999633291012402,1.68419631361566,7.81667931044061e-05
-136.986238459055,1,0.999633370759797,1.68419070064206,8.0938834359584e-05
-136.854982107554,1,0.999633338696758,1.68418538276378,8.35671927858495e-05
-136.747563508306,1,0.999633252700914,1.6841810295589,8.57222839097671e-05
-136.639241759284,1,0.999633201745455,1.68417664530314,8.78982720210197e-05
-136.515959932601,1,0.999633311740346,1.6841716704641,9.03773417172821e-05
-136.400423073202,1,0.99963363779773,1.68416703068936,9.27025219515099e-05
-136.284886213802,1,0.999634127901828,1.68416242063392,9.50290365960282e-05
-136.177788974373,1,0.99963459271232,1.68415818044743,9.71865049918808e-05
-136.065239891855,1,0.999634909333112,1.68415376526054,9.94545050131967e-05
-136,1,0.999634948296647,1.68415122762467,0.000100769427845468
-135.956824514199,1,0.999634903420668,1.68414955764474,0.000101640698043026
-135.913649028399,1,0.999634800550957,1.68414789476959,0.000102516419243512
-135.854758810374,1,0.99963457161005,1.6841456358689,0.000103720742752472
-135.783753475243,1,0.999634181910345,1.68414292171889,0.000105188187475375
-135.685556025713,1,0.999633520468425,1.68413917538559,0.000107242001115893
-135.555734218945,1,0.99963265301608,1.68413421866156,0.000109991896565187
-135.443128723922,1,0.999632104820075,1.68412990477882,0.000112401303032708
-135.337237927048,1,0.999631840173529,1.6841258313089,0.000114682351908563
-135.232410412706,1,0.999631787882772,1.68412178192092,0.000116951662668036
-135.119917996875,1,0.999631856893888,1.68411741948267,0.000119396348127743
-134.974580349616,1,0.999631933140801,1.68411176338215,0.000122565554252482
-134.845405543763,1,0.99963187991403,1.68410672586071,0.000125389678490254
-134.737946521737,1,0.99963178078833,1.68410253473584,0.000127742865145941
-134.627859553606,1,0.999631725885811,1.68409824717869,0.000130156298924114
-134.499587921265,1,0.999631852328037,1.68409326769208,0.000132970980947625
-134.386636873409,1,0.999632181294234,1.68408890528155,0.00013545120147733
-134.273685825554,1,0.999632652063477,1.6840845710514,0.000137932620082881
-134.165730513021,1,0.999633095267694,1.68408046108482,0.000140305135080288
-134.050577792248,1,0.999633376014849,1.68407611868515,0.000142836516402151
-134,1,0.999633395411501,1.68407422662582,0.000143948537583427
-133.956170443076,1,0.999633351785609,1.68407259505359,0.000144913250923681
-133.912340886151,1,0.999633250966316,1.6840709705125,0.000145882464970382
-133.852804126243,1,0.999633027825849,1.6840687727997,0.000147208872310844
-133.780765093104,1,0.999632648851656,1.68406612277973,0.000148829153273189
-133.680688009166,1,0.999632010860669,1.68406244819699,0.000151104515476078
-133.551704315416,1,0.999631217806431,1.68405770798636,0.000154070457437525
-133.43875366126,1,0.999630736985213,1.68405354274249,0.000156691038397133
-133.332739664331,1,0.99963053244968,1.68404961697168,0.000159165483126694
-133.22729021046,1,0.999630526555474,1.68404569578796,0.000161637599353684
-133.113423679209,1,0.999630626088723,1.68404144506918,0.000164316311188434
-132.960972076426,1,0.999630708027022,1.68403573370966,0.000167913825336222
-132.833464506876,1,0.999630635283671,1.6840309474914,0.000170929745001908
-132.726044527386,1,0.9996305193295,1.68402691554291,0.000173474122584089
-132.61430525459,1,0.999630453299551,1.68402272814719,0.000176123413003507
-132.480274331984,1,0.999630589043457,1.68401772344801,0.000179303843721709
-132.369058118489,1,0.999630917931596,1.6840135932387,0.000181944510348017
-132.257841904994,1,0.999631371273806,1.68400949032065,0.000184586259032699
-132.149043295602,1,0.99963179159042,1.68400550893504,0.000187171376087952
-132.030872789136,1,0.999632033749668,1.68400122735975,0.000189979846510022
-132,1,0.999632040340945,1.68400011692916,0.000190713669739065
-131.955530457679,1,0.999632002458338,1.68399852374609,0.000191771737528393
-131.911060915357,1,0.999631908004259,1.68399693751363,0.000192834358574881
-131.850861710533,1,0.999631695612486,1.6839947990206,0.00019428271367658
-131.777789605955,1,0.999631331898766,1.68399221217115,0.00019605611992983
-131.676007996754,1,0.999630721746885,1.68398861541725,0.000198550769524949
-131.546607424258,1,0.999629992288215,1.68398403800272,0.000201754968218879
-131.432803232741,1,0.999629574157222,1.68397999807947,0.000204595709250827
-131.326440901391,1,0.999629427944146,1.68397620638255,0.000207265047656197
-131.220340831362,1,0.999629469262592,1.68397240819529,0.000209938333206552
-131.105159643847,1,0.999629602194958,1.68396826885108,0.000212849490866487
-130.978637690808,1,0.999629693588419,1.68396370721022,0.000216055431976003
-130.852115737768,1,0.999629640022493,1.68395913690818,0.000219267655672137
-130.743706362124,1,0.999629512703348,1.68395522014661,0.000222023719086722
-130.633145268129,1,0.999629407246191,1.68395123100319,0.00022483711537491
-130.505344959307,1,0.999629456702103,1.68394663451799,0.000228091671768238
-130.390757041418,1,0.999629721150904,1.68394253400322,0.000231011448810867
-130.276169123529,1,0.999630145977925,1.6839384601149,0.000233932409311147
-130.167351624094,1,0.99963056739753,1.68393462198601,0.000236707102440517
-130.051450899341,1,0.999630855786164,1.68393057297989,0.000239663075164029
-130,1,0.999630888947907,1.68392879000931,0.000240975471726884
-129.95539951316,1,0.999630860753366,1.68392725214258,0.000242114188490503
-129.91079902632,1,0.999630778225362,1.68392572100177,0.000243257380281553
-129.850018433066,1,0.999630583482593,1.68392364300183,0.000244825087758249
-129.776274658361,1,0.999630244162469,1.68392113050524,0.000246742379476181
-129.673512228246,1,0.999629672737147,1.68391763547835,0.000249438399651303
-129.542373552392,1,0.999628997706611,1.68391317043149,0.000252911294977551
-129.427221229658,1,0.999628632997666,1.68390923544311,0.000255983333760326
-129.320107600025,1,0.999628534477237,1.68390555946377,0.000258854968821623
-129.213170553191,1,0.999628613115209,1.68390187410824,0.000261732136607407
-129.096621521702,1,0.999628771120912,1.68389784187869,0.00026487679209164
-128.970273165039,1,0.999628869096599,1.68389345675418,0.000268293668782532
-128.843924808375,1,0.999628810130426,1.68388906380286,0.000271716531299177
-128.735035734831,1,0.999628672730513,1.68388527761383,0.000274669959104065
-128.623345291961,1,0.99962855479575,1.68388139973469,0.000277701923427645
-128.492771669487,1,0.999628593187375,1.683876881603,0.000281248943932791
-128.37871708212,1,0.999628843592427,1.68387295584207,0.000284348832930673
-128.264662494752,1,0.999629246429983,1.68386905613428,0.000287449831794809
-128.155011653129,1,0.999629647351622,1.68386533732219,0.000290431887928599
-128.037182508598,1,0.999629913869329,1.68386138039742,0.00029363700973431
-128,1,0.999629937140284,1.68386014115975,0.000294648538916906
-127.954862586645,1,0.999629918567838,1.68385864325431,0.000295877530202798
-127.909725173289,1,0.999629847294042,1.68385715196633,0.000297111012536252
-127.84828566223,1,0.999629670350976,1.68385513048843,0.000298799751442091
-127.773549932918,1,0.999629354906601,1.68385267998954,0.000300869132758438
-127.669084068398,1,0.999628819783919,1.68384926047281,0.000303785954637328
-127.537058827437,1,0.99962820346956,1.68384493354749,0.000307504082577431
-127.420600770762,1,0.999627887187086,1.68384110252111,0.000310805867254987
-127.312583919671,1,0.999627826686368,1.68383753371223,0.00031388204596744
-127.204513183429,1,0.9996279307807,1.68383394802651,0.000316969769526179
-127.08606598275,1,0.999628101006535,1.68383000281298,0.000320362671040061
-126.959429400697,1,0.99962819427645,1.68382577178301,0.000323997670402587
-126.832792818644,1,0.999628125773092,1.68382153380365,0.000327638369669828
-126.723201044752,1,0.999627982452715,1.68381786655042,0.00033079244111367
-126.609803177565,1,0.99962786284988,1.68381407821736,0.000334058529676343
-126.474579922195,1,0.999627910176641,1.68380957749934,0.000337955680915422
-126.361100762037,1,0.99962816196771,1.68380582169708,0.000341227683941944
-126.247621601878,1,0.999628549425626,1.68380209164069,0.000344500710833237
-126.136643664708,1,0.999628926528733,1.68379847430302,0.000347702343217848
-126.015513652098,1,0.99962915552767,1.68379456669052,0.000351197488084987
-126,1,0.999629163024828,1.68379406961158,0.000351645165263023
-125.951875774461,1,0.99962914958017,1.6837925327776,0.000353035083075659
-125.903751548922,1,0.999629079649043,1.68379100310462,0.000354430117736101
-125.841194027012,1,0.999628909570499,1.68378902294743,0.000356253653703939
-125.763534494327,1,0.999628600460808,1.68378657288334,0.000358533032726913
-125.6532515932,1,0.999628076315908,1.68378309856335,0.000361795382171487
-125.523765903698,1,0.999627540437477,1.68377901282107,0.000365655549153784
-125.406797716608,1,0.999627283234298,1.68377530762128,0.000369163143233139
-125.298186992194,1,0.999627263684539,1.6837718519643,0.000372433121838545
-125.188447947761,1,0.999627389275045,1.68376834563961,0.000375746686603742
-125.066285834536,1,0.999627560556806,1.68376442736636,0.00037944393226863
-124.939682646244,1,0.999627630318736,1.68376035475127,0.000383282659372333
-124.813079457953,1,0.999627541881698,1.68375627655268,0.000387126652747122
-124.702739484536,1,0.999627395844298,1.68375272353242,0.000390480022956302
-124.586318491316,1,0.999627290210609,1.68374898213169,0.000394020585346641
-124.439824027362,1,0.999627388976948,1.68374429477095,0.00039847828611328
-124.303516881203,1,0.999627745901565,1.68373996420128,0.000402627829803742
-124.191052602473,1,0.999628128627406,1.68373642074487,0.000406052490132147
-124.075823363856,1,0.999628440909427,1.6837328239482,0.000409562007192887
-124,1,0.999628528622766,1.68373047847555,0.000411871629041563
-123.954955245273,1,0.999628521690498,1.68372909376766,0.000413244732755252
-123.909910490546,1,0.999628467911071,1.6837277151666,0.00041462203926966
-123.847404837014,1,0.999628319642046,1.68372581016289,0.000416542666711872
-123.771558929117,1,0.999628047078872,1.6837235065936,0.000418887907358001
-123.664879748122,1,0.999627578137827,1.68372027191841,0.000422210135991113
-123.531117414144,1,0.999627053168424,1.68371621056046,0.00042640632279177
-123.412435284908,1,0.999626804099765,1.68371259306731,0.000430150604303847
-123.302406581183,1,0.999626787053272,1.68370922437821,0.000433635005821567
-123.191854435413,1,0.999626911712104,1.68370582515689,0.000437145567651231
-123.069307752091,1,0.999627080339689,1.68370204246223,0.000441045455128422
-122.935830536808,1,0.999627149317862,1.68369790991169,0.000445300643790947
-122.802353321525,1,0.999627049401078,1.68369377162928,0.000449561452674871
-122.691011342957,1,0.999626904323855,1.68369032137043,0.000453118801409261
-122.572108505762,1,0.999626810410505,1.68368664487982,0.000456920038922073
-122.41478788997,1,0.999626951221663,1.68368180420873,0.000461952140651742
-122.281290751572,1,0.999627315422451,1.68367772797668,0.000466223918823172
-122.168545306416,1,0.99962767967008,1.68367431485316,0.000469832529311806
-122.049964159595,1,0.999627951334283,1.68367076019394,0.000473628552307509
-122,1,0.999627995244148,1.68366927458577,0.00047522815913735
-121.954085694264,1,0.99962798926628,1.68366791619377,0.00047669912254851
-121.908171388527,1,0.999627937001102,1.6836665638894,0.00047817434913458
-121.844975015468,1,0.999627793553416,1.68366471039031,0.000480214225135667
-121.767881411116,1,0.999627529377481,1.68366245706076,0.000482717288714685
-121.6585877416,1,0.999627076196827,1.68365926754833,0.000486289469898038
-121.525592346844,1,0.999626597014541,1.68365538053797,0.000490665534546297
-121.406358420122,1,0.999626381476046,1.68365188190936,0.000494609035486107
-121.295676180378,1,0.999626385573833,1.68364861959265,0.000498282342278902
-121.183845197026,1,0.999626519039211,1.6836453092415,0.000502003068687307
-121.058635345936,1,0.999626683732245,1.68364158843496,0.00050617722863136
-120.934278303378,1,0.9996267372588,1.68363788236142,0.000510329389871653
-120.80992126082,1,0.999626646232239,1.683634171568,0.000514486244478141
-120.697646435543,1,0.999626502000401,1.6836308227453,0.000518242211507064
-120.578607778908,1,0.999626401792137,1.68362727963065,0.000522226748240526
-120.42487472285,1,0.999626514255786,1.68362272526423,0.000527375142615361
-120.288905926801,1,0.999626858662305,1.68361872724897,0.000531930329065913
-120.175011331703,1,0.999627213419339,1.68361540697028,0.000535746868466705
-120.056193044424,1,0.999627485250849,1.68361197691725,0.000539729023346827
-120,1,0.99962753647586,1.68361036831867,0.000541612488680912
-119.953854528444,1,0.999627531151567,1.68360905435454,0.000543160178867089
-119.907709056887,1,0.999627481082567,1.68360774630374,0.000544712042122808
-119.843945435969,1,0.999627342562083,1.68360594645852,0.000546865619186793
-119.766103625425,1,0.999627087568174,1.68360375677342,0.000549509049116464
-119.655236683373,1,0.999626651547291,1.68360064281308,0.000553297354863619
-119.521922485437,1,0.999626206061325,1.68359689243708,0.000557881005054037
-119.402125837414,1,0.999626018062161,1.68359350875913,0.000562019436082875
-119.290769161896,1,0.999626040282003,1.6835903492049,0.000565878534596345
-119.177853821681,1,0.999626182419391,1.68358713159697,0.00056980067969345
-119.050425028825,1,0.999626345645515,1.68358348628352,0.000574235109093116
-118.927946970582,1,0.99962638832545,1.68357997280307,0.000578503284316842
-118.805468912339,1,0.99962629310119,1.68357645521477,0.00058277579023637
-118.692400481721,1,0.999626147700367,1.68357320950566,0.000586722903204689
-118.571862469901,1,0.999626050004432,1.68356975698844,0.000590933012353606
-118.411774913163,1,0.999626177970825,1.68356519441908,0.000596527076503456
-118.276766196188,1,0.999626520369138,1.68356137664218,0.000601246412822692
-118.162374956518,1,0.999626861171352,1.68355817016207,0.000605245871743695
-118.041225933466,1,0.99962710830944,1.68355480840563,0.000609482206717762
-118,1,0.999627139767745,1.68355367342655,0.000610923905854363
-117.953273125532,1,0.999627135423606,1.68355239289389,0.00061255896267523
-117.906546251063,1,0.999627087052557,1.68355111818453,0.000614198182246214
-117.842142224218,1,0.999626952679483,1.68354936867339,0.000616466648979339
-117.763340485989,1,0.999626705171679,1.68354723535954,0.000619256427495926
-117.650360934967,1,0.999626283245911,1.68354418118808,0.000623279431900672
-117.516749565973,1,0.999625871053889,1.68354056310671,0.000628064534474698
-117.396448604956,1,0.999625711491718,1.68353729207939,0.000632391734419091
-117.28444842866,1,0.99962575300512,1.68353423283487,0.000636432140420223
-117.17041901457,1,0.999625904933315,1.68353110468976,0.000640554495975013
-117.040520006124,1,0.999626067266807,1.68352752736398,0.00064525856475213
-116.91934559244,1,0.999626099014367,1.68352418128398,0.000649652356916053
-116.798171178756,1,0.999625997932629,1.68352083172018,0.000654050159780942
-116.684295552121,1,0.999625850672611,1.68351768584857,0.000658185782046725
-116.561961011688,1,0.999625756334895,1.68351431423287,0.000662630783401452
-116.428090356714,1,0.999625846292817,1.68351064142454,0.000667496847526733
-116.29421970174,1,0.999626149797871,1.68350699414066,0.00067236434756307
-116.178711918336,1,0.99962648385542,1.68350387383748,0.000676565016141731
-116.05876244557,1,0.999626747108362,1.68350066532054,0.000680927818572402
-116,1,0.999626801528449,1.68349910689461,0.000683065301318966
-115.953214230551,1,0.999626799387212,1.68349787288416,0.000684768101651523
-115.906428461102,1,0.999626754889101,1.68349664449136,0.000686474940457413
-115.841479133429,1,0.999626627244264,1.68349494644126,0.000688853364643444
-115.762125132519,1,0.999626390739238,1.68349287888471,0.000691773195048762
-115.647955988943,1,0.999625987189049,1.68348990841158,0.000695996901004026
-115.513235050416,1,0.999625601374246,1.68348639696761,0.000701007773404982
-115.392048216111,1,0.999625464400668,1.68348322507934,0.000705533547416787
-115.279250220106,1,0.999625521112868,1.68348025914199,0.000709757472465058
-115.16415531597,1,0.999625680441481,1.68347721967694,0.000714075903838485
-115.032090447176,1,0.999625841631548,1.68347371855366,0.000719038899958571
-114.91137278044,1,0.999625865066139,1.68347050983531,0.000723580865685858
-114.790655113704,1,0.999625759370299,1.68346729813422,0.00072812660482123
-114.675886926144,1,0.999625611215393,1.68346424694577,0.000732450910061286
-114.551681418742,1,0.999625520724685,1.68346095313758,0.000737132916243832
-114.418242606003,1,0.99962561569167,1.68345743117564,0.00074216477685525
-114.284803793264,1,0.999625913439521,1.68345393419622,0.000747197983569245
-114.168723278079,1,0.999626235340369,1.68345091839336,0.000751577243800136
-114.047013304595,1,0.999626480977701,1.68344778812635,0.000756169463705908
-114,1,0.999626520499858,1.68344658881691,0.000757943440799658
-113.952678704503,1,0.99962652067777,1.68344538756988,0.000759729997024838
-113.905357409006,1,0.999626479371229,1.68344419184322,0.000761520569747196
-113.839763453046,1,0.999626357808595,1.68344254146186,0.000764011389825403
-113.759471278099,1,0.999626130770442,1.68344052813297,0.000767074073877716
-113.643220384187,1,0.999625742913001,1.68343761702476,0.000771531070734577
-113.507815116334,1,0.99962538616512,1.68343421978449,0.00077674854566899
-113.385811402468,1,0.999625272345475,1.68343114571175,0.000781467298373459
-113.272170044715,1,0.999625343209333,1.68342826901553,0.00078587366418581
-113.155789929782,1,0.999625507626009,1.68342531018187,0.000790394455947932
-113.020831794139,1,0.999625663967283,1.68342186579434,0.000795644618502039
-112.900616639474,1,0.999625675708712,1.68341878991967,0.000800326362497383
-112.780401484808,1,0.999625564619465,1.68341571164618,0.000805011628055713
-112.664543479856,1,0.999625417497427,1.68341274756939,0.00080952955377242
-112.537825997861,1,0.999625335992191,1.6834095144987,0.000814473006044328
-112.403710007522,1,0.9996254442623,1.68340610976416,0.00081970679850929
-112.269594017183,1,0.999625743913997,1.6834027301407,0.000824941858824729
-112.152835762116,1,0.999626052157351,1.68339981416874,0.0008295001284708
-112.028419889336,1,0.999626271912263,1.68339673939321,0.000834357913515424
-112,1,0.999626291793831,1.68339604228249,0.000835467625136338
-111.952101981938,1,0.999626293968392,1.68339487207443,0.000837338842835988
-111.904203963877,1,0.999626255520702,1.68339370729815,0.000839214059274798
-111.837954763278,1,0.999626139650459,1.68339210315214,0.000841816454043021
-111.75666830597,1,0.999625921576015,1.68339014154515,0.000845023078636389
-111.638130575837,1,0.999625548492364,1.68338728457343,0.00084972177486585
-111.502147704415,1,0.999625219371197,1.68338400044525,0.000855137317997412
-111.379318414762,1,0.999625126080222,1.68338102106028,0.000860046052330726
-111.264764338932,1,0.999625207962622,1.68337822935296,0.000864634738197728
-111.146957353991,1,0.999625374195252,1.68337534586576,0.000869361706705638
-111.008601173196,1,0.999625522351383,1.68337194641915,0.000874920804378426
-110.888673823115,1,0.999625520955952,1.6833689926519,0.000879744294349255
-110.768746473033,1,0.99962540485888,1.68336603706814,0.000884571070402324
-110.651592364204,1,0.999625261175855,1.68336315290422,0.000889288586502918
-110.521729356032,1,0.999625193543885,1.68335996540749,0.000894519865071775
-110.388934990872,1,0.999625316467772,1.68335672315727,0.000899870818256709
-110.256140625712,1,0.999625612328143,1.68335350538773,0.000905222928492586
-110.138472506506,1,0.999625906522718,1.68335068017266,0.000909966096197146
-110,1,0.999626106867666,1.68334739326671,0.000915548493735929
-109.95456683893,1,0.999626111219328,1.68334632481239,0.000917380952343255
-109.90913367786,1,0.999626080614071,1.68334526110446,0.00091921679454457
-109.842848044135,1,0.999625976647842,1.68334371584393,0.000921903433580701
-109.76296880794,1,0.999625778378553,1.68334186023406,0.000925153848603463
-109.64766206005,1,0.999625434927762,1.6833391854992,0.000929866880353319
-109.508268903692,1,0.999625106800261,1.68333594603932,0.000935589960482389
-109.38354949612,1,0.999625012221611,1.68333303494754,0.000940727908158329
-109.267743215047,1,0.999625091466658,1.68333031905684,0.00094550933006865
-109.149266497254,1,0.999625254125157,1.68332752829534,0.000950408883416867
-109.010904517233,1,0.999625399886285,1.68332425651414,0.000956138184438821
-108.889689056974,1,0.999625400280626,1.68332138315708,0.000961162264806872
-108.768473596715,1,0.999625286781611,1.68331850797415,0.000966189594163919
-108.650402462113,1,0.999625146142721,1.68331571038908,0.000971088827398062
-108.519480328145,1,0.999625080442842,1.68331261770404,0.000976523260103335
-108.386571988387,1,0.99962520003958,1.6833094948401,0.0009820416741253
-108.25366364863,1,0.999625485329977,1.68330639569918,0.000987561200281331
-108.135007931675,1,0.999625769160596,1.68330365438564,0.000992489513281875
-108,1,0.99962595559572,1.68330057052507,0.000998097574867074
-107.95468287324,1,0.999625960550493,1.68329954480042,0.00099998081434996
-107.90936574648,1,0.999625932214798,1.68329852362259,0.00100186729664967
-107.842572831513,1,0.999625833034123,1.68329702498888,0.00100465577866837
-107.762241845022,1,0.999625643204488,1.68329522896541,0.00100802195283499
-107.645899036266,1,0.999625313880864,1.68329263150198,0.00101291772459675
-107.505583143684,1,0.999625004419242,1.68328949282499,0.00101884718701538
-107.379922777946,1,0.999624922255649,1.68328666953518,0.00102417418530507
-107.263160532433,1,0.999625006626601,1.68328403359415,0.00102913432949477
-107.143414322115,1,0.999625167689657,1.68328131832775,0.00103422889463119
-107.002265504953,1,0.999625305080516,1.68327810537787,0.00104024130994558
-106.880919634109,1,0.999625295784199,1.68327533663128,0.00104541477529156
-106.759573763265,1,0.99962517984713,1.68327256646127,0.00105059131311498
-106.640211633936,1,0.999625044005341,1.68326984490125,0.00105568544236105
-106.506249136209,1,0.999624991765778,1.68326680037371,0.00106140460269023
-106.377662762579,1,0.99962511739306,1.68326389405857,0.00106689563266552
-106.249076388948,1,0.999625387715377,1.68326100952638,0.00107238764401731
-106.129342633707,1,0.999625661096829,1.68325834827007,0.00107750219818097
-106,1,0.999625829577279,1.68325550548954,0.00108302771529341
-105.955459574964,1,0.999625834900496,1.6832545351516,0.00108493123719386
-105.910919149929,1,0.999625809376107,1.68325356905283,0.00108683775332047
-105.843754532155,1,0.999625715590631,1.68325211851921,0.00108972038784401
-105.763488878637,1,0.999625535393469,1.68325039125417,0.00109317739419558
-105.647283373347,1,0.999625221762897,1.68324789424875,0.00109820215467132
-105.505267614829,1,0.999624924212404,1.68324483683384,0.00110436744380352
-105.378428765854,1,0.999624849910121,1.68324209394902,0.00110989043554399
-105.26064284948,1,0.99962493704236,1.68323953451609,0.00111502936052466
-105.1398050506,1,0.99962509606513,1.68323689708067,0.00112030891034309
-104.996549026408,1,0.999625226960251,1.68323375823172,0.00112657508482182
-104.874765722512,1,0.999625211415203,1.683231083646,0.00113190643948885
-104.752982418615,1,0.999625094559159,1.68322840791152,0.00113724073269032
-104.632422041338,1,0.999624963034981,1.68322576256852,0.00114252359657924
-104.495772727917,1,0.999624921243819,1.68322277450411,0.00114851334151309
-104.368449091639,1,0.99962505285597,1.68322000614342,0.00115409561713904
-104.241125455362,1,0.99962531588773,1.68321725873795,0.00115967879925299
-104.120288200598,1,0.999625577882258,1.68321467559856,0.00116497816434687
-104,1,0.999625723580438,1.68321213216789,0.00117025388633257
-103.955666783348,1,0.999625729084122,1.68321120259054,0.00117219901135407
-103.911333566696,1,0.999625705231686,1.68321027705834,0.0011741469896724
-103.843697010247,1,0.99962561522791,1.68320887114877,0.00117712640291641
-103.763052001137,1,0.999625441936548,1.68320720087921,0.00118069061997719
-103.646036467286,1,0.999625140238568,1.68320478085276,0.00118588163678163
-103.502899033966,1,0.999624857655401,1.68320181482341,0.00119225536328545
-103.375075234135,1,0.999624793728793,1.68319915411209,0.00119796333162374
-103.256349005923,1,0.999624885204454,1.68319667072011,0.00120327488766628
-103.134293940341,1,0.999625042800653,1.68319410629424,0.0012087426331699
-102.988203623371,1,0.99962516624266,1.68319102501122,0.00121529412267214
-102.866139586694,1,0.99962514259456,1.68318844467539,0.00122077238490437
-102.744075550018,1,0.999625024062234,1.68318586354356,0.00122625343277548
-102.62216587655,1,0.999624897386174,1.68318328948461,0.00123172959866175
-102.482022885217,1,0.99962486897095,1.68318034133419,0.00123802664220185
-102.355834947727,1,0.999625009450356,1.68317770248171,0.00124369786192538
-102.229647010237,1,0.999625266865572,1.68317508395537,0.00124936991334419
-102.107537719682,1,0.999625516009942,1.68317257417317,0.0012548592120946
-102,1,0.999625635092197,1.6831703870465,0.00125969381115199
-101.95305573917,1,0.999625640322257,1.68316943979827,0.00126180508570847
-101.906111478341,1,0.999625613934895,1.68316849687451,0.00126391953444208
-101.837425675799,1,0.999625521893911,1.68316712325502,0.0012670208925023
-101.754143513105,1,0.99962534592526,1.68316546350664,0.00127079322848817
-101.63109233924,1,0.999625043493191,1.683163014107,0.00127638696955633
-101.489667325945,1,0.999624795306784,1.68316019249478,0.00128283841956472
-101.361820353339,1,0.999624756291144,1.68315762989015,0.00128868541225358
-101.242435962413,1,0.999624859621763,1.68315522519546,0.0012941546243891
-101.118236091606,1,0.999625016559227,1.68315271240779,0.00129985139862759
-100.964216333211,1,0.99962512295265,1.68314958445867,0.00130692303694475
-100.816830551679,1,0.99962505588532,1.68314658507577,0.00131369524968603
-100.69515302904,1,0.999624925315657,1.68314410963072,0.00131928886618553
-100.568150241444,1,0.999624824281476,1.68314153175828,0.00132512913827354
-100.402684725595,1,0.999624892782145,1.68313819074942,0.00133274014591588
-100.258541296256,1,0.999625145550992,1.68313530468334,0.00133937168136303
-100.136202040233,1,0.999625397519006,1.68313287877936,0.0013450007391049
-100,1,0.999625562936491,1.68313020899702,0.00135126815580851
-99.9534453312768,1,0.999625568632569,1.68312930485563,0.00135341115843035
-99.9068906625536,1,0.999625544448989,1.68312840481345,0.00135555715826179
-99.8377654897175,1,0.99962545677481,1.68312707425261,0.00135875097896536
-99.7542438458482,1,0.999625288399589,1.68312547220427,0.0013626215389554
-99.6307450024665,1,0.999624998544653,1.68312310617234,0.0013683641722934
-99.487922095308,1,0.999624761714339,1.6831203635507,0.0013750273492795
-99.3589251457962,1,0.999624729931996,1.68311787473309,0.00138106010870016
-99.23852308118,1,0.999624835381689,1.68311554027086,0.0013866999227261
-99.1130725173467,1,0.99962498962324,1.68311309709499,0.00139258298599135
-98.9557086921309,1,0.999625088110045,1.68311002077211,0.00139996963614714
-98.8088728146262,1,0.999625015223857,1.68310714463525,0.00140686702412529
-98.6865786417436,1,0.99962488652917,1.68310475026346,0.00141261413747638
-98.5576910387451,1,0.999624792862403,1.68310223298767,0.00141867289019547
-98.3830374819674,1,0.999624884687468,1.68309884123099,0.00142688506985192
-98.240167633822,1,0.999625139882223,1.68309609147691,0.00143360400139321
-98.1169827058897,1,0.99962537799429,1.68309374413858,0.0014393977900814
-98,1,0.999625505549939,1.68309153918648,0.00144490024507289
-97.9538385528145,1,0.999625511691411,1.68309067631821,0.00144707222528213
-97.9076771056291,1,0.999625489606198,1.68308981733449,0.00144924703416729
-97.838109531828,1,0.999625406165128,1.68308852847758,0.00145253175704968
-97.7543484387665,1,0.999625245092724,1.68308698213619,0.00145649788819442
-97.6303976637318,1,0.999624967208872,1.68308469658551,0.00146238590313451
-97.4861509641273,1,0.999624740952874,1.68308203051793,0.00146925955300109
-97.3559615083453,1,0.999624715585606,1.6830796127598,0.00147547763981404
-97.2344992219143,1,0.999624822491273,1.68307734583921,0.00148128767764047
-97.1077462346608,1,0.999624973572826,1.68307496960562,0.00148735738123566
-96.9467092156915,1,0.999625063838168,1.68307193922502,0.00149507573466975
-96.8003043740676,1,0.999624985601525,1.68306917908389,0.00150209747081381
-96.6773169674673,1,0.999624859459074,1.68306686178451,0.00150799848568815
-96.5463311750412,1,0.999624774257435,1.68306440028136,0.00151428499569442
-96.4043093077235,1,0.999624838064189,1.6830617450088,0.0015211026185679
-96.2622874404057,1,0.999625064749784,1.68305911043986,0.0015279213093459
-96.138048692941,1,0.999625302421077,1.68305682784499,0.00153388682726043
-96,1,0.999625460918824,1.68305432099118,0.00154051593755197
-95.9525942741386,1,0.999625467121189,1.68305346818259,0.0015427931075121
-95.9051885482773,1,0.999625444749455,1.68305261929903,0.00154507319015412
-95.8348278005168,1,0.999625362245597,1.68305136490586,0.00154846448558887
-95.7494669494329,1,0.999625203232946,1.68304984836461,0.00155258992437679
-95.6217020337834,1,0.999624930581529,1.68304758083801,0.00155878373043723
-95.4774612742944,1,0.999624725525501,1.68304501430915,0.00156579691344259
-95.3465570702688,1,0.999624714483146,1.68304267370689,0.00157217523470543
-95.2240738211493,1,0.999624826287323,1.68304047270298,0.00157815163120102
-95.0951983258922,1,0.999624973253055,1.68303814652385,0.00158444629428323
-94.9245260685298,1,0.999625045878678,1.6830350544058,0.0015927895290145
-94.7802199208402,1,0.999624954043198,1.68303243582879,0.0015998482311879
-94.6565660078463,1,0.999624831655026,1.68303019407409,0.00160589893260807
-94.521304530958,1,0.999624765271977,1.6830277493405,0.00161251928119989
-94.3761019981888,1,0.99962486071449,1.68302513984113,0.00161962757302442
-94.2308994654196,1,0.999625104337824,1.6830225524886,0.00162673686783009
-94.1057713814574,1,0.999625324035452,1.68302034568212,0.00163286386118389
-94,1,0.999625426845932,1.68301849991365,0.00163804333777398
-93.951694047452,1,0.999625433044311,1.68301766356983,0.0016404095461732
-93.903388094904,1,0.999625410764245,1.6830168311354,0.0016427786948268
-93.832297090116,1,0.999625329696355,1.68301561146065,0.00164627238819387
-93.7455934416318,1,0.999625173633512,1.68301412901633,0.00165054436866345
-93.6145114190986,1,0.999624907318278,1.68301188986138,0.00165702191863705
-93.469896950919,1,0.999624720205229,1.68300941272682,0.00166418811193959
-93.3381086428634,1,0.999624720758391,1.68300714405846,0.00167073169995383
-93.2144987650967,1,0.999624835588096,1.6830050054554,0.00167687725737257
-93.0834391166513,1,0.999624977368567,1.68300272790192,0.0016833993633535
-92.9403584399332,1,0.999625038776667,1.68300023297939,0.00169052489790385
-92.797277763215,1,0.99962496352661,1.68299773417642,0.00169765427671442
-92.6724664258,1,0.999624843761111,1.68299555586935,0.00170387556276619
-92.5390986419323,1,0.999624766348422,1.68299323464957,0.00171052498908472
-92.3957910384337,1,0.999624833628404,1.68299075363199,0.00171767134610078
-92.2524834349351,1,0.999625051043952,1.68298829251555,0.00172481869156241
-92.1263789936761,1,0.999625271591787,1.68298614820417,0.00173110862281295
-92,1,0.999625401120055,1.68298402350264,0.00173741263891553
-91.9546141348886,1,0.999625407740474,1.68298326709993,0.00173967717996985
-91.9092282697773,1,0.999625390194273,1.68298251405457,0.00174194414603818
-91.8382214435814,1,0.999625317023446,1.68298134112255,0.00174549742604328
-91.753388824481,1,0.999625174262,1.68297994484543,0.00174975291934835
-91.6271643694517,1,0.999624926992615,1.68297786973684,0.00175610218877106
-91.4791482205173,1,0.999624731577854,1.68297543029236,0.00176356762976144
-91.3454318768371,1,0.999624723392127,1.68297321556217,0.00177032509202492
-91.2206284050731,1,0.999624831972505,1.68297113789828,0.00177664021031436
-91.089456811935,1,0.999624970548331,1.6829689443805,0.00178328363166484
-90.9128029629856,1,0.999625030449643,1.68296597923008,0.00179223746908765
-90.76749803321,1,0.999624935768691,1.68296353676492,0.00179960642831198
-90.6419265828664,1,0.999624821464936,1.68296142842251,0.00180597665649231
-90.5020976103673,1,0.99962477209358,1.6829590886233,0.00181307173796316
-90.3647264782618,1,0.99962487167489,1.68295680346923,0.00182004325884511
-90.2273553461563,1,0.999625089030677,1.68295453711783,0.0018270155885613
-90.0999670684818,1,0.999625293945755,1.68295245678925,0.00183348175093369
-90,1,0.999625381936793,1.68295084127659,0.00183855628336577
-89.9506023384734,1,0.999625387866873,1.68295004907922,0.00184106452778841
-89.9012046769469,1,0.999625366309403,1.68294926065318,0.00184357565498168
-89.8287837044669,1,0.999625288663526,1.68294810988648,0.00184726399114762
-89.7399499951059,1,0.999625139624222,1.68294670307848,0.0018517988557771
-89.6034529156076,1,0.999624887297313,1.68294454303092,0.00185878558649968
-89.4574334093325,1,0.999624728738792,1.68294222523519,0.00186627841322125
-89.323542803993,1,0.999624746711124,1.6829400890291,0.00187316086373761
-89.1974908600336,1,0.999624864258943,1.68293806763034,0.00187964785053968
-89.0619427715541,1,0.999624994619509,1.68293588435313,0.0018866293519974
-88.918304921016,1,0.999625032063525,1.6829335633483,0.00189403222176174
-88.774667070478,1,0.999624945615332,1.68293123953188,0.00190143849321407
-88.6480832478826,1,0.999624833409236,1.68292919374979,0.00190796741783818
-88.5087468044335,1,0.999624779899122,1.68292694923369,0.00191515563111939
-88.366239252083,1,0.999624874406392,1.68292466716407,0.00192250862413285
-88.2237316997324,1,0.999625091456158,1.68292240450826,0.00192986245925734
-88.0954776544906,1,0.999625288246512,1.68292038936572,0.00193648127857138
-88,1,0.999625367580039,1.68291890464938,0.00194140883380205
-87.9499907375042,1,0.999625373337876,1.68291813277341,0.00194399049966829
-87.8999814750083,1,0.999625352005086,1.68291736460895,0.00194657502760101
-87.8268720700462,1,0.99962527580154,1.68291624661359,0.00195036010196563
-87.7368967784752,1,0.999625129830995,1.68291487529721,0.00195502883484953
-87.5973858610772,1,0.999624883886319,1.68291275032995,0.00196228651843516
-87.4505937210395,1,0.999624739033544,1.68291050727034,0.00196994108503486
-87.3155413338603,1,0.999624765370904,1.68290843280271,0.0019769950169416
-87.1881391244281,1,0.99962488392544,1.68290646580868,0.00198365656950292
-87.0499723682179,1,0.999625008026512,1.68290432323953,0.00199088663240365
-86.9024373191125,1,0.999625032376138,1.68290202826591,0.00199861153864533
-86.7549022700071,1,0.99962493585523,1.68289973104298,0.0020063397688973
-86.6272684704482,1,0.999624829913466,1.6828977464275,0.00201302740807253
-86.4823365538435,1,0.999624797501978,1.68289550125889,0.00202062291003335
-86.3473539415125,1,0.999624905698034,1.682893423274,0.00202769801163048
-86.2123713291816,1,0.999625110094161,1.68289136270383,0.0020347738065899
-86.082429670979,1,0.999625295903898,1.68288939976598,0.00204158582370295
-86,1,0.999625357605239,1.6828881668594,0.00204590726669981
-85.9490332700989,1,0.999625363138466,1.68288740977141,0.00204857995383032
-85.8980665401978,1,0.999625341623559,1.68288665637998,0.00205125552893351
-85.8241845815703,1,0.99962526631235,1.68288556912597,0.00205514070229079
-85.7327386280411,1,0.999625122519764,1.68288422781984,0.00205995983539616
-85.5891129965758,1,0.999624881879193,1.6828821221469,0.00206754746526765
-85.4416326790601,1,0.999624752661644,1.68287995255194,0.00207535623474112
-85.3052799381838,1,0.999624788810934,1.68287793596171,0.00208258686990509
-85.1763075371917,1,0.999624908581495,1.68287601869464,0.00208943304767145
-85.0347519286223,1,0.999625025060562,1.68287390518717,0.00209695268825541
-84.8964279903199,1,0.999625038201058,1.68287183392906,0.00210430462677841
-84.7581040520174,1,0.99962494955632,1.68286976095702,0.00211165933342013
-84.6292304106423,1,0.999624845596702,1.6828678321956,0.00211851334171252
-84.4841677956575,1,0.999624811994486,1.68286566921049,0.00212622979729779
-84.3477192587539,1,0.999624915749115,1.68286364739341,0.00213348903479975
-84.2112707218504,1,0.999625114499671,1.68286164269073,0.00214074895538874
-84.0803880429477,1,0.999625293926115,1.68285974001932,0.00214771319560843
-84,1,0.999625351420726,1.68285858290076,0.00215199079265203
-83.948631952659,1,0.999625356872762,1.68285784850951,0.00215472488340693
-83.8972639053179,1,0.999625335903832,1.68285711772666,0.00215746180950065
-83.8227266261398,1,0.999625262411786,1.6828560620712,0.00216143970670842
-83.730298496054,1,0.999625122219018,1.68285475730542,0.00216638253470693
-83.58397466548,1,0.999624888537361,1.68285269250151,0.00217422604495955
-83.4354745273672,1,0.999624770536862,1.68285058950949,0.0021822032113447
-83.2976884451628,1,0.999624812931432,1.68284862767904,0.00218961551405253
-83.1671380242556,1,0.999624932314273,1.68284675923748,0.00219664525781336
-83.0224494325811,1,0.999625041664838,1.68284467945444,0.00220444169153526
-82.8860616686002,1,0.999625045103542,1.68284271355442,0.00221179452775776
-82.7496739046194,1,0.999624956218992,1.68284074636636,0.00221914988865203
-82.6194809148544,1,0.999624856786474,1.68283887132771,0.00222617284958919
-82.4711695941451,1,0.999624833700185,1.68283674380594,0.00223417458065073
-82.3356352688337,1,0.999624943692953,1.68283481223763,0.00224148789998038
-82.2001009435224,1,0.999625137166607,1.68283289730784,0.00224880184897402
-82.0676374312023,1,0.999625305426808,1.68283104590082,0.00225595051977438
-82,1,0.999625348756708,1.68283010945746,0.00225960084014371
-81.9478894076865,1,0.999625354054289,1.6828293924431,0.00226241388949525
-81.8957788153731,1,0.999625333212038,1.6828286789924,0.00226522976692881
-81.8205021313358,1,0.999625260970833,1.68282765299171,0.0022693038589998
-81.7267614783184,1,0.999625123473716,1.68282637944933,0.00227438722837993
-81.576552026139,1,0.999624895632519,1.68282433922635,0.00228255125980048
-81.4271166097239,1,0.999624790789341,1.68282230187925,0.00229068970463715
-81.2876452540125,1,0.999624840872777,1.68282038989802,0.00229829577461946
-81.1551828835497,1,0.999624959986386,1.68281856454048,0.00230552606866082
-81.00617269307,1,0.999625060497222,1.68281650230258,0.00231366490418423
-80.8714582131035,1,0.999625052018393,1.68281463307156,0.00232102633360598
-80.7367437331371,1,0.999624961720929,1.68281276305328,0.00232839004924451
-80.6049115338662,1,0.999624868303783,1.68281093619307,0.00233559779873034
-80.4515434568062,1,0.999624861270316,1.68280882011779,0.00234398438504618
-80.3170416127672,1,0.999624981626075,1.68280697720449,0.00235134018253219
-80.1825397687283,1,0.999625170114127,1.68280515062325,0.00235869654995355
-80.047854172628,1,0.99962532309169,1.68280334187686,0.00236606337537067
-80,1,0.999625348946329,1.6828027048399,0.00236868090436153
-79.9470938248575,1,0.999625354052019,1.6828020042328,0.00237157545724778
-79.894187649715,1,0.999625333256384,1.68280130714997,0.00237447283598111
-79.8181514727964,1,0.999625262142477,1.68280030980848,0.00237864322044988
-79.7230271549334,1,0.999625127158348,1.68279906605595,0.00238387036967203
-79.5684910381796,1,0.999624904921824,1.68279704567733,0.00239238076273658
-79.4180686802398,1,0.999624813233924,1.68279507126908,0.00240068059823392
-79.2765671678232,1,0.999624870960879,1.68279320352717,0.00240849812403802
-79.1418363393087,1,0.999624989328498,1.68279141583855,0.00241594784110107
-78.9871764204245,1,0.999625079517567,1.682789354961,0.00242450475810334
-78.8536511905111,1,0.999625058207452,1.68278757145474,0.00243189552680023
-78.7201259605977,1,0.999624966358889,1.68278578769687,0.00243928836344931
-78.5862235111346,1,0.999624880911973,1.68278400251014,0.00244670357251402
-78.4252297509864,1,0.999624896171477,1.68278186658856,0.00245562041835984
-78.2607466719089,1,0.999625070837316,1.68277970297186,0.00246473159032194
-78.1269039267486,1,0.999625250370814,1.68277796120427,0.00247214605051974
-78,1,0.999625351403914,1.68277632892388,0.00247917643599493
-77.9525391149192,1,0.999625357027486,1.68277572385067,0.00248180626119146
-77.9050782298385,1,0.99962534256056,1.68277512156505,0.00248443816834128
-77.8297104205579,1,0.999625281136557,1.68277416947528,0.00248862332025167
-77.7389715085031,1,0.999625162110065,1.68277302724231,0.00249367096796889
-77.5987529372628,1,0.999624960490054,1.68277126338946,0.00250148672956167
-77.4446910313413,1,0.999624840969454,1.68276931897976,0.00251009025435485
-77.3028876222901,1,0.999624874982069,1.6827675194054,0.00251801960468725
-77.1689752121882,1,0.999624984254852,1.68276581089637,0.00252551408965525
-77.0217096839377,1,0.999625084223371,1.68276392364933,0.00253376092297831
-76.8821710692909,1,0.999625085646215,1.68276213039235,0.00254157847981402
-76.7426324546441,1,0.999625002014731,1.68276033604625,0.00254939837392354
-76.6093935125292,1,0.999624912780967,1.68275862552327,0.00255686677405628
-76.4558951576312,1,0.999624901862571,1.68275666332737,0.00256547208276263
-76.3188142247069,1,0.999625012868486,1.68275492313887,0.00257315784612017
-76.1817332917825,1,0.99962519054783,1.68275319861324,0.00258084416091796
-76.0451877705998,1,0.999625333177868,1.68275150024584,0.00258850084376043
-76,1,0.999625355444422,1.68275094309283,0.00259103477777753
-75.9463665446221,1,0.999625360216152,1.6827502851992,0.00259404297065803
-75.8927330892442,1,0.999625340359997,1.68274963065085,0.00259705387175821
-75.8153571826367,1,0.999625272475877,1.68274869060824,0.00260140368201879
-75.718249501734,1,0.999625144087215,1.68274751453966,0.00260687217896487
-75.5575947728559,1,0.999624934822389,1.68274556864021,0.002615937416546
-75.4047953318909,1,0.999624861962819,1.68274370997554,0.00262457452662786
-75.2588798241399,1,0.99962492933236,1.68274192476021,0.00263283188762062
-75.1192637307261,1,0.999625044017783,1.68274020754372,0.0026407387048662
-74.9508100128373,1,0.999625113888232,1.68273812689573,0.00265028397459284
-74.7894093574842,1,0.999625053896783,1.68273612935218,0.00265943327894667
-74.6569453691001,1,0.999624961698154,1.68273449125029,0.00266694408397099
-74.5150186457258,1,0.999624912644802,1.68273274175168,0.0026749927029965
-74.3630780573018,1,0.999624986085607,1.68273088018169,0.00268361022792854
-74.2111374688778,1,0.999625164655969,1.68272903560291,0.00269222848307192
-74.0758185356643,1,0.999625316810199,1.68272741129903,0.00269990436353773
-74,1,0.999625360892457,1.68272651017941,0.00270420525073153
-73.9468206958292,1,0.999625365578533,1.68272588232865,0.00270722253737617
-73.8936413916584,1,0.999625346969043,1.68272525764908,0.00271024237760918
-73.8157792305392,1,0.999625281668957,1.68272434717256,0.00271466971237132
-73.7184674458693,1,0.999625158109662,1.68272321286352,0.00272021211989666
-73.5578291173394,1,0.999624957000334,1.68272134020565,0.00272937881334001
-73.4036376024183,1,0.999624887138833,1.68271953498041,0.00273819237091244
-73.2562525643793,1,0.999624954209336,1.6827177993441,0.00274662604588552
-73.1148828306169,1,0.99962506595128,1.68271612563454,0.00275472133026507
-72.9420206681341,1,0.999625129811291,1.68271407041823,0.00276462524837685
-72.7816448115003,1,0.999625067010399,1.68271216002152,0.00277381728512417
-72.6490066307545,1,0.99962497828366,1.6827105815251,0.00278142124499407
-72.5053087400603,1,0.999624936068218,1.68270887717875,0.00278966046267444
-72.3471337357064,1,0.999625020954921,1.68270701322156,0.00279873078019904
-72.1889587313525,1,0.999625205591373,1.68270516756116,0.00280780183052198
-72.0522006631257,1,0.999625342176981,1.68270359083389,0.00281564506265396
-72,1,0.999625367350422,1.68270299441412,0.00281863890413626
-71.9458201117703,1,0.999625371790524,1.68270237879265,0.00282174689151278
-71.8916402235406,1,0.999625352965678,1.68270176632653,0.00282485745155732
-71.8129438020663,1,0.999625288318835,1.68270088075309,0.00282938132677658
-71.7139946116789,1,0.999625166501437,1.68269977072597,0.00283507846375324
-71.5475605775178,1,0.999624970071301,1.68269790308734,0.0028446788632096
-71.3921845996967,1,0.99962491327884,1.68269615158845,0.00285365572168735
-71.2407734097021,1,0.999624988507971,1.68269443456468,0.00286241246637771
-71.0947501854612,1,0.9996250981909,1.6826927696957,0.00287086333674881
-70.9411277666605,1,0.999625146481334,1.68269101138269,0.0028797581708198
-70.7875053478599,1,0.999625089701545,1.68268925011763,0.00288865594030903
-70.6534642314741,1,0.999625003074161,1.68268771468734,0.00289642122431363
-70.5089457691833,1,0.999624959486141,1.68268606473514,0.00290479468873996
-70.3542159965806,1,0.999625034824089,1.68268430932434,0.00291376076956219
-70.199486223978,1,0.99962520645433,1.68268257053064,0.00292272753715508
-70.0619196647565,1,0.999625343939031,1.68268104262903,0.00293070007375215
-70,1,0.999625374689012,1.68268036138787,0.0029342886581387
-69.9457143543598,1,0.999625378998414,1.68267976772271,0.00293743542448746
-69.8914287087196,1,0.999625360833536,1.68267917710503,0.00294058467940739
-69.8121038909985,1,0.999625297954271,1.6826783179919,0.00294519216225028
-69.7123907034196,1,0.999625179617086,1.68267724140681,0.00295099269161225
-69.5437221256614,1,0.999624989757178,1.68267541964902,0.00296082191113367
-69.3869522676511,1,0.999624939252498,1.68267371849114,0.00296997167611414
-69.232574840024,1,0.999625017273909,1.68267203310649,0.00297899059640105
-69.0827742978296,1,0.999625124195731,1.68267038876437,0.00298774780353686
-68.9316849519092,1,0.999625163184149,1.6826687240244,0.00299658422402382
-68.7805956059888,1,0.999625105009137,1.68266705679394,0.00300542331278834
-68.6461705850934,1,0.999625021622435,1.68266557493196,0.00301328905626322
-68.4996935038106,1,0.999624984061464,1.68266396583929,0.00302186117725362
-68.3374023077484,1,0.999625070615948,1.68266219499231,0.00303135975278157
-68.1751111116862,1,0.999625248206229,1.68266044232794,0.00304085902663567
-68.0359718667459,1,0.999625368476194,1.68265895837414,0.0030490035412143
-68,1,0.999625382719819,1.68265857796882,0.00305110919659367
-67.94481678643,1,0.999625386818997,1.6826579971674,0.00305434002032294
-67.88963357286,1,0.999625368590977,1.68265741938576,0.00305757333694737
-67.809483151286,1,0.999625306555318,1.68265658401245,0.00306227509911439
-67.7081950068066,1,0.999625190238471,1.68265553153168,0.00306822552523939
-67.5334822189407,1,0.999625005437023,1.68265371506418,0.00307850708116575
-67.3753049632094,1,0.999624966813258,1.68265206239189,0.00308782912040699
-67.2140648107871,1,0.999625053328165,1.6826503671758,0.0030973404423872
-67.055433697188,1,0.999625156687941,1.68264869010979,0.0031067036676693
-66.918447721063,1,0.999625178916353,1.68264723689835,0.00311479245058914
-66.781461744938,1,0.999625124821638,1.68264578200019,0.00312288326773529
-66.6464719153014,1,0.999625044066345,1.68264434976029,0.00313085760309829
-66.498694295726,1,0.999625007705244,1.6826427873417,0.00313958849722891
-66.332864654271,1,0.999625094908661,1.68264104607785,0.00314938690559782
-66.167035012816,1,0.999625270378764,1.68263932324429,0.00315918600833974
-66.0267239710653,1,0.999625382011013,1.6826378841315,0.00316747754712858
-66,1,0.999625391434038,1.68263761226174,0.00316905680165314
-65.9432518805155,1,0.99962539523866,1.68263703745594,0.00317241096392108
-65.8865037610311,1,0.999625376343333,1.68263646570393,0.0031757676939673
-65.8053561429583,1,0.999625314377229,1.68263565183851,0.00318057320830094
-65.7017675508381,1,0.999625198866484,1.6826346159414,0.00318671630066476
-65.5163468811084,1,0.999625017916022,1.68263276003563,0.00319773070462018
-65.3564784729403,1,0.999624996661612,1.68263115130168,0.00320724049034972
-65.1723391533917,1,0.999625104873576,1.68262928587895,0.00321820376493027
-65.047739700873,1,0.999625178135003,1.68262801712253,0.00322562621013908
-64.9231402483543,1,0.999625196868541,1.68262674488599,0.00323305086826893
-64.7855351808698,1,0.999625146415962,1.68262533828275,0.00324125238730649
-64.6486706318451,1,0.999625067461423,1.68262394060004,0.00324941117923606
-64.5001617140236,1,0.999625031182016,1.6826224293018,0.00325826523593897
-64.3373310199349,1,0.999625111379369,1.6826207834434,0.0032679740758732
-64.1745003258462,1,0.999625276510621,1.68261915454283,0.00327768356720297
-64.0333078913413,1,0.999625388673838,1.6826177598428,0.00328610313961726
-64,1,0.999625400657214,1.68261743360296,0.00328808938849459
-63.9440690663472,1,0.999625404428574,1.6826168883198,0.00329142530150327
-63.8881381326944,1,0.999625386965783,1.68261634590149,0.00329476360111325
-63.8065693573648,1,0.99962532765034,1.68261555846433,0.00329963744790937
-63.7031541306606,1,0.999625216969184,1.68261456310431,0.00330582498277956
-63.5206070959402,1,0.999625043828746,1.68261280466616,0.00331676451335083
-63.3593694414513,1,0.99962502026148,1.68261124327389,0.00332643991989685
-63.1807392055682,1,0.999625119705578,1.68260950195781,0.00333716810600443
-63.047975263801,1,0.999625195918872,1.6826082009761,0.00334514586558014
-62.9152113220338,1,0.999625213037532,1.68260689619623,0.00335312605973699
-62.7768454471725,1,0.999625160771088,1.6826055349035,0.00336144483425264
-62.6395080504963,1,0.999625085017982,1.68260418523368,0.0033697031130655
-62.4886895423673,1,0.999625055634725,1.6826027085703,0.00337877310656834
-62.3348596676235,1,0.999625133514123,1.68260121259537,0.00338802500453997
-62.1810297928797,1,0.99962528388681,1.68259973125803,0.0033972774578355
-62.0383901543509,1,0.999625396051042,1.68259837442731,0.00340585718919846
-62,1,0.99962540993913,1.68259801242867,0.00340816638752024
-61.943801824482,1,0.999625413573551,1.68259748511334,0.00341154732398476
-61.8876036489639,1,0.999625396581146,1.68259696057861,0.00341493058450654
-61.8053428631835,1,0.999625338708787,1.68259619630301,0.00341988807899443
-61.7009613698948,1,0.999625230944025,1.68259522937711,0.00342618683943366
-61.5149123964019,1,0.999625063716529,1.68259350432337,0.00343743091364605
-61.3520394445822,1,0.999625046427467,1.68259198591911,0.00344728688504359
-61.1584137214686,1,0.99962515480401,1.68259016827834,0.00345901346610358
-61.0446684463499,1,0.99962521498355,1.68258909511791,0.00346590562668127
-60.9309231712312,1,0.999625231976024,1.68258801929412,0.00347279945655658
-60.7931548887462,1,0.999625188299321,1.68258671477953,0.00348115094809197
-60.654163018902,1,0.999625113723441,1.6825853998066,0.00348957797414957
-60.5048395180604,1,0.999625076970609,1.68258399192262,0.00349863247231007
-60.3459100644621,1,0.999625144741785,1.6825825033012,0.00350827028421455
-60.1869806108638,1,0.999625292352084,1.68258102939747,0.00351790868321715
-60.0438709587788,1,0.999625403493308,1.68257971850568,0.00352658801992076
-60,1,0.999625419451888,1.68257932024171,0.00352924876101783
-59.9435489556092,1,0.999625422940354,1.6825788104417,0.00353267303325119
-59.8870979112184,1,0.999625406404204,1.6825783033392,0.00353609956689689
-59.8041425592041,1,0.999625349940467,1.68257756157023,0.00354113997673713
-59.6988014453821,1,0.999625245038102,1.68257662240222,0.00354754852326036
-59.5092183595193,1,0.999625083654697,1.68257493040366,0.00355909903582524
-59.344661450273,1,0.999625072271251,1.68257345350919,0.00356913706014356
-59.1794407027383,1,0.999625161211565,1.68257196109443,0.00357922298357562
-59.0142199552036,1,0.999625241489931,1.68257046064815,0.00358931381956218
-58.8726086976016,1,0.999625237941578,1.68256917079361,0.00359796535890951
-58.7457065738384,1,0.999625182167135,1.68256801431999,0.00360571969282814
-58.6106884002818,1,0.999625116707797,1.68256678585567,0.00361397101233288
-58.4528528343381,1,0.99962510827523,1.68256535603913,0.00362361774274629
-58.3045955291989,1,0.999625197397551,1.68256402292856,0.00363267972881778
-58.1563382240597,1,0.999625334455183,1.68256270314022,0.00364174215747913
-58,1,0.999625428994422,1.68256132965078,0.00365129887217584
-57.9450408551571,1,0.999625432546871,1.68256085191731,0.00365465897479841
-57.8900817103143,1,0.99962541781261,1.68256037665991,0.00365802111748088
-57.8068661315781,1,0.999625364465247,1.68255966038636,0.00366311672115117
-57.7024100571824,1,0.999625264964984,1.68255876402396,0.0036695205826531
-57.5195503305058,1,0.999625111160808,1.68255719354265,0.00368074670413493
-57.3537030704053,1,0.999625092543456,1.68255576147083,0.00369094031572201
-57.164887781556,1,0.999625189734478,1.68255411979857,0.00370255441542267
-57.0460649950785,1,0.999625248959257,1.68255308142789,0.0037098665453266
-56.927242208601,1,0.999625264932692,1.68255204035468,0.00371718038044651
-56.7870384122047,1,0.999625221870972,1.68255081056915,0.00372581189586749
-56.6460832700901,1,0.999625152025155,1.68254957539639,0.0037344909474426
-56.4937703435495,1,0.999625122234804,1.68254824555099,0.00374387034019771
-56.3250075651974,1,0.999625199504199,1.68254678255092,0.00375426354373386
-56.1562447868453,1,0.999625347724397,1.68254533555148,0.00376465733037505
-56,1,0.999625438611781,1.68254401442723,0.00377428050136934
-55.9447439996851,1,0.999625441998931,1.68254355215454,0.00377768425957416
-55.8894879993701,1,0.999625427602613,1.68254309228798,0.0037810900070821
-55.8055584527688,1,0.999625375475828,1.68254239702711,0.00378626782823879
-55.7000972522757,1,0.999625278519274,1.68254152604158,0.00379278144548985
-55.5138053381059,1,0.99962513006049,1.68253998601916,0.00380430283000947
-55.3462590202961,1,0.999625117107635,1.68253859324804,0.00381467649194443
-55.1374999861471,1,0.999625224188445,1.68253684522329,0.00382761139971954
-55.0326622165806,1,0.999625269911198,1.68253596300279,0.00383411008176758
-54.9278244470142,1,0.999625281057055,1.68253507885582,0.00384060994097461
-54.7931994173619,1,0.99962524220289,1.68253394234645,0.0038489579553684
-54.6521728328002,1,0.999625174632188,1.68253275284571,0.00385770414639743
-54.5000758090916,1,0.999625142850404,1.68253147448848,0.00386713788624479
-54.3380205466067,1,0.999625208429958,1.68253012167477,0.00387719004966075
-54.1759652841219,1,0.999625344122031,1.68252878271627,0.00388724274707825
-54.0291462164849,1,0.999625439739737,1.6825275851371,0.00389635061594056
-54,1,0.999625448135774,1.68252734942125,0.00389815871752124
-53.9414163013667,1,0.99962545104921,1.68252687779401,0.00390179353456951
-53.8828326027333,1,0.999625434760073,1.68252640873396,0.00390543055670771
-53.7974064114871,1,0.999625380993282,1.6825257279033,0.00391073884952101
-53.6876196331928,1,0.999625282282985,1.68252485535333,0.00391756845174412
-53.4751509698118,1,0.999625136961263,1.68252316379575,0.00393080350487902
-53.3039073085234,1,0.999625153743312,1.68252179157665,0.00394148208654437
-53.1583544593006,1,0.999625230724584,1.68252061808772,0.00395056381256083
-53.0265488019294,1,0.999625287675701,1.68251955077421,0.00395879058161192
-52.8859781344433,1,0.999625290553389,1.68251840944302,0.00396756648127757
-52.7441267342526,1,0.999625236751233,1.68251725694135,0.00397642387050992
-52.6016485931712,1,0.999625176181436,1.68251610134627,0.00398532148332303
-52.4383768854499,1,0.999625175523956,1.68251478333406,0.00399551855871522
-52.2884054108726,1,0.999625263390381,1.68251358217157,0.00400488556999844
-52.1384339362954,1,0.999625386902826,1.68251239351432,0.00401425296928609
-52,1,0.999625457505541,1.68251131014174,0.00402289995884858
-51.9459180280292,1,0.999625460777507,1.682510891004,0.00402627852999582
-51.8918360560585,1,0.9996254482444,1.68251047401149,0.00402965885082794
-51.8069161301612,1,0.999625400066789,1.68250982231329,0.00403497110711122
-51.7013042059928,1,0.99962531032948,1.68250901433349,0.00404158475374707
-51.517658912136,1,0.999625173454091,1.68250760812773,0.00405309904151874
-51.3469337328082,1,0.999625159736413,1.682506293603,0.00406381428921881
-51.1429459680864,1,0.99962525667413,1.68250471154051,0.00407662589706037
-51.0343957866188,1,0.99962530152463,1.68250386545124,0.00408344618519489
-50.9258456051511,1,0.99962531229037,1.68250301743662,0.00409026766126457
-50.7884827939394,1,0.999625274509865,1.68250194323764,0.00409890109751608
-50.6452395982744,1,0.999625211074808,1.68250082414393,0.00410790528030774
-50.4903242461433,1,0.999625184936728,1.6824996183556,0.00411764409436237
-50.3221644677034,1,0.99962525535644,1.6824983188977,0.00412821626491626
-50.1540046892636,1,0.999625387309087,1.68249703367683,0.00413878894808936
-50,1,0.999625466784698,1.68249587283034,0.00414847195928136
-49.9439539653822,1,0.999625469780832,1.68249545481248,0.00415199632332787
-49.8879079307645,1,0.999625456467581,1.68249503899421,0.00415552252341596
-49.8018270448894,1,0.999625407964538,1.6824944033237,0.00416094284169913
-49.6934100431661,1,0.999625318422442,1.68249360507782,0.00416777658105161
-49.4971417205851,1,0.999625185610938,1.68249215812559,0.00418016256215151
-49.3240068634658,1,0.999625187368638,1.68249087399822,0.00419109942288738
-49.1808682607958,1,0.999625254333272,1.68248980580241,0.00420014641060669
-49.0377296581258,1,0.999625316054605,1.68248873258776,0.00420919643204866
-48.8796047885783,1,0.999625320402736,1.68248754336034,0.00421919640801527
-48.7342193495125,1,0.999625267479697,1.68248644919538,0.00422839229434827
-48.5920321017743,1,0.999625213147639,1.68248538113359,0.00423738688598652
-48.4265396728615,1,0.999625218556175,1.68248414415317,0.00424785658628908
-48.2739798010395,1,0.999625306737452,1.68248301318241,0.00425750867734258
-48.1214199292175,1,0.999625421866451,1.68248189449923,0.00426716112727357
-48,1,0.999625475882848,1.68248101498832,0.00427484353529321
-47.9471623028778,1,0.999625479085103,1.68248063563629,0.0042781870406408
-47.8943246057557,1,0.999625468313527,1.68248025819074,0.00428153207764209
-47.8084197875153,1,0.999625424006071,1.68247964743319,0.00428697468014588
-47.7027175383747,1,0.999625341219366,1.68247889831906,0.00429367810315898
-47.5215524582547,1,0.999625215101199,1.68247761337786,0.00430518000528403
-47.347455605755,1,0.999625200650087,1.6824763717491,0.00431624365290405
-47.1447486611368,1,0.999625289688749,1.68247491550193,0.00432913353452362
-47.0348256302172,1,0.9996253319987,1.68247412185846,0.00433612595465191
-46.9249025992975,1,0.999625342037425,1.68247332638321,0.00434311950482333
-46.7859410964159,1,0.999625306159981,1.68247231974344,0.0043519618024116
-46.6406877801224,1,0.999625246813156,1.68247126861292,0.00436120554958637
-46.4833308514497,1,0.999625224903068,1.68247013428858,0.00437122043095975
-46.3053387427745,1,0.999625300380325,1.68246886105348,0.00438254936191805
-46.1273466340993,1,0.999625429398679,1.68246760305397,0.00439387880382956
-46,1,0.999625485087045,1.68246671498781,0.00440198480164834
-45.9485436719764,1,0.999625488231836,1.68246635939611,0.00440526050474745
-45.8970873439528,1,0.999625478619107,1.68246600555403,0.00440853758913307
-45.8108835743668,1,0.999625436675716,1.68246541559188,0.00441403160462066
-45.7059182511658,1,0.999625357993715,1.68246469959188,0.00442072760568132
-45.528858729719,1,0.999625237229163,1.68246349104618,0.0044320346121029
-45.3530818269095,1,0.999625218892788,1.68246228478839,0.00444326997126357
-45.1593999708557,1,0.999625298895745,1.6824609461052,0.00445565727133815
-45.0417813413115,1,0.999625344599865,1.68246012900798,0.00446318243154947
-44.9241627117673,1,0.999625355895332,1.68245930983993,0.0044707088901009
-44.7815900568231,1,0.999625319687096,1.68245831581576,0.00447983346877343
-44.6350150074667,1,0.999625262354466,1.68245729502687,0.00448921527005787
-44.4758554619116,1,0.999625244164098,1.68245619104329,0.00449940341277984
-44.3107250546105,1,0.999625312469352,1.6824550542024,0.00450997439467538
-44.1455946473094,1,0.999625428504577,1.68245392986414,0.00452054580463951
-44,1,0.999625493805792,1.6824529518218,0.00452986680220845
-43.9438550723507,1,0.999625496500521,1.68245257848566,0.00453346164074761
-43.8877101447015,1,0.999625484610485,1.68245220711685,0.00453705812349926
-43.7996039334862,1,0.999625440064442,1.68245162708818,0.00454270606619847
-43.6889165484157,1,0.999625358270569,1.6824509005425,0.00454980800171317
-43.4868380784174,1,0.999625240427497,1.68244957208995,0.0045627875414198
-43.307831420965,1,0.999625250124984,1.68244838779265,0.00457429516270798
-43.1750663150101,1,0.999625307395385,1.68244750411337,0.00458283407758035
-43.0423012090552,1,0.999625358515275,1.68244661661675,0.00459137526684515
-42.8819252606217,1,0.999625363975195,1.68244554132798,0.00460169488923272
-42.7298988401572,1,0.999625314692633,1.68244452128791,0.00461147875468144
-42.5834989107659,1,0.999625266287065,1.68244354100047,0.00462090146275465
-42.4134267810537,1,0.99962527725505,1.68244240818823,0.0046318485656159
-42.2573327021236,1,0.999625362970261,1.68244137748956,0.00464189644110365
-42.1012386231934,1,0.999625465467068,1.68244035857853,0.00465194463815995
-42,1,0.99962550225654,1.68243970542108,0.00465846176331768
-41.9425263775691,1,0.999625504717481,1.68243933762264,0.00466216199222806
-41.8850527551383,1,0.999625492486945,1.68243897179732,0.00466586389555274
-41.7959129184336,1,0.999625448151216,1.68243840708332,0.00467160950341437
-41.6830013356614,1,0.99962536734417,1.68243769379734,0.0046788937353963
-41.4696691412552,1,0.999625254396618,1.68243634359183,0.00469267064947812
-41.3240452125188,1,0.999625262843359,1.68243541632182,0.00470208234517401
-41.1784212837824,1,0.999625321414344,1.68243448377251,0.00471149790164803
-40.9737787171721,1,0.99962538295031,1.68243316613096,0.004724733713933
-40.8508154180034,1,0.999625370548077,1.68243237218311,0.00473268838941399
-40.7278521188347,1,0.999625328942639,1.68243157815526,0.0047406438857321
-40.5819229857703,1,0.999625282772822,1.68243063773306,0.00475008601231071
-40.4084112786204,1,0.999625295388092,1.68242952555159,0.00476131360184319
-40.2517195486403,1,0.999625380027012,1.682428530077,0.0047714532926495
-40.0950278186602,1,0.999625478157988,1.68242754613775,0.00478159329103595
-40,1,0.999625510443609,1.6824269562368,0.00478774293677314
-39.9417208230554,1,0.999625512730286,1.68242659729346,0.00479151485016176
-39.8834416461108,1,0.999625500476558,1.68242624029601,0.00479528842997103
-39.7934000773346,1,0.99962545674322,1.68242569132855,0.00480112262639845
-39.6788253267241,1,0.999625377468654,1.68242499471653,0.00480855272297069
-39.4570468069524,1,0.999625269582207,1.68242364340187,0.00482294941434111
-39.3220370451662,1,0.999625280488102,1.68242281574357,0.00483171998006708
-39.18702728338,1,0.999625332650501,1.68242198370486,0.00484049370495877
-38.9335236857473,1,0.99962539606361,1.68242041223702,0.00485697336987773
-38.8281150465007,1,0.999625377545102,1.68241975704923,0.0048638272626942
-38.722706407254,1,0.999625341233851,1.68241910197556,0.0048706816606439
-38.5781851464875,1,0.999625297826538,1.68241820566365,0.00488008009753302
-38.4032144030991,1,0.999625312670561,1.68241712642546,0.00489145945209238
-38.2062495938807,1,0.999625422545985,1.68241592414592,0.004904269841362
-38.0477616760218,1,0.99962550705228,1.68241497013013,0.00491457805116373
-38,1,0.999625518824872,1.68241468543893,0.00491768455838923
-37.9392095518467,1,0.999625520710313,1.68241432512202,0.00492163892518313
-37.8784191036934,1,0.999625507337491,1.68241396682104,0.00492559506465176
-37.7870131171674,1,0.999625462746908,1.68241343058771,0.00493154761409718
-37.6687569912314,1,0.999625382989935,1.68241273861641,0.00493925500432207
-37.4336121943923,1,0.999625283436096,1.68241135897494,0.00495459571057275
-37.3106851748961,1,0.999625299836696,1.68241063320308,0.00496262088858808
-37.1877581553999,1,0.99962534701227,1.68240990394977,0.00497064848831384
-36.9266473027822,1,0.999625408513807,1.68240834610661,0.00498770534716372
-36.823821325283,1,0.99962538961592,1.68240773099847,0.00499442379753683
-36.7209953477839,1,0.999625354862336,1.68240711603643,0.00500114271209076
