time,regd,power,heatflow,pressure
-180,1,1.00000001447924,1.6866653236463,0
-179.975,1,1.0000000086141,1.68666535752248,-2.884377806045e-08
-179.95,1,0.999999969124375,1.68666539058113,-1.86707919069828e-07
-179.926819835417,1,0.999999819804079,1.68666541967729,-5.14541589113904e-07
-179.900423460838,1,0.999999312513042,1.6866654496899,-1.14062440464968e-06
-179.87056827268,1,0.999997875354341,1.68666547766654,-2.19534919483622e-06
-179.835257673711,1,0.999994101748417,1.68666549941412,-3.92130620067987e-06
-179.787764424525,1,0.99998326615588,1.68666550288195,-7.0282404754235e-06
-179.737660974262,1,0.999961215935667,1.68666546588595,-1.12075605602086e-05
-179.694281985299,1,0.999930414152206,1.68666539345635,-1.55006950700726e-05
-179.650758648787,1,0.999886338899766,1.68666527787772,-2.03730096200866e-05
-179.606028922461,1,0.999825604010353,1.68666510983873,-2.59101517698784e-05
-179.55978766914,1,0.999745243751688,1.68666487950462,-3.21397720020045e-05
-179.511840601297,1,0.999642697725783,1.68666457607625,-3.90827566182778e-05
-179.461944563795,1,0.999515857251835,1.68666418699021,-4.67717262316314e-05
-179.409655668413,1,0.999362858985818,1.6866636958371,-5.52774206446643e-05
-179.354093331282,1,0.999181438247606,1.68666307756497,-6.47562259518258e-05
-179.293308307061,1,0.998966931737612,1.68666228491676,-7.55779759687714e-05
-179.227590436845,1,0.998725709907957,1.68666128929296,-8.77345914056249e-05
-179.165110081306,1,0.998498061165707,1.68666020823466,-9.96682158188184e-05
-179.104267957284,1,0.998288353740942,1.68665902958838,-0.000111589685457283
-179.045547129978,1,0.998106262092176,1.68665777490301,-0.000123337277098276
-178.989099679796,1,0.997957429692635,1.68665646144679,-0.000134823361747527
-178.933359207803,1,0.997841506563194,1.68665506259381,-0.000146326831669541
-178.877254503153,1,0.997760353995953,1.68665355409825,-0.000158046097564105
-178.819824807958,1,0.997717061324146,1.68665190758822,-0.00017016903434254
-178.759899827918,1,0.997715827741675,1.68665008160942,-0.000182937171009132
-178.698940734076,1,0.997759304324815,1.68664811395187,-0.00019603265037936
-178.641531179953,1,0.99783808043535,1.68664616214375,-0.000208450650309749
-178.585970752172,1,0.997944358809098,1.68664418472794,-0.000220536617792616
-178.53093242336,1,0.998072742941465,1.68664214272331,-0.00023256629374975
-178.475399242332,1,0.998218484634554,1.68664000115773,-0.000244754439305384
-178.418273237141,1,0.998377108264668,1.68663771596938,-0.000257338025875145
-178.357913679218,1,0.99854449914964,1.68663521421591,-0.0002706776413368
-178.290697741659,1,0.998718218943171,1.68663232719682,-0.000285577904609674
-178.22103978938,1,0.998870626096198,1.68662922812354,-0.000301062321418008
-178.151388680633,1,0.998982902043694,1.68662602587304,-0.000316581902393254
-178.09154861442,1,0.99904058123233,1.68662319634009,-0.000329940206372697
-178.035762145526,1,0.999059039263775,1.68662049656356,-0.000342411300876186
-178,1,0.999052542722339,1.68661873579562,-0.000350413856485293
-177.96994203649,1,0.999036154666659,1.68661723830737,-0.00035714707131948
-177.93988407298,1,0.999010091722532,1.68661572460219,-0.000363897476842651
-177.903875176605,1,0.998966736159367,1.68661388850852,-0.00037201613753779
-177.862295808927,1,0.998901425737255,1.68661173476527,-0.000381438533181733
-177.810879363733,1,0.998800740200396,1.68660901636116,-0.00039316059510737
-177.750905706043,1,0.998660826519532,1.68660576044235,-0.000406924756992763
-177.688171498392,1,0.998496737493128,1.68660224773591,-0.000421415467892497
-177.629090152025,1,0.998334374991831,1.68659883289204,-0.000435137772092101
-177.570225770722,1,0.998173757887981,1.68659532302088,-0.000448872388237764
-177.51063517153,1,0.998020818508049,1.68659165737244,-0.000462831490877405
-177.45290853921,1,0.997889371615296,1.68658799674969,-0.000476399569973959
-177.396508195835,1,0.997782833776357,1.68658431539441,-0.000489693427490223
-177.340091161003,1,0.997702522870336,1.68658052947284,-0.000503023395848332
-177.282537448994,1,0.997650944268773,1.68657656152212,-0.000516650706133756
-177.222546240683,1,0.997631653018514,1.68657231346536,-0.000530881916625356
-177.158005795901,1,0.997650149864317,1.68656761817468,-0.000546218517238045
-177.097364857633,1,0.997702442512155,1.68656309149206,-0.000560649704895888
-177.039860988318,1,0.997779659838308,1.68655869910677,-0.000574350644402116
-176.983646956357,1,0.997876602369285,1.68655431435735,-0.000587757530477323
-176.927529844322,1,0.997989233249648,1.68654985073251,-0.000601152655122172
-176.870469205741,1,0.998113924678174,1.6865452269449,-0.00061478309960307
-176.811179592598,1,0.998247357536484,1.68654033551426,-0.000628955339481319
-176.747435985319,1,0.998386884912743,1.68653498246315,-0.000644201382105386
-176.678926168083,1,0.998522596121116,1.68652912637082,-0.000660596405960223
-176.602568517961,1,0.99864509434627,1.68652248209212,-0.000678878737227037
-176.536671669841,1,0.998718678404982,1.68651665561945,-0.000694663011225061
-176.478103937377,1,0.998755117526274,1.68651141050652,-0.000708696064386574
-176.422061294608,1,0.998762835276694,1.6865063369194,-0.000722127372096745
-176.366773034764,1,0.998744280715172,1.68650128300017,-0.000735380607142289
-176.311212831037,1,0.998700544773603,1.68649615918733,-0.000748701402313048
-176.254416944366,1,0.99863219758514,1.68649087848857,-0.000762320595132052
-176.195142819266,1,0.998539223609443,1.68648532516054,-0.000776536046941889
-176.131218229989,1,0.998420093380439,1.68647929264126,-0.00079186876754668
-176.05656916251,1,0.998266266610529,1.68647219777922,-0.000809776016440666
-176,1,0.998146919016013,1.68646678996083,-0.000823347491057322
-175.979246483758,1,0.998103877814698,1.6864648000035,-0.000828337519928737
-175.958492967515,1,0.998061689980761,1.68646280699824,-0.00083338368499028
-175.933978946307,1,0.998013303964517,1.68646044885548,-0.000839464611801316
-175.907036993364,1,0.997962318372826,1.68645785187632,-0.000846334132644636
-175.876559620178,1,0.997907813136713,1.68645490693422,-0.000854363216005072
-175.84111022174,1,0.997849019080546,1.6864514711333,-0.00086405372018096
-175.796985072103,1,0.997782990240805,1.68644717736508,-0.000876627302587002
-175.736147695993,1,0.997704628418773,1.68644122336858,-0.000894820717820904
-175.685151208883,1,0.997649277898001,1.68643619989801,-0.00091075562995592
-175.63557770051,1,0.997603245479503,1.68643128671512,-0.000926772493765077
-175.584668731141,1,0.997562554731662,1.68642620971565,-0.000943698312738495
-175.532357501843,1,0.99752615283533,1.68642095931798,-0.000961534598051025
-175.478823682929,1,0.99749295497717,1.68641555110033,-0.000980197067205119
-175.424158612561,1,0.997461663474381,1.68640999250695,-0.000999627771850253
-175.368157386421,1,0.99743078140556,1.68640426124856,-0.00101987510635877
-175.310201326236,1,0.997398633965251,1.68639829222712,-0.00104114565490479
-175.249032343267,1,0.997363227593651,1.68639195283205,-0.00106389715495019
-175.181851968334,1,0.997321566461999,1.6863849468391,-0.00108919039563719
-175.097700162347,1,0.997264710739072,1.68637611245738,-0.0011212520434452
-175.028021452056,1,0.997214273518533,1.68636875384701,-0.00114806463707842
-174.967378380985,1,0.997169018883997,1.68636232154931,-0.00117156365497938
-174.909029867443,1,0.997125593190273,1.68635611152081,-0.00119429613240392
-174.85077531851,1,0.99708381676526,1.68634989405672,-0.00121709546400126
-174.791129581902,1,0.997044318729418,1.68634351342024,-0.00124053175504478
-174.728369259245,1,0.997008168120966,1.6863367873396,-0.00126527876836431
-174.660770576179,1,0.996977430776895,1.68632953324644,-0.00129201872429408
-174.580624813459,1,0.996954295392214,1.68632092676673,-0.00132381796492634
-174.508133497092,1,0.996947052495694,1.68631314328874,-0.00135265488572109
-174.446445445558,1,0.996951176083481,1.68630652526305,-0.00137724100516874
-174.388021611416,1,0.996963173509132,1.68630026562481,-0.00140055987107462
-174.330203289524,1,0.99698172342069,1.68629408178345,-0.00142366489762678
-174.271558514199,1,0.997005833641426,1.68628782365609,-0.00144712464208384
-174.210543724583,1,0.997034621995814,1.68628133088806,-0.00147155501653497
-174.144530673987,1,0.997067426048037,1.68627433096304,-0.00149800889123544
-174.06526355185,1,0.997105071505823,1.68626596509149,-0.00152979984326454
-174,1,0.997131531001538,1.68625911399829,-0.00155599215822327
-173.972529292478,1,0.997140856391623,1.68625624113735,-0.0015670266966397
-173.945058584955,1,0.997148906181195,1.68625337498416,-0.00157809100115024
-173.91203143373,1,0.997156709981757,1.68624993792778,-0.00159145325259047
-173.874717149108,1,0.997162788318704,1.68624606605454,-0.00160664099754576
-173.830815021011,1,0.997165789340079,1.68624152548378,-0.00162463701094422
-173.776616946129,1,0.997162636759247,1.68623594138674,-0.00164703370999837
-173.718589494677,1,0.997150198217964,1.68622998792078,-0.00167121292664398
-173.659127916365,1,0.997127442523793,1.68622391362507,-0.00169617829194302
-173.59429840842,1,0.99709148598702,1.68621732099236,-0.00172358525475179
-173.529394148748,1,0.997045106290231,1.68621075231859,-0.0017511918107932
-173.467131804542,1,0.996992766520745,1.68620448130887,-0.00177780932848923
-173.406768203945,1,0.996936932804008,1.68619843073744,-0.00180372282309355
-173.347167746055,1,0.99687929516901,1.68619248593429,-0.00182939808080969
-173.287178521695,1,0.996821277249744,1.68618653297615,-0.00185531800284673
-173.225510141893,1,0.996764254646428,1.68618044688371,-0.00188203285708941
-173.161919317093,1,0.996710896947006,1.68617420835279,-0.00190964367558712
-173.093751390125,1,0.996662576212898,1.68616756498781,-0.00193930247682464
-173.014200447768,1,0.996620899963567,1.68615987330908,-0.00197398040395537
-172.940882013853,1,0.996598601031613,1.68615284572118,-0.00200599425977617
-172.877562231703,1,0.99659251494346,1.6861468264563,-0.00203367631565456
-172.817534821817,1,0.996597939335846,1.68614116485539,-0.00205994372159457
-172.758197343457,1,0.9966134146175,1.68613561278234,-0.00208592951289971
-172.698118229003,1,0.996638268915249,1.68613003802304,-0.00211225779073135
-172.635805360359,1,0.996672220791609,1.68612430741374,-0.0021395811325388
-172.568857413141,1,0.996715624368732,1.68611821092727,-0.00216895256909871
-172.490695626604,1,0.996771452969542,1.68611117526449,-0.00220326104108358
-172.408963646875,1,0.996830376383007,1.6861039161504,-0.00223915312406296
-172.340603267322,1,0.996875746962461,1.68609792413022,-0.00226918386247495
-172.277746322926,1,0.996911238239026,1.68609248025686,-0.00229680414379917
-172.216625964526,1,0.996937791372776,1.68608724866096,-0.00232366698010378
-172.155311033645,1,0.996954841999016,1.68608206304547,-0.00235062011759737
-172.092260701494,1,0.996961149248106,1.68607679740755,-0.00237834039446599
-172.025401154723,1,0.996954792506771,1.68607128900672,-0.00240773945030115
-172,1,0.996948882075254,1.68606921689668,-0.00241890964306529
-171.965440482901,1,0.996937870304339,1.68606641612728,-0.00243411125274035
-171.930880965801,1,0.996923607237294,1.68606363667805,-0.00244932911262145
-171.888282604993,1,0.996901907912993,1.68606023997522,-0.00246811920621814
-171.839071408211,1,0.99687184874565,1.68605635598929,-0.00248987482688939
-171.780480258715,1,0.996830412116618,1.6860517872225,-0.0025158428979473
-171.719650881904,1,0.996782904590903,1.68604710734855,-0.00254287127371587
-171.65873854636,1,0.996733222109549,1.68604248549014,-0.00256999743644468
-171.595364029008,1,0.996682174124115,1.68603774498505,-0.00259827585265796
-171.526710326068,1,0.99663108232911,1.68603268793775,-0.00262896466108276
-171.444198158021,1,0.996580348611308,1.68602671793301,-0.00266591142892568
-171.3756539851,1,0.996550457621332,1.68602184827088,-0.0026966473260838
-171.307109812179,1,0.996533774333171,1.68601706028389,-0.00272741617994636
-171.244120964291,1,0.99653082178951,1.68601273261803,-0.00275571589055938
-171.182892333186,1,0.996539137083741,1.6860085924768,-0.00278324398881642
-171.12148978031,1,0.996557632422225,1.68600450674652,-0.00281086658215303
-171.058340262685,1,0.996585619809862,1.68600037415127,-0.00283928965201218
-170.991265584663,1,0.996622780671432,1.68599606202205,-0.00286949321359878
-170.915263369617,1,0.996670152665652,1.68599127259342,-0.0029037313073205
-170.825419691241,1,0.996726781931343,1.68598574384085,-0.00294422117605091
-170.75061032763,1,0.996769058611602,1.68598125051544,-0.00297794659378953
-170.68544957024,1,0.996798994124559,1.68597741856923,-0.00300732900432911
-170.622518369073,1,0.996819885129589,1.68597379020121,-0.00303571110190592
-170.559337249834,1,0.996831782756795,1.6859702191288,-0.00306421016281776
-170.494137625595,1,0.996834029583436,1.68596660933777,-0.00309362351610404
-170.424412425249,1,0.996825412193251,1.68596283369957,-0.00312508211016592
-170.343910220759,1,0.996802774989171,1.68595858331388,-0.00316140696949742
-170.268588208786,1,0.996771758789545,1.68595471190852,-0.00319539751730791
-170.200792632749,1,0.996738317200525,1.68595131435798,-0.00322599376340583
-170.135413400283,1,0.99670355435695,1.68594811577661,-0.00325550113206412
-170.069879204504,1,0.996668578791452,1.68594498610997,-0.00328507979403211
-170,1,0.996633631705263,1.68594173299967,-0.00331662082637266
-169.973809321226,1,0.99662164428745,1.68594053601075,-0.00332844936825802
-169.947618642453,1,0.99661043513791,1.68593935112414,-0.0033403115113658
-169.915891298654,1,0.996598004082579,1.68593793190441,-0.00335475267715993
-169.88009179277,1,0.996585550395959,1.68593635167273,-0.00337115800518262
-169.837783709463,1,0.996572927814695,1.6859345128713,-0.00339070347020445
-169.784605043341,1,0.99655991415785,1.68593224542388,-0.0034155040784339
-169.714075711932,1,0.996546317131223,1.6859293127529,-0.00344875871881306
-169.65020634106,1,0.996536007208636,1.68592672962241,-0.00347918300899107
-169.586159029585,1,0.996526006418778,1.68592420785517,-0.00350994401933538
-169.520109417086,1,0.996514691486632,1.68592167841513,-0.00354189192891445
-169.45101854365,1,0.996500673895311,1.68591910901882,-0.00357551833283334
-169.376918137902,1,0.996482437045756,1.68591643930925,-0.0036117809847965
-169.292552073459,1,0.996457480995612,1.68591350676893,-0.00365327400421082
-169.208559966904,1,0.996428889386284,1.68591069893785,-0.00369476176433019
-169.132791615567,1,0.99640106670307,1.68590826035571,-0.00373231215489893
-169.060083336298,1,0.996373871896582,1.68590600327442,-0.00376843760386435
-168.987070621809,1,0.996347434970828,1.68590381749354,-0.00380478937716859
-168.911699481134,1,0.996322470074571,1.68590164485746,-0.0038423810048077
-168.831268083118,1,0.996299906567181,1.68589941885725,-0.00388255724751145
-168.736461497982,1,0.996280418588192,1.6858969156683,-0.00392997949394266
-168.646992442153,1,0.996270245483687,1.68589467102405,-0.0039747840339165
-168.571214954984,1,0.996268210616613,1.68589285760085,-0.00401276392430491
-168.499042089183,1,0.996271727551571,1.68589120396509,-0.00404895943589104
-168.42653399726,1,0.996280121394144,1.6858896136999,-0.00408534127004419
-168.351048325789,1,0.996293168814364,1.68588803251597,-0.00412323327867041
-168.268292610158,1,0.996311090457115,1.68588638465579,-0.00416479028972752
-168.16050893026,1,0.99633695723831,1.68588436977362,-0.0042189351109445
-168.072516403923,1,0.996357158419568,1.68588283244521,-0.0042631509730032
-168,1,0.996371232626269,1.68588163648694,-0.00429959720076403
-167.960598569066,1,0.996377406149549,1.68588101307404,-0.00431940502096229
-167.921197138131,1,0.99638231172697,1.6858804079642,-0.00433922662181835
-167.87030479585,1,0.996386509822328,1.68587965304405,-0.00436485686116772
-167.806807631755,1,0.996387946969136,1.68587875246336,-0.00439688098444213
-167.709493786434,1,0.996381164816501,1.68587745885541,-0.00444604953550445
-167.625357910814,1,0.996366469061393,1.68587642227502,-0.00448863278309636
-167.547096667399,1,0.996346300207745,1.68587552399715,-0.00452829189129583
-167.472818218651,1,0.996322794457839,1.6858747284809,-0.00456596872630771
-167.399067935151,1,0.996297075617371,1.68587399205273,-0.00460340640327948
-167.323207460081,1,0.996270336162997,1.68587328856735,-0.00464194007506774
-167.241511485162,1,0.996243876415037,1.68587259047378,-0.00468346112183934
-167.147594040159,1,0.996219845548174,1.68587186181406,-0.00473121772407191
-167.06734899478,1,0.996207007959144,1.6858712998131,-0.00477203849384963
-166.9871039494,1,0.996202487024034,1.68587079183064,-0.0048128715723507
-166.912426837844,1,0.996205939515897,1.68587036614667,-0.00485088046827679
-166.838721913086,1,0.996216031199742,1.68586998914705,-0.00488840164235767
-166.763112350292,1,0.996232065340672,1.68586964560821,-0.00492689849600869
-166.682127920936,1,0.996253623961395,1.68586932465924,-0.00496813761917166
-166.586624176724,1,0.9962814229786,1.68586900647103,-0.00501677638917622
-166.488881868428,1,0.996308193012706,1.68586874577987,-0.00506656065524755
-166.405960841254,1,0.996326463912203,1.68586857407368,-0.00510879923633983
-166.32942843746,1,0.996337919276707,1.68586845433976,-0.00514778580381492
-166.25311791054,1,0.996343237126667,1.68586837064941,-0.005186661106135
-166.173761391601,1,0.996342019074563,1.68586832005378,-0.00522708968314543
-166.086583179792,1,0.996333243123151,1.68586830562917,-0.00527150453772054
-166,1,0.996318162137818,1.68586833218403,-0.00531561747995317
-165.964954860002,1,0.996310697944588,1.6858683541029,-0.00533347595563288
-165.929909720004,1,0.996302669706964,1.68586838224433,-0.0053513495488951
-165.885040060272,1,0.996291791177746,1.68586842704169,-0.00537426624005342
-165.831276412137,1,0.996278206363881,1.68586849309662,-0.00540177766344314
-165.758235990933,1,0.99625943398158,1.68586860315721,-0.0054392400241229
-165.680513264824,1,0.996239894537444,1.6858687441584,-0.00547920016460587
-165.605820802023,1,0.996222341184837,1.68586890108912,-0.00551768077570625
-165.52099307008,1,0.996204761643123,1.68586910278535,-0.00556145974250639
-165.406271291514,1,0.996186473678156,1.68586941178841,-0.00562077047344445
-165.31353016417,1,0.996177309140678,1.6858696892457,-0.0056687856287624
-165.233121609875,1,0.996173823006323,1.68586994803167,-0.00571045464043644
-165.153537364135,1,0.996174450569221,1.68587021952365,-0.00575172523931952
-165.070546080868,1,0.996179093454904,1.68587051768114,-0.00579478754067705
-164.978283567027,1,0.996188191420613,1.68587086573276,-0.00584268460832378
-164.867965643809,1,0.996202559404706,1.68587130274257,-0.00589998127079169
-164.779475090888,1,0.996214879328077,1.68587166813781,-0.00594595754422386
-164.697843244249,1,0.996225262939732,1.68587201582246,-0.00598838044437416
-164.615570993947,1,0.996233444072937,1.68587237561823,-0.00603114413370985
-164.530425266894,1,0.996238365211874,1.68587275698752,-0.00607540826270939
-164.436593829802,1,0.996238734798523,1.68587318679693,-0.0061241942730851
-164.331832360152,1,0.996232660804561,1.68587367711102,-0.00617866952570065
-164.245854063794,1,0.996223198962109,1.68587408670487,-0.00622338161137068
-164.165663726279,1,0.996211793966521,1.68587447380166,-0.00626508629296241
-164.084747323007,1,0.996199063743648,1.68587486871525,-0.00630717061958033
-164,1,0.996185984871786,1.68587528629639,-0.00635124918322426
-163.968583022293,1,0.9961815281406,1.68587544199277,-0.00636759361212633
-163.937166044586,1,0.996177400971434,1.68587559808251,-0.00638395523971046
-163.896713305727,1,0.996172651068948,1.6858757994663,-0.00640506100159619
-163.849798225612,1,0.996167985775847,1.68587603325249,-0.00642959920814394
-163.789366421003,1,0.996163241187651,1.68587633409707,-0.0064613018846498
-163.706163846633,1,0.996158524660014,1.68587674630381,-0.00650510685118079
-163.63615499394,1,0.996155456278824,1.68587709008903,-0.00654208546837168
-163.565493821536,1,0.996152420180294,1.68587743321386,-0.00657950133155467
-163.490928812954,1,0.99614853701487,1.68587779019623,-0.00661906885892904
-163.410165219352,1,0.996142837078086,1.68587817005794,-0.00666200682730149
-163.316935016255,1,0.996133756231054,1.68587859874862,-0.00671165809668578
-163.220416226535,1,0.996121507777383,1.68587903050887,-0.00676313779991142
-163.137900585048,1,0.996109282494094,1.68587938929414,-0.00680719822716172
-163.059458418717,1,0.996096982994538,1.68587972116064,-0.0068491176761498
-162.979918114157,1,0.996084824664511,1.68588004824963,-0.00689165175143185
-162.895112550231,1,0.996073391041231,1.68588038632601,-0.00693702659388834
-162.797636758223,1,0.996063670322351,1.68588076111747,-0.00698920641129253
-162.712084707677,1,0.996059115155332,1.6858810777977,-0.00703502153167139
-162.62653265713,1,0.996058671424292,1.68588138296718,-0.00708085025212814
-162.547343386866,1,0.996061776097685,1.68588165518266,-0.00712328037967683
-162.468719683762,1,0.99606766361799,1.68588191572675,-0.00716541510817836
-162.386923414734,1,0.996075860931291,1.68588217655143,-0.00720925664028868
-162.296276516839,1,0.996086038639267,1.68588245350208,-0.00725784836713782
-162.198336832693,1,0.996096501799614,1.68588273859009,-0.00731035546522373
-162.100397148548,1,0.996104640457767,1.68588300917963,-0.00736286750319556
-162.018034703432,1,0.99610873505721,1.68588322567222,-0.00740703056809516
-162,1,0.996109248339231,1.68588327174385,-0.0074167011588694
-161.941780931691,1,0.996109934967097,1.68588341720104,-0.00744792027466412
-161.883561863383,1,0.996109166860193,1.68588355741586,-0.00747914091197939
-161.805972026258,1,0.996106069878043,1.68588373526175,-0.00752075171415539
-161.706726291494,1,0.996099326194055,1.68588394600873,-0.0075739798285273
-161.606724535697,1,0.996090563836759,1.68588413756986,-0.00762761656130172
-161.521169750161,1,0.996082579372178,1.68588428387709,-0.00767350652811623
-161.438892323786,1,0.996075315908233,1.68588440877518,-0.00771763995963362
-161.356063571348,1,0.996069066805141,1.68588451860668,-0.00776207022883557
-161.267994796283,1,0.996064127882876,1.68588461779606,-0.00780931229218686
-161.164089168265,1,0.996061019797833,1.6858847116136,-0.00786505063999263
-161.060167204951,1,0.996061024052315,1.6858847806623,-0.00792079863285212
-160.973864623471,1,0.996063277339553,1.68588481955872,-0.0079670953928206
-160.891497625187,1,0.9960670804865,1.68588484145843,-0.00801128127425618
-160.80724597772,1,0.996072282990825,1.68588484889273,-0.0080564784672099
-160.716078546259,1,0.99607887352682,1.68588484041416,-0.00810538593079711
-160.601513436729,1,0.996087512374418,1.68588480634149,-0.00816684556519445
-160.497053903766,1,0.99609451980978,1.68588475355791,-0.00822288418991483
-160.410197605216,1,0.99609884918153,1.68588469464625,-0.00826947946894796
-160.326285461345,1,0.996101165290472,1.68588462536801,-0.00831449540388417
-160.239748142479,1,0.996101258568487,1.68588454176928,-0.00836091972742826
-160.144733557893,1,0.996098533694537,1.68588443646072,-0.00841189188454246
-160.050831476874,1,0.996093182645613,1.68588431921677,-0.0084622672772532
-160,1,0.996089409370599,1.6858842505522,-0.00848953671990955
-159.957457224342,1,0.996085917979147,1.68588419038115,-0.00851236135914171
-159.914914448685,1,0.996082230427251,1.68588412774688,-0.00853519419332797
-159.860263086225,1,0.996077363574505,1.6858840435462,-0.0085645424100876
-159.794881155519,1,0.996071597800215,1.68588393702406,-0.0085996783192526
-159.709874782824,1,0.996064650036554,1.68588378862821,-0.00864539743345268
-159.613668807869,1,0.996058173060986,1.68588360665426,-0.00869718226936393
-159.507854895605,1,0.99605340929263,1.68588338895528,-0.00875417981668832
-159.414872742382,1,0.996051523438522,1.68588318247907,-0.00880429321492919
-159.330322845161,1,0.996051582092193,1.68588298259339,-0.00884987979107253
-159.245879331838,1,0.996053004078416,1.68588277171479,-0.00889542260968705
-159.156399113203,1,0.996055469426974,1.68588253640622,-0.00894369383001672
-159.05142883958,1,0.996058756154374,1.68588224550636,-0.00900033380089105
-158.95962185354,1,0.99606124395273,1.68588197863369,-0.0090498797908628
-158.867814867501,1,0.996062854006295,1.68588170084765,-0.00909943214442854
-158.782407349193,1,0.996063343872032,1.68588143324384,-0.00914553498269725
-158.696430004472,1,0.99606285198395,1.68588115552001,-0.00919194898027136
-158.604563778038,1,0.996061423016517,1.68588085021097,-0.00924154520857927
-158.493717937641,1,0.996058930082833,1.68588047107404,-0.00930139148558369
-158.382136618071,1,0.996056197440389,1.68588007877329,-0.00936163777917995
-158.291068971676,1,0.996054184813733,1.685879751575,-0.00941080976448035
-158.204373187231,1,0.996052629393569,1.68587943490092,-0.00945762225983092
-158.114544645904,1,0.996051446944996,1.68587910208191,-0.0095061272306048
-158.013966529157,1,0.996050614866996,1.68587872452637,-0.00956043754655025
-158,1,0.996050536246313,1.68587867173437,-0.00956797927392056
-157.954519678747,1,0.996050336501069,1.68587849926436,-0.0095925399014921
-157.909039357494,1,0.996050213328759,1.6858783259527,-0.0096171087201672
-157.851381337472,1,0.996050132056666,1.68587810499681,-0.0096482718850163
-157.781998616329,1,0.99605005626428,1.68587783719603,-0.00968579567251159
-157.695142818343,1,0.996049812956169,1.68587749890316,-0.00973280156371448
-157.607443759394,1,0.996049212704326,1.68587715385536,-0.00978029408914208
-157.510967833005,1,0.996048013228127,1.68587677034953,-0.00983256780681177
-157.409970303174,1,0.996046139877642,1.6858763647299,-0.0098873164475384
-157.308972773344,1,0.996043722390218,1.68587595528282,-0.00994208501867822
-157.217973242811,1,0.996041191041199,1.68587558350704,-0.00999144527613503
-157.127843983426,1,0.996038466083481,1.68587521303496,-0.0100403433444846
-157.032875018601,1,0.996035488152316,1.68587482072065,-0.0100918755530356
-156.921355005466,1,0.996032067468267,1.68587435817847,-0.0101523973636054
-156.82463020964,1,0.996029413362995,1.68587395601303,-0.0102048956980367
-156.727905413813,1,0.996027329661688,1.68587355352488,-0.0102573982618893
-156.636989231115,1,0.996026143383529,1.6858731754143,-0.0103067509314656
-156.54434430977,1,0.996025914921368,1.68587279080386,-0.0103570444243816
-156.443602900912,1,0.996026917144395,1.68587237391883,-0.0104117353706847
-156.338431492337,1,0.996029284252739,1.68587194080671,-0.0104688331775465
-156.233260083762,1,0.99603264342573,1.68587151047703,-0.0105259324686427
-156.141075638152,1,0.996035913015509,1.68587113605766,-0.0105759818714941
-156.049656499135,1,0.996038916117803,1.68587076770912,-0.0106256164559827
-156,1,0.996040262126157,1.68587056899883,-0.0106525769073205
-155.941839408962,1,0.996041458352442,1.68587033757353,-0.0106841538549247
-155.883678817924,1,0.996042161014395,1.68587010761506,-0.0107157272755544
-155.796017088488,1,0.996042194798592,1.68586976382528,-0.0107633075675567
-155.701586346504,1,0.996040904480225,1.68586939732851,-0.0108145516830364
-155.608879547589,1,0.996038589430886,1.68586904149381,-0.0108648518540406
-155.516933351093,1,0.99603574633188,1.68586869259758,-0.0109147327720445
-155.419714111484,1,0.996032778365545,1.68586832822108,-0.0109674686855667
-155.303401915343,1,0.996030161125305,1.6858678986868,-0.0110305555324767
-155.207004027907,1,0.996029301681531,1.68586754823471,-0.0110828372411043
-155.110606140472,1,0.996029827184631,1.68586720303814,-0.0111351163119672
-155.018931033306,1,0.996031507173143,1.68586687982823,-0.0111848321666013
-154.92483125864,1,0.99603409704526,1.68586655341041,-0.0112358613834044
-154.820499852437,1,0.996037413065642,1.68586619805384,-0.0112924376560585
-154.709366034673,1,0.996040695399786,1.6858658273749,-0.0113527014163896
-154.598232216909,1,0.99604303632609,1.68586546506148,-0.0114129641647151
-154.503830568566,1,0.996043986755985,1.6858651640584,-0.0114641532185851
-154.409440320834,1,0.996043946477578,1.68586486945132,-0.0115153356545486
-154.307298055109,1,0.996042955219088,1.68586455796098,-0.0115707211812435
-154.174478593134,1,0.996040727317579,1.68586416451532,-0.0116427406256929
-154.061766351683,1,0.996038561614589,1.68586384110188,-0.011703856915602
-154,1,0.996037433436298,1.68586366800255,-0.0117373485749416
-153.949833108343,1,0.996036593798945,1.68586352958102,-0.011764551970988
-153.899666216686,1,0.996035839186925,1.68586339311659,-0.0117917612795218
-153.830835623203,1,0.996034936352327,1.68586320908808,-0.0118291059203191
-153.741883356757,1,0.996033921965561,1.6858629767921,-0.0118773885193188
-153.636662048332,1,0.996032764421181,1.68586271011819,-0.0119345272585041
-153.531440739907,1,0.996031491095898,1.68586245228126,-0.0119916877247952
-153.434344968964,1,0.996030187789471,1.68586222222105,-0.0120444490101009
-153.336323752485,1,0.996028842605091,1.68586199763389,-0.0120977245020671
-153.229676873301,1,0.996027537713172,1.68586176202326,-0.0121556981832474
-153.084282384045,1,0.996026386046809,1.68586145543,-0.0122347478727908
-152.965996921062,1,0.996026132206867,1.68586121836888,-0.0122990665394791
-152.866971044739,1,0.996026319915878,1.68586102836939,-0.0123529166757545
-152.765766850434,1,0.996026709363621,1.68586084208742,-0.0124079542813997
-152.651492411769,1,0.996027122383577,1.68586064124316,-0.0124701025594982
-152.539889423926,1,0.996027264854094,1.68586045469463,-0.0125308000849693
-152.428286436084,1,0.996027049793763,1.68586027749694,-0.0125914991906666
-152.328297001069,1,0.996026609157395,1.68586012656006,-0.0126458828926442
-152.225663134797,1,0.996026067069363,1.6858599791958,-0.0127017056608882
-152.109069864158,1,0.99602557747737,1.68585982092198,-0.0127651217079504
-152,1,0.996025423391727,1.68585968148544,-0.0128244462470441
-151.946445956242,1,0.996025477775153,1.68585961602007,-0.0128535762761733
-151.892891912485,1,0.996025607586592,1.68585955250941,-0.0128827112024051
-151.815753325538,1,0.996025867005315,1.68585946444984,-0.0129246876839443
-151.719960837121,1,0.996026121759041,1.68585936068378,-0.0129768317833894
-151.610109648421,1,0.996025981587737,1.68585924923398,-0.0130366473738443
-151.486207142813,1,0.996024906265089,1.68585913304953,-0.0131041325173779
-151.371611098902,1,0.996022979245616,1.68585903438897,-0.0131665617863278
-151.26928121022,1,0.996020712607698,1.68585895326254,-0.0132223166853398
-151.165958095005,1,0.996018273319079,1.68585887785502,-0.0132786185704658
-151.051451279035,1,0.996015910120295,1.68585880171144,-0.0133410198129505
-150.931290976254,1,0.996014346366538,1.68585872993941,-0.0134065064323322
-150.811130673473,1,0.996014027151603,1.68585866620069,-0.0134719964603897
-150.707945404841,1,0.996014715178413,1.68585861764557,-0.0135282367597938
-150.602436319727,1,0.996016089132695,1.68585857368566,-0.0135857451181353
-150.48262702626,1,0.996018002677743,1.68585853047622,-0.013651049273241
-150.369289271163,1,0.996019666100744,1.68585849589852,-0.0137128270240275
-150.255951516066,1,0.996020808429054,1.68585846717645,-0.0137746055182925
-150.151163015219,1,0.996021242191244,1.68585844560409,-0.0138317244601756
-150.042336324916,1,0.996021069513967,1.68585842804282,-0.0138910449585595
-150,1,0.996020857507065,1.68585842249583,-0.0139141222134246
-149.932666976539,1,0.996020392516339,1.68585841510934,-0.0139508256902389
-149.865333953078,1,0.9960198112164,1.68585840944223,-0.0139875316629983
-149.765498140262,1,0.996018816733757,1.68585840410314,-0.0140419614506107
-149.659384022367,1,0.996017674371604,1.68585840228622,-0.0140998200403738
-149.551652014363,1,0.99601649835942,1.68585840432068,-0.0141585656652478
-149.432637464629,1,0.996015256097777,1.68585841087692,-0.0142234679442395
-149.306849160126,1,0.99601412169821,1.68585842243881,-0.01429206786702
-149.181060855622,1,0.996013340632636,1.68585843845666,-0.0143606705894442
-149.072596484951,1,0.996013100571588,1.68585845561148,-0.0144198268073964
-148.959345755389,1,0.996013384463226,1.68585847660692,-0.0144815947240945
-148.825413824887,1,0.996014426130479,1.68585850521125,-0.0145546435519672
-148.69091341368,1,0.99601600372823,1.68585853772176,-0.0146280033984822
-148.580319398732,1,0.996017357372351,1.68585856705456,-0.014688324630327
-148.469784639238,1,0.996018407060444,1.68585859851923,-0.0147486138935323
-148.345175334736,1,0.996018875302469,1.68585863634177,-0.014816580188393
-148.227385319599,1,0.996018452880901,1.68585867417103,-0.0148808272324994
-148.109595304462,1,0.996017272961275,1.68585871381278,-0.0149450744416517
-148,1,0.996015769422346,1.68585875215377,-0.0150048520512239
-147.943716976963,1,0.996014964863554,1.68585877233827,-0.0150355519584808
-147.887433953926,1,0.996014203210748,1.68585879282487,-0.0150662556304052
-147.807014558907,1,0.996013259626275,1.6858588225574,-0.0151101343724509
-147.692807335938,1,0.996012302863266,1.68585886554958,-0.0151724635327218
-147.577190037688,1,0.996011791670473,1.68585890977377,-0.015235576550555
-147.467817285099,1,0.996011615035806,1.68585895206824,-0.0152952908298226
-147.353031827913,1,0.996011556448866,1.68585899676335,-0.0153579681909836
-147.21535120301,1,0.996011387318073,1.68585905057406,-0.0154331551280565
-147.1021320962,1,0.996011040437262,1.68585909483279,-0.0154949884807489
-146.98891298939,1,0.996010520626148,1.68585913897568,-0.0155568250069035
-146.877431118186,1,0.996009956326067,1.68585918222824,-0.0156177150520824
-146.754977310923,1,0.996009464119058,1.68585922938854,-0.0156845998400286
-146.625234281966,1,0.996009267835143,1.68585927884355,-0.0157554677246161
-146.49549125301,1,0.996009453682046,1.68585932766049,-0.0158263368768223
-146.383462938708,1,0.996009824481319,1.68585936922067,-0.0158875305201169
-146.265804388606,1,0.996010244021693,1.6858594122114,-0.0159518001403962
-146.118909389987,1,0.996010540642514,1.68585946484616,-0.0160320404136758
-146,1,0.996010476717496,1.68585950654008,-0.0160969941052629
-145.922439351761,1,0.996010299115641,1.68585953326484,-0.0161393616793538
-145.844878703522,1,0.996010051850624,1.68585955956891,-0.0161817305359777
-145.73584499444,1,0.996009666280043,1.68585959571002,-0.0162412943910926
-145.585157347666,1,0.99600923995232,1.68585964378845,-0.0163236168630315
-145.442793232687,1,0.996009074171161,1.68585968698082,-0.0164013948380365
-145.327320119294,1,0.996009083213231,1.6858597203102,-0.0164644828083789
-145.20876963897,1,0.99600912604601,1.68585975288181,-0.016529253023085
-145.065362170885,1,0.99600907686578,1.6858597900139,-0.0166076048237749
-144.918562860564,1,0.996008841561472,1.68585982543661,-0.0166878105419862
-144.800813367215,1,0.996008583131939,1.68585985196603,-0.0167521449074465
-144.681639148124,1,0.996008384940803,1.68585987712865,-0.016817257953867
-144.53959743086,1,0.996008387472668,1.68585990493864,-0.0168948653306174
-144.420103720745,1,0.996008635205039,1.68585992653556,-0.0169601532980595
-144.30061001063,1,0.996009036054086,1.68585994652927,-0.0170254413666518
-144.182539180927,1,0.996009435968399,1.68585996475076,-0.0170899520863932
-144.050022129077,1,0.996009691647837,1.68585998343842,-0.0171623558968537
-144,1,0.996009703119015,1.68585999002005,-0.017189686678191
-143.91308802745,1,0.996009600674011,1.6858600008489,-0.0172371726763004
-143.8261760549,1,0.99600936326861,1.68586001088152,-0.0172846570358792
-143.714195313286,1,0.996008950182823,1.68586002255442,-0.0173458352652554
-143.590626223839,1,0.996008539285544,1.68586003371108,-0.017413341948165
-143.439054059,1,0.996008382234158,1.68586004485119,-0.0174961441998274
-143.293960574857,1,0.996008717722141,1.68586005287799,-0.0175754052377988
-143.173860512986,1,0.996009266575054,1.68586005760193,-0.0176410119449285
-143.049660388698,1,0.996009894010783,1.68586006070975,-0.0177088576711129
-142.894640370498,1,0.996010449061535,1.68586006215308,-0.0177935383857661
-142.748019489306,1,0.99601054261278,1.6858600611556,-0.0178736304934238
-142.626675202715,1,0.996010320304472,1.68586005869321,-0.0179399149140482
-142.50000138788,1,0.996009936140196,1.6858600546357,-0.0180091104069451
-142.336481249874,1,0.996009480273472,1.68586004730423,-0.0180984329799054
-142.191440890524,1,0.996009289287813,1.68586003897905,-0.0181776608757585
-142.068768504342,1,0.996009294839239,1.68586003071056,-0.0182446702605089
-142,1,0.996009340612676,1.6858600256173,-0.0182822348079378
-141.913574029005,1,0.996009413605888,1.68586001877431,-0.0183294448071949
-141.82714805801,1,0.996009479672913,1.68586001143919,-0.0183766553190125
-141.706216471288,1,0.996009530390459,1.68586000032308,-0.0184427155282422
-141.581176990885,1,0.996009532106319,1.6858599877673,-0.0185110205803402
-141.453215783669,1,0.996009525057774,1.68585997381124,-0.0185809223457836
-141.297901160249,1,0.996009580355829,1.6858599554246,-0.018665767194819
-141.142270799668,1,0.996009716116154,1.68585993551029,-0.0187507850197843
-141.015316852651,1,0.996009813594411,1.68585991825191,-0.0188201377350832
-140.882436074449,1,0.996009802644919,1.6858598993047,-0.0188927283473964
-140.701813700304,1,0.996009511264601,1.68585987226998,-0.0189913996161099
-140.556289208032,1,0.996009121283594,1.68585984956442,-0.019070897556311
-140.429111543281,1,0.996008820819027,1.68585982915266,-0.0191403729444913
-140.285347953633,1,0.99600869801122,1.68585980554734,-0.0192189090373325
-140.150608817568,1,0.996008867104949,1.68585978300899,-0.0192925152247303
-140.015869681503,1,0.996009254635773,1.68585976016141,-0.019366121433202
-140,1,0.996009307718878,1.68585975745408,-0.0193747908314605
-139.920651592487,1,0.996009573444397,1.68585974387486,-0.0194181376814307
-139.818103614853,1,0.996009869505103,1.68585972622794,-0.0194741572912381
-139.669517760684,1,0.996010084787885,1.68585970047854,-0.0195553246930789
-139.523774447651,1,0.99601000209601,1.68585967504713,-0.0196349378764753
-139.395073943743,1,0.996009761531151,1.68585965248701,-0.0197052404903848
-139.25772828044,1,0.996009482981189,1.68585962835614,-0.0197802649130099
-139.109590231892,1,0.996009320749044,1.68585960233009,-0.0198611841257273
-138.961452183344,1,0.996009371536171,1.68585957637824,-0.0199421029766135
-138.830329866503,1,0.996009543377523,1.68585955352938,-0.0200137269518305
-138.685741171812,1,0.996009747783073,1.68585952853012,-0.0200927066112116
-138.542959454699,1,0.996009856712039,1.68585950410682,-0.0201706991156699
-138.400177737586,1,0.996009844424746,1.68585948000479,-0.0202486915386525
-138.26663722643,1,0.996009773975343,1.68585945780236,-0.0203216360361837
-138.11320646059,1,0.996009720632084,1.68585943275345,-0.0204054452430738
-138,1,0.996009738792688,1.68585941461955,-0.0204672825177596
-137.901919647399,1,0.996009789042393,1.68585939916615,-0.0205208576228605
-137.803839294798,1,0.996009845216743,1.68585938396531,-0.020574433611065
-137.663263821986,1,0.996009866126944,1.68585936264224,-0.0206512238201669
-137.472513491411,1,0.996009671912699,1.68585933463225,-0.0207554243352422
-137.316535887389,1,0.996009360977578,1.68585931256108,-0.0208406308253921
-137.182645057295,1,0.996009109468864,1.68585929423813,-0.020913772436986
-137.027489922069,1,0.996008983118875,1.68585927374719,-0.0209985307003596
-136.855778237945,1,0.99600911964947,1.68585925202146,-0.0210923338588862
-136.717015052651,1,0.996009367580944,1.685859235209,-0.02116813801107
-136.572690254689,1,0.996009610545917,1.68585921843798,-0.0212469805095795
-136.416978099857,1,0.996009715409677,1.68585920116815,-0.0213320438517354
-136.261265945025,1,0.996009617829287,1.6858591847574,-0.0214171072646999
-136.122047331764,1,0.996009429754072,1.6858591708123,-0.0214931605234812
-136,1,0.996009272558106,1.68585915915022,-0.0215598333642606
-135.92359091625,1,0.996009206102227,1.68585915211579,-0.021601574964106
-135.847181832499,1,0.996009171198059,1.68585914528824,-0.0216433178108212
-135.721080515749,1,0.996009162788351,1.68585913448061,-0.0217122108017237
-135.580082869708,1,0.996009150108779,1.6858591230846,-0.0217892455730078
-135.41837223512,1,0.996009015340644,1.68585911091433,-0.0218776001676196
-135.272505615557,1,0.996008752582812,1.6858591007568,-0.0219573000051922
-135.126638995993,1,0.996008429317577,1.68585909136631,-0.022037001146453
-134.979130061201,1,0.996008172936834,1.68585908263431,-0.0221176005642
-134.785333025187,1,0.996008117373774,1.68585907229714,-0.022223492908089
-134.62309951119,1,0.996008315837853,1.6858590646005,-0.022312139217616
-134.479247844463,1,0.996008560293119,1.68585905847728,-0.0223907417397291
-134.305586349348,1,0.996008758842917,1.68585905192764,-0.0224856329870683
-134.127895342484,1,0.996008744004723,1.68585904613651,-0.0225827261908477
-134,1,0.996008623782714,1.68585904251135,-0.022652610321052
-133.909886127528,1,0.996008520040026,1.68585904021921,-0.0227018502828323
-133.819772255056,1,0.996008423682534,1.68585903813982,-0.0227510911011076
-133.67458905437,1,0.996008307875894,1.68585903523368,-0.0228304251328344
-133.524961733495,1,0.996008230684728,1.68585903280176,-0.0229121893411902
-133.375457680031,1,0.996008154234248,1.68585903092472,-0.0229938874019214
-133.185021592104,1,0.996008010382157,1.68585902929683,-0.0230979543697729
-133.016380739931,1,0.996007873521548,1.68585902852741,-0.0231901116894673
-132.869220042758,1,0.996007821276479,1.68585902833775,-0.0232705310932922
-132.700437868297,1,0.996007900414441,1.68585902863431,-0.023362766331408
-132.525727852886,1,0.996008107506456,1.68585902947529,-0.0234582411924274
-132.376511326775,1,0.996008280733926,1.68585903058786,-0.0235397845826297
-132.212722375517,1,0.996008343972361,1.68585903219041,-0.0236292915428018
-132.055609723952,1,0.99600823481518,1.68585903406849,-0.0237151501084084
-132,1,0.996008164759359,1.68585903480695,-0.0237455395940806
-131.901519585903,1,0.996008022984461,1.68585903620293,-0.0237993571363931
-131.803039171807,1,0.996007885595485,1.68585903770584,-0.023853175289434
-131.640560745402,1,0.996007735141175,1.68585904040233,-0.0239419686675428
-131.458667044119,1,0.996007722810509,1.68585904371044,-0.0240413736698429
-131.307547291533,1,0.996007795705275,1.68585904666334,-0.0241239614000062
-131.147645147282,1,0.996007868443666,1.68585904996278,-0.0242113492046429
-130.967972995223,1,0.996007873040706,1.68585905385254,-0.0243095418440408
-130.81445050747,1,0.996007820985031,1.68585905730299,-0.0243934436427478
-130.662003590272,1,0.996007770727785,1.68585906082254,-0.0244767577543512
-130.46294853558,1,0.996007772570696,1.68585906552516,-0.0245855438973055
-130.297642222227,1,0.996007819439611,1.68585906949539,-0.0246758859967925
-130.144459955154,1,0.99600784515064,1.68585907320637,-0.0247596021848332
-130,1,0.996007818818264,1.6858590767191,-0.02483855153285
-129.839894036752,1,0.996007740466336,1.68585908060931,-0.0249260516165447
-129.690740560331,1,0.996007671029483,1.68585908420948,-0.0250075658742497
-129.527963005877,1,0.996007663012262,1.68585908808591,-0.0250965257666477
-129.346056149112,1,0.996007759111946,1.68585909232777,-0.0251959399757597
-129.189190086864,1,0.996007877601442,1.68585909589326,-0.0252816690429933
-129.033466087402,1,0.996007949210119,1.68585909933611,-0.0253667739321828
-128.835504321788,1,0.996007908333993,1.68585910355974,-0.0254749622209927
-128.674470655458,1,0.996007797254235,1.68585910686168,-0.0255629688653558
-128.523954926616,1,0.996007702206293,1.6858591098338,-0.02564522732994
-128.350292940778,1,0.996007672552914,1.68585911312059,-0.0257401354805666
-128.189898688089,1,0.996007727411826,1.68585911601827,-0.0258277926615028
-128.037242158443,1,0.99600780718212,1.68585911865095,-0.0259112210890069
-128,1,0.996007824161726,1.68585911927464,-0.02593157432393
-127.899350673778,1,0.996007856888852,1.68585912092271,-0.0259865800896857
-127.798701347557,1,0.996007868008271,1.68585912251362,-0.0260415852464689
-127.643593582071,1,0.996007858822444,1.68585912484391,-0.0261263510171673
-127.475252347639,1,0.996007863440575,1.68585912719582,-0.0262183477259443
-127.274946408917,1,0.9960079465944,1.68585912974506,-0.0263278118505781
-127.102970286446,1,0.996008063149564,1.68585913171613,-0.02642179362225
-126.95731144493,1,0.996008138716301,1.68585913323015,-0.0265013932188474
-126.803537057876,1,0.996008150260735,1.68585913467712,-0.0265854276372709
-126.629810514029,1,0.996008076308082,1.68585913613033,-0.0266803653502277
-126.466460224968,1,0.996007976190003,1.68585913732766,-0.0267696325759317
-126.291721249795,1,0.996007915744871,1.68585913843505,-0.0268651234015305
-126.118163942285,1,0.996007942021109,1.68585913936621,-0.0269599684314937
-126,1,0.996007995749066,1.6858591399087,-0.027024542242486
-125.885856676777,1,0.996008051945475,1.68585914036485,-0.0270869187610646
-125.771713353554,1,0.996008094623728,1.68585914075304,-0.0271492948343486
-125.600371039462,1,0.996008119504293,1.68585914120188,-0.0272429278359178
-125.427241377064,1,0.996008116207319,1.68585914148935,-0.0273375369613419
-125.251915249369,1,0.996008125766618,1.68585914161278,-0.027433345975681
-125.066272596129,1,0.9960081704729,1.68585914156708,-0.0275347923021364
-124.909984630142,1,0.996008213136545,1.6858591413962,-0.0276201972957136
-124.76293416273,1,0.996008225773098,1.6858591411322,-0.0277005542903638
-124.592430889648,1,0.996008189189963,1.68585914071003,-0.0277937272182562
-124.418346005089,1,0.996008119297148,1.68585914016147,-0.0278888573006912
-124.250744429622,1,0.996008074034484,1.68585913953215,-0.0279804444938303
-124.073176949519,1,0.996008091854821,1.68585913876878,-0.0280774776199238
-124,1,0.996008118376443,1.68585913842818,-0.0281174657042996
-123.843220314028,1,0.996008190375332,1.68585913765085,-0.0282031391347711
-123.683940904293,1,0.996008245882026,1.68585913679671,-0.0282901784638676
-123.501303238487,1,0.996008247127519,1.68585913573841,-0.0283899820060512
-123.330032675618,1,0.996008196306445,1.68585913467458,-0.0284835738666929
-123.169520900983,1,0.996008143928341,1.68585913362108,-0.028571286483365
-123.00870707355,1,0.996008123062464,1.68585913251719,-0.0286591641410375
-122.853702052666,1,0.996008139663407,1.68585913141388,-0.0287438675280322
-122.696858080408,1,0.996008172811329,1.68585913026465,-0.0288295758151872
-122.522368784301,1,0.996008195467367,1.68585912895507,-0.0289249264916104
-122.332821221356,1,0.996008186983277,1.68585912750504,-0.0290285058523795
-122.165559351665,1,0.996008169433653,1.68585912621056,-0.0291199070520039
-122,1,0.996008168263308,1.68585912492221,-0.0292103778975152
-121.851515823915,1,0.996008186190111,1.68585912376744,-0.029291518019311
-121.703932007231,1,0.996008205476345,1.68585912263013,-0.0293721666368567
-121.540632609528,1,0.99600820035976,1.68585912139809,-0.0294614035805437
-121.368888268496,1,0.996008150226345,1.68585912014388,-0.029555255671192
-121.208732378947,1,0.996008080777022,1.68585911902009,-0.0296427752863563
-121.053673404959,1,0.996008028796475,1.68585911797852,-0.0297275097320699
-120.884517907236,1,0.996008021465905,1.68585911689746,-0.0298199475282019
-120.696825837822,1,0.996008072647669,1.68585911576765,-0.029922514995731
-120.522050981797,1,0.996008135115614,1.68585911478267,-0.0300180236807931
-120.367671273167,1,0.996008164517317,1.68585911396669,-0.03010238713365
-120.226437632602,1,0.996008158477257,1.68585911326433,-0.0301795667061386
-120.075475873814,1,0.996008126979415,1.68585911255968,-0.0302620623758898
-120,1,0.996008108292288,1.68585911222504,-0.0303033074801725
-119.888605408261,1,0.996008084821483,1.68585911175228,-0.0303641810812425
-119.777210816521,1,0.996008070057493,1.68585911130393,-0.0304250550166946
-119.59525070777,1,0.996008059219107,1.68585911062126,-0.0305244915719004
-119.399432217049,1,0.996008040625567,1.68585910995156,-0.0306315019520575
-119.24958511322,1,0.996008009990612,1.6858591094822,-0.03071339028784
-119.099738009391,1,0.99600797315616,1.68585910904853,-0.0307952787696006
-118.931077718338,1,0.996007946895129,1.68585910860143,-0.0308874484017727
-118.741664129963,1,0.996007959483518,1.6858591081489,-0.0309909594076073
-118.540344727365,1,0.996008010918251,1.68585910772278,-0.0311009767642199
-118.409773293334,1,0.996008041459811,1.68585910747537,-0.0311723317451425
-118.279201859304,1,0.99600805348401,1.68585910724972,-0.0312436867121216
-118.111120955313,1,0.996008034459186,1.68585910699006,-0.0313355399370903
-118,1,0.996008006857461,1.6858591068367,-0.0313962655736215
-117.879486287889,1,0.996007975115446,1.68585910668609,-0.0314621242656973
-117.758972575779,1,0.996007951240513,1.68585910655064,-0.0315279832541674
-117.565644632432,1,0.996007938242625,1.6858591063615,-0.0316336346369492
-117.363426100857,1,0.99600794277796,1.68585910619646,-0.0317441450365851
-117.224661806703,1,0.996007940076652,1.68585910610062,-0.0318199785354604
-117.08589751255,1,0.996007927005179,1.6858591060177,-0.0318958121100236
-116.91823740324,1,0.996007904219243,1.68585910593351,-0.0319874370880801
-116.731572544818,1,0.99600789065666,1.6858591058588,-0.0320894480825077
-116.534743172679,1,0.996007905742285,1.68585910579997,-0.0321970139451367
-116.390491487717,1,0.996007928403233,1.6858591057689,-0.0322758465289697
-116.246239802755,1,0.99600794600761,1.68585910574722,-0.0323546791148385
-116.072461413884,1,0.996007945150762,1.68585910573271,-0.0324496478461589
-116,1,0.996007936949821,1.68585910573019,-0.0324892475367507
-115.813984108093,1,0.996007905594318,1.68585910573189,-0.0325909039881228
-115.604604462321,1,0.99600788281527,1.68585910574371,-0.0327053285477152
-115.445347149398,1,0.996007889988364,1.68585910575801,-0.0327923615569778
-115.286089836474,1,0.996007912396188,1.68585910577451,-0.0328793945568427
-115.11113994355,1,0.996007935043175,1.68585910579362,-0.0329750034423673
-114.921660496857,1,0.996007938762467,1.68585910581412,-0.033078552639619
-114.752589608291,1,0.996007925616488,1.68585910583335,-0.0331709486829941
-114.603317361839,1,0.996007912879481,1.6858591058516,-0.0332525248790775
-114.4540176709,1,0.996007908271629,1.68585910586899,-0.0333341160823241
-114.290988657372,1,0.99600791377566,1.68585910588684,-0.0334232102725357
-114.115338507444,1,0.996007922410205,1.68585910590496,-0.0335192018304098
-114,1,0.996007923647437,1.68585910591748,-0.0335822334841252
-113.819387729506,1,0.996007915492944,1.68585910593525,-0.0336809367607759
-113.67041349552,1,0.99600790748278,1.6858591059506,-0.0337623498318026
-113.537792386888,1,0.996007908035073,1.68585910596552,-0.0338348259648716
-113.387236408372,1,0.996007922313769,1.68585910598435,-0.0339171032666399
-113.207675209275,1,0.996007952354281,1.6858591060099,-0.0340152315545178
-113.02012542257,1,0.996007977683267,1.68585910604035,-0.0341177254682523
-112.84224807219,1,0.996007978020731,1.68585910607272,-0.0342149334662761
-112.682465341424,1,0.996007959058751,1.68585910610458,-0.0343022529193964
-112.533607743161,1,0.99600793646977,1.6858591061364,-0.0343836018938211
-112.378153803795,1,0.996007921472279,1.68585910617155,-0.0344685556940178
-112.20810403367,1,0.996007923264818,1.68585910621199,-0.0345614859496181
-112.032921673854,1,0.996007939684627,1.6858591062555,-0.0346572211056743
-112,1,0.996007943286556,1.68585910626389,-0.0346752124143246
-111.835391630732,1,0.996007957619668,1.68585910630613,-0.0347651689373597
-111.696790123675,1,0.996007963416967,1.68585910634142,-0.0348409127543555
-111.555594372866,1,0.996007965585804,1.68585910637562,-0.0349180741578444
-111.381832577715,1,0.996007970719735,1.68585910641417,-0.0350130322969265
-111.184846448892,1,0.996007985565142,1.6858591064521,-0.035120682065902
-111.011137786693,1,0.996008000620705,1.68585910648006,-0.0352156109937105
-110.866138085473,1,0.99600800607846,1.68585910649942,-0.0352948508831609
-110.723656769808,1,0.996008000749289,1.68585910651485,-0.0353727145077269
-110.553774844564,1,0.996007983827425,1.68585910652872,-0.0354655520978371
-110.351151856062,1,0.996007965325986,1.6858591065391,-0.0355762821300447
-110.210561170831,1,0.996007964027381,1.68585910654272,-0.0356531125144732
-110.069970485601,1,0.996007973578837,1.68585910654348,-0.0357299429075033
-110,1,0.996007981020346,1.68585910654286,-0.0357681805742035
-109.856513334767,1,0.996007996825774,1.6858591065394,-0.0358465935347347
-109.713026669534,1,0.996008007749124,1.6858591065323,-0.0359250063325226
-109.528672286545,1,0.996008010568225,1.68585910651602,-0.0360257524234245
-109.317222436778,1,0.996008006048552,1.68585910648602,-0.0361413055458598
-109.187957471987,1,0.996008006258029,1.68585910646184,-0.036211946150053
-109.058692507195,1,0.996008010467944,1.68585910643302,-0.0362825867575365
-108.887275880179,1,0.996008019548756,1.68585910638802,-0.0363762623567622
-108.683766137637,1,0.996008025261617,1.68585910632531,-0.0364874761569382
-108.524752164395,1,0.996008020864887,1.68585910627003,-0.0365743739253763
-108.365738191153,1,0.996008011433448,1.68585910620978,-0.0366612716870525
-108.19043804519,1,0.996008003852619,1.68585910613826,-0.0367570694993342
-108,1,0.996008006928102,1.68585910605531,-0.0368611398666827
-107.840377209432,1,0.996008017152972,1.68585910598255,-0.036948370358616
-107.678521511232,1,0.996008025531331,1.68585910590703,-0.0370368212816695
-107.501535581474,1,0.996008022436784,1.6858591058242,-0.0371335407292424
-107.315552169613,1,0.996008004466226,1.68585910573829,-0.037235177247735
-107.145206645588,1,0.996007984630749,1.68585910566164,-0.0373282680007512
-106.998147422926,1,0.996007973912486,1.68585910559758,-0.0374086332174154
-106.854212466466,1,0.996007972655793,1.68585910553683,-0.0374872911055916
-106.69060827464,1,0.996007980173611,1.68585910547032,-0.0375766979073489
-106.503824190297,1,0.996007991773482,1.68585910539792,-0.0376787721343606
-106.313674314999,1,0.996007998197314,1.6858591053282,-0.0377826857312895
-106.149205466442,1,0.996007998493579,1.68585910527144,-0.0378725650768439
-106,1,0.9960079970803,1.6858591052228,-0.0379541032369463
-105.857543648558,1,0.996007995940837,1.68585910517886,-0.0380319531424154
-105.685336608609,1,0.996007994159359,1.68585910512961,-0.0381260613562492
-105.489658158113,1,0.996007987957647,1.68585910508002,-0.0382329963658648
-105.300390855161,1,0.996007976910923,1.68585910503914,-0.0383364278417141
-105.142997495706,1,0.996007968529187,1.68585910501091,-0.0384224407122788
-105.006175115872,1,0.996007966086087,1.6858591049905,-0.0384972118780944
-104.858413063889,1,0.9960079706116,1.68585910497247,-0.0385779614193285
-104.680726046403,1,0.996007983583838,1.68585910495619,-0.0386750644809783
-104.488161235034,1,0.99600799692281,1.68585910494484,-0.0387802980318122
-104.311082509779,1,0.996007999085966,1.68585910493988,-0.0388770686891075
-104.159976072829,1,0.996007991958857,1.68585910493968,-0.038959645883696
-104.017076136474,1,0.996007981179711,1.68585910494252,-0.039037738363071
-104,1,0.996007979888376,1.68585910494305,-0.0390470701911655
-103.91461931763,1,0.996007973980013,1.68585910494623,-0.0390937293522223
-103.722284920373,1,0.99600796672228,1.68585910495607,-0.0391988371490253
-103.547854068019,1,0.996007966808855,1.68585910496716,-0.0392941610988891
-103.373423215665,1,0.996007967852382,1.68585910497933,-0.0393894851467462
-103.198746797003,1,0.996007965199036,1.68585910499196,-0.0394849434554909
-103.037313263859,1,0.996007959447147,1.68585910500375,-0.039573164752568
-102.884459921186,1,0.996007954272521,1.68585910501479,-0.0396566971152698
-102.725004486335,1,0.996007952606654,1.68585910502599,-0.0397438374453675
-102.549297394324,1,0.996007955970271,1.68585910503785,-0.0398398591002669
-102.367005077312,1,0.996007961346727,1.68585910504954,-0.0399394794966235
-102.200702382741,1,0.996007963122024,1.6858591050597,-0.0400303617862931
-102.052432076885,1,0.996007960744718,1.68585910506837,-0.0401113896237885
-102,1,0.996007959242728,1.68585910507136,-0.0401400430928524
-101.810441513027,1,0.996007953909707,1.68585910508109,-0.0402436343734749
-101.604354296351,1,0.99600795291015,1.68585910508855,-0.0403562583574257
-101.466548046766,1,0.996007955574586,1.68585910509208,-0.0404315677143564
-101.328741797181,1,0.996007959385723,1.68585910509304,-0.0405068770543449
-101.152374192567,1,0.996007962400482,1.68585910509052,-0.0406032596627199
-100.947427509025,1,0.996007960779099,1.6858591050823,-0.0407152603477607
-100.803323524004,1,0.996007957667302,1.68585910507415,-0.0407940113193329
-100.659219538983,1,0.996007955570988,1.68585910506343,-0.0408727622825922
-100.482604773635,1,0.996007956266143,1.685859105047,-0.0409692799555526
-100.279063321799,1,0.996007960002241,1.68585910502386,-0.0410805126937017
-100.138168751919,1,0.996007961512263,1.68585910500649,-0.0411575097633897
-100,1,0.996007960926744,1.68585910498772,-0.0412330171988487
-99.8250108862681,1,0.996007957810174,1.68585910496185,-0.041328646460172
-99.6384087375622,1,0.99600795555492,1.68585910493271,-0.0414306220116653
-99.4518065888563,1,0.996007958548264,1.68585910490282,-0.0415325975156668
-99.2872335163115,1,0.996007965235396,1.6858591048767,-0.0416225343847126
-99.1424406395162,1,0.996007971387519,1.68585910485421,-0.0417016616216045
-98.9934060507715,1,0.996007974923856,1.68585910483128,-0.041783106894916
-98.8194837816398,1,0.996007973941803,1.68585910480502,-0.0418781529328568
-98.626143467716,1,0.996007968665177,1.68585910477657,-0.0419838106642094
-98.4493271623706,1,0.996007964474302,1.6858591047516,-0.0420804382537099
-98.3027742206751,1,0.996007963688838,1.68585910473222,-0.0421605273061891
-98.1637740621406,1,0.996007964836451,1.68585910471442,-0.0422364888794843
-98,1,0.996007966933501,1.68585910469407,-0.0423259890485501
-97.8087222444037,1,0.996007968268323,1.68585910467162,-0.0424305195991633
-97.6329418719006,1,0.996007968581536,1.68585910465312,-0.0425265810166037
-97.4861746971103,1,0.996007969588202,1.68585910464006,-0.0426067870931938
-97.3464658249295,1,0.996007971609592,1.68585910462965,-0.0426831359111625
-97.1855128065576,1,0.996007974612274,1.6858591046202,-0.0427710943459369
-96.9968819021157,1,0.996007976674633,1.68585910461267,-0.0428741783387978
-96.806506821577,1,0.996007974820856,1.68585910460884,-0.0429782155076568
-96.6435519684982,1,0.996007970860272,1.68585910460866,-0.0430672679009444
-96.5030376638655,1,0.99600796766979,1.68585910461069,-0.0431440568488615
-96.356757376734,1,0.996007966309683,1.68585910461459,-0.043223996834368
-96.1826749278847,1,0.996007968337144,1.6858591046215,-0.0433191302958424
-96,1,0.996007973042933,1.68585910463121,-0.0434189594241542
-95.8195438941262,1,0.996007976606288,1.68585910464318,-0.0435175759978949
-95.6649496630964,1,0.996007977220782,1.68585910465564,-0.0436020593833158
-95.5230590391564,1,0.996007976072265,1.68585910466904,-0.0436796004209385
-95.3671964762732,1,0.996007974383187,1.68585910468593,-0.0437647769086265
-95.1847333602698,1,0.996007973913389,1.6858591047086,-0.0438644901875313
-94.9957131199611,1,0.996007975548265,1.6858591047352,-0.0439677868373468
-94.8293841964802,1,0.996007977383008,1.6858591047611,-0.0440586830119885
-94.6847227113204,1,0.99600797805582,1.68585910478537,-0.0441377382458468
-94.5374400683942,1,0.996007977430477,1.68585910481146,-0.0442182259109965
-94.3654923742906,1,0.996007976001727,1.68585910484347,-0.0443121926517693
-94.1736006663775,1,0.996007975433945,1.68585910488083,-0.04441705849844
-94,1,0.996007976585252,1.68585910491591,-0.0445119285682891
-93.8498060557152,1,0.99600797810217,1.68585910494717,-0.0445940072183708
-93.6967244272586,1,0.996007978376985,1.68585910497998,-0.0446776640138055
-93.5241543670978,1,0.996007975780443,1.68585910501852,-0.0447719710043833
-93.3372716202891,1,0.996007970231482,1.68585910506232,-0.0448740997192038
-93.1624829071113,1,0.996007965250739,1.68585910510525,-0.0449696192424468
-93.0112449066075,1,0.996007963147793,1.68585910514389,-0.0450522686278342
-92.866770122518,1,0.996007963349215,1.68585910518186,-0.0451312220230068
-92.7053448003832,1,0.996007965243016,1.68585910522531,-0.0452194386613927
-92.5199849094593,1,0.99600796770835,1.68585910527626,-0.0453207352160876
-92.3326754060876,1,0.99600796903445,1.68585910532858,-0.0454230972214522
-92.1705609968898,1,0.996007969354037,1.68585910537439,-0.0455116904425267
-92.0285876723565,1,0.996007969361646,1.68585910541473,-0.045589276832083
-92,1,0.996007969353858,1.68585910542287,-0.0456048995836446
-91.8570616382177,1,0.99600796904858,1.68585910546329,-0.0456830133583032
-91.6805420708985,1,0.99600796840214,1.68585910551167,-0.0457794787402295
-91.481000428858,1,0.996007967686658,1.68585910556212,-0.0458885253217234
-91.3010009956208,1,0.996007967944878,1.68585910560265,-0.045986892346846
-91.156138325879,1,0.996007969628589,1.68585910563177,-0.0460660575913275
-91.0210648949547,1,0.996007972222352,1.68585910565564,-0.0461398731690921
-90.8623090769896,1,0.996007975864576,1.68585910567959,-0.0462266308241013
-90.67006441252,1,0.996007979166236,1.68585910570286,-0.0463316896344747
-90.4750739831219,1,0.996007978850562,1.68585910572022,-0.0464382489800403
-90.3128925547772,1,0.996007975766125,1.68585910573046,-0.0465268786659993
-90.1763585731826,1,0.996007972323547,1.68585910573631,-0.0466014923879264
-90.03271504555,1,0.99600796921871,1.68585910573958,-0.0466799913878062
-90,1,0.996007968755423,1.68585910573996,-0.0466978696605244
-89.8364247722499,1,0.996007968171037,1.68585910573954,-0.0467872610492919
-89.5977368649539,1,0.996007971492614,1.68585910573015,-0.0469177004345116
-89.4637707335458,1,0.996007973225316,1.68585910572099,-0.0469909109943697
-89.3298046021377,1,0.996007973750989,1.68585910570759,-0.0470641215520767
-89.1479511383277,1,0.996007971947994,1.68585910568296,-0.0471635018479794
-88.9318435524948,1,0.996007967751507,1.68585910564429,-0.0472816015188209
-88.794085695757,1,0.9960079652536,1.68585910561604,-0.0473568842366904
-88.6563278390192,1,0.996007963973907,1.68585910558409,-0.0474321669443334
-88.4781280447059,1,0.996007964204757,1.68585910553793,-0.0475295505859735
-88.2683683327802,1,0.996007966127883,1.68585910547725,-0.0476441812544614
-88.1283400905433,1,0.996007967360352,1.68585910543467,-0.0477207047102837
-88,1,0.996007968345614,1.68585910539357,-0.04779084074898
-87.8210831204515,1,0.996007969371026,1.68585910533342,-0.0478886162614211
-87.5945173360565,1,0.996007970421129,1.68585910525343,-0.0480124311732002
-87.4660303460436,1,0.996007971577923,1.68585910520816,-0.0480826473439063
-87.3375433560307,1,0.996007972572133,1.68585910516195,-0.0481528635331367
-87.1599500910586,1,0.996007973556524,1.68585910509739,-0.0482499155586103
-86.9391819837075,1,0.996007974123684,1.68585910501658,-0.0483705619953549
-86.8018006760341,1,0.996007974732221,1.68585910496729,-0.0484456387506752
-86.6644193683607,1,0.996007975403311,1.68585910491811,-0.0485207155201546
-86.4859095240501,1,0.996007976217708,1.68585910485477,-0.0486182684141555
-86.2766703727972,1,0.996007976268277,1.68585910478161,-0.0487326144256034
-86.1351283932681,1,0.996007975712565,1.68585910473381,-0.0488099649204322
-86,1,0.99600797469353,1.68585910468894,-0.0488838104999204
-85.8216669039567,1,0.996007973376123,1.685859104631,-0.0489812668010475
-85.5865081982363,1,0.996007972913337,1.68585910455699,-0.0491097774882778
-85.4507953468672,1,0.996007973685195,1.68585910451736,-0.0491839424714332
-85.3150824954981,1,0.996007974484408,1.68585910447882,-0.0492581074779503
-85.1340960416663,1,0.996007974891584,1.68585910442951,-0.0493570138398734
-84.9191419315675,1,0.996007973808269,1.68585910437398,-0.0494744830492331
-84.7817228047184,1,0.996007972935655,1.68585910434182,-0.0495495804970055
-84.6443036778694,1,0.996007972150535,1.68585910431093,-0.0496246779644828
-84.4667896836202,1,0.996007971861961,1.68585910427314,-0.049721686686152
-84.2583646730056,1,0.996007972508307,1.68585910423171,-0.049835587839009
-84.1162631270419,1,0.996007973332094,1.68585910420657,-0.0499132441672656
-84,1,0.996007973772225,1.68585910418714,-0.049976780198876
-83.817873053058,1,0.996007973771404,1.68585910415847,-0.0500763098259581
-83.6148298967772,1,0.996007973472073,1.6858591041296,-0.0501872698375282
-83.4774595056989,1,0.996007973982649,1.68585910411259,-0.0502623406138421
-83.3400891146207,1,0.996007974893129,1.68585910409704,-0.0503374114013583
-83.1650317916751,1,0.996007976315238,1.6858591040794,-0.0504330775206691
-82.9585490326166,1,0.996007977356284,1.68585910406164,-0.0505459171695476
-82.8141724914011,1,0.996007977500144,1.68585910405155,-0.0506248166894173
-82.6697959501856,1,0.996007977052154,1.68585910404293,-0.0507037162172395
-82.4933428274995,1,0.996007976214585,1.68585910403428,-0.050800145108258
-82.2940609866041,1,0.996007975604476,1.68585910402685,-0.050909049556715
-82.1145094359088,1,0.996007975619987,1.68585910402225,-0.0510071717070436
-82,1,0.996007976070308,1.68585910402085,-0.0510697492879581
-81.8595032102868,1,0.996007976342584,1.6858591040197,-0.0511465285932167
-81.6634100044772,1,0.996007976344507,1.68585910402025,-0.0512536905036161
-81.4870793720154,1,0.996007976044733,1.68585910402352,-0.0513500524826713
-81.3107487395536,1,0.996007975629012,1.68585910402962,-0.0514464144706349
-81.1405413005376,1,0.996007975245643,1.68585910403825,-0.0515394302286096
-80.9823761787056,1,0.996007974892062,1.68585910404866,-0.0516258650370255
-80.8277610144334,1,0.996007974451509,1.68585910406088,-0.0517103598490117
-80.663982347156,1,0.996007973945778,1.68585910407581,-0.0517998623818716
-80.488148302063,1,0.996007973668111,1.6858591040939,-0.0518959530014819
-80.3125010946715,1,0.996007973974308,1.6858591041139,-0.0519919415202038
-80.1498432362068,1,0.996007974783217,1.68585910413405,-0.0520808315479796
-80,1,0.996007975626203,1.68585910415381,-0.0521627185728287
-79.8419454891309,1,0.996007976079621,1.68585910417569,-0.0522490929421163
-79.6650947672923,1,0.99600797571752,1.68585910420171,-0.0523457391664922
-79.481647108468,1,0.996007974545014,1.68585910423087,-0.0524459905284585
-79.3138946425075,1,0.996007973454835,1.68585910425969,-0.0525376646979707
-79.1642058642194,1,0.996007972996989,1.68585910428717,-0.0526194673219509
-79.0144199521235,1,0.996007973089868,1.68585910431611,-0.0527013230349644
-78.8462251792409,1,0.996007973668991,1.68585910435013,-0.0527932389195451
-78.6609608728162,1,0.996007974389686,1.68585910438924,-0.0528944830550279
-78.4824038947007,1,0.996007974762412,1.68585910442833,-0.0529920617402089
-78.3263282916243,1,0.996007974870782,1.68585910446353,-0.0530773546722995
-78.1811558331741,1,0.996007974804313,1.68585910449689,-0.0531566891988484
-78.0239092487064,1,0.996007974588257,1.68585910453342,-0.0532426220618864
-78,1,0.996007974567191,1.68585910453902,-0.0532556880992008
-77.8804537564681,1,0.996007974385013,1.685859104567,-0.053321018295942
-77.6726116173171,1,0.996007974057839,1.6858591046147,-0.0534346008451637
-77.4882800687025,1,0.996007974080269,1.68585910465461,-0.0535353352027636
-77.3039485200879,1,0.996007974637068,1.68585910469126,-0.0536360695577949
-77.1316561002408,1,0.996007975693163,1.68585910472226,-0.0537302247044012
-76.9794365830356,1,0.996007976887768,1.68585910474705,-0.0538134102967762
-76.8317456492927,1,0.996007977800398,1.68585910476851,-0.0538941210899956
-76.6681736441995,1,0.996007978086414,1.68585910478924,-0.0539835106505258
-76.4846978379572,1,0.996007977335058,1.68585910480883,-0.0540837773383564
-76.3023547830515,1,0.996007975882061,1.68585910482463,-0.0541834250015209
-76.1419158723056,1,0.996007974830762,1.68585910483596,-0.0542711023673906
-76,1,0.996007974510207,1.68585910484404,-0.0543486571688214
-75.8464734865076,1,0.996007974833738,1.68585910485067,-0.0544325570263985
-75.6479607094232,1,0.996007975617201,1.68585910485723,-0.0545410412448823
-75.4806362064452,1,0.996007975648676,1.68585910486247,-0.0546324815683257
-75.3133117034672,1,0.996007974498775,1.68585910486804,-0.0547239219095153
-75.1411523236194,1,0.99600797232956,1.68585910487446,-0.0548180044541784
-74.9723253347742,1,0.996007970093186,1.6858591048817,-0.0549102659027901
-74.811197942318,1,0.996007968708542,1.68585910488961,-0.0549983196346461
-74.6529335428579,1,0.996007968467682,1.68585910489827,-0.0550848087849314
-74.489197088548,1,0.996007969289928,1.68585910490805,-0.0551742883381781
-74.3175803449065,1,0.996007970786901,1.68585910491914,-0.0552680743593482
-74.1452478104893,1,0.996007972226288,1.68585910493108,-0.0553622515522121
-74,1,0.996007973032801,1.68585910494193,-0.0554416273256575
-73.8392341287755,1,0.99600797310165,1.68585910495443,-0.0555294834983838
-73.6624015256737,1,0.996007972385505,1.68585910496951,-0.0556261198937926
-73.4834041993787,1,0.996007971375396,1.68585910498704,-0.0557239392715136
-73.3191487403994,1,0.996007970802214,1.6858591050056,-0.0558137024200492
-73.1679725461762,1,0.996007970877887,1.68585910502486,-0.0558963179324117
-73.0134716010111,1,0.996007971554289,1.68585910504656,-0.0559807503745684
-72.8423856714086,1,0.996007972816331,1.68585910507282,-0.0560742462675454
-72.6601766568704,1,0.996007974212545,1.68585910510316,-0.056173820766208
-72.4874600799663,1,0.996007974991757,1.685859105134,-0.0562682077859645
-72.3328606182728,1,0.99600797496446,1.6858591051632,-0.0563526940564283
-72.1835403878197,1,0.996007974217778,1.68585910519254,-0.0564342953069729
-72.0208748320065,1,0.996007972918683,1.6858591052255,-0.0565231895852556
-72,1,0.996007972766515,1.68585910522983,-0.0565345973633321
-71.8956258399674,1,0.996007972021371,1.68585910525154,-0.0565916362663955
-71.6758258481115,1,0.996007971210652,1.68585910529699,-0.0567117536671335
-71.4906362724254,1,0.996007971588621,1.68585910533356,-0.0568129570007556
-71.3054466967393,1,0.996007972498962,1.68585910536741,-0.0569141603437182
-71.1310298238102,1,0.99600797328367,1.68585910539646,-0.0570094765642763
-70.9778483786616,1,0.996007973667197,1.68585910541987,-0.0570931879180668
-70.8312433801896,1,0.996007973575231,1.68585910544003,-0.0571733053442521
-70.6696514824319,1,0.996007973022006,1.68585910545955,-0.0572616128974354
-70.486856141019,1,0.99600797216386,1.68585910547832,-0.0573615078261115
-70.3029926821124,1,0.996007971424909,1.68585910549382,-0.0574619864742622
-70.1407620788645,1,0.996007971212113,1.68585910550525,-0.0575506430684777
-70,1,0.996007971415701,1.6858591055136,-0.0576275674194346
-69.8478082945724,1,0.996007971837848,1.68585910552075,-0.0577107379101486
-69.6595232093615,1,0.996007972340027,1.68585910552912,-0.0578136329356671
-69.4581783053571,1,0.996007972128635,1.68585910554048,-0.057923665008541
-69.2886079642513,1,0.996007971245207,1.68585910555383,-0.0580163327350695
-69.151884594413,1,0.99600797029703,1.68585910556786,-0.0580910500327244
-69.0146258421212,1,0.996007969077175,1.6858591055843,-0.0581660599355028
-68.8452385384132,1,0.996007967769259,1.68585910560801,-0.0582586276414696
-68.643742019518,1,0.996007967198279,1.68585910564099,-0.0583687425888708
-68.4942223153439,1,0.996007967826327,1.68585910566901,-0.0584504529302115
-68.3447026111697,1,0.996007968980396,1.68585910569949,-0.0585321632776369
-68.1695546073084,1,0.996007970385057,1.68585910573795,-0.0586278791307266
-68,1,0.996007971204662,1.6858591057778,-0.0587205382724083
-67.820196321481,1,0.996007971023901,1.6858591058225,-0.0588187983887151
-67.6516465814952,1,0.996007970161339,1.68585910586683,-0.0589109083705254
-67.4985399948603,1,0.996007969355982,1.68585910590931,-0.0589945788728645
-67.3466538187362,1,0.996007968914382,1.68585910595334,-0.0590775824376084
-67.1801252316029,1,0.996007969088477,1.68585910600357,-0.0591685878700306
-66.9988768130996,1,0.996007969978576,1.68585910606029,-0.0592676374803545
-66.8218215907371,1,0.996007971132221,1.68585910611748,-0.0593643955706611
-66.6631218649968,1,0.996007972042755,1.68585910617009,-0.0594511226327289
-66.5145247730878,1,0.996007972472777,1.68585910622017,-0.0595323287486404
-66.3567867052098,1,0.996007972323004,1.68585910627384,-0.0596185302814858
-66.1798694224148,1,0.996007971559211,1.68585910633439,-0.0597152129816091
-66,1,0.996007970518141,1.68585910639602,-0.0598135089876526
-65.8316740851675,1,0.996007969768341,1.68585910645381,-0.0599054966418118
-65.667279525015,1,0.996007969058657,1.68585910651096,-0.0599953359299464
-65.5036626557016,1,0.996007967913093,1.68585910656938,-0.0600847502624179
-65.3384241459853,1,0.996007966117991,1.68585910663034,-0.0601750508278319
-65.1713139815948,1,0.996007963913951,1.68585910669409,-0.0602663742468806
-65.0043981443318,1,0.99600796189227,1.68585910675977,-0.0603575914813201
-64.8395842123131,1,0.996007960652407,1.68585910682639,-0.0604476600598274
-64.6762923516943,1,0.996007960492184,1.68585910689385,-0.0605368968512196
-64.5121067125724,1,0.996007961346208,1.6858591069628,-0.0606266220846284
-64.34559957825,1,0.996007962810872,1.68585910703354,-0.0607176159876588
-64.1781149675532,1,0.996007964215717,1.68585910710518,-0.060809144070639
-64,1,0.996007964871875,1.68585910718145,-0.0609064815111283
-63.8384904230796,1,0.996007964532031,1.68585910725083,-0.0609947443202261
-63.6859647583433,1,0.996007963344701,1.68585910731724,-0.0610780975601803
-63.5271514589545,1,0.996007961414797,1.68585910738837,-0.0611648869308539
-63.3535120683578,1,0.996007959131904,1.68585910746913,-0.0612597785845913
-63.1740061660203,1,0.99600795743992,1.68585910755612,-0.0613578762253118
-63.0059761597606,1,0.996007957060269,1.68585910764076,-0.0614497024367066
-62.8524148599733,1,0.996007957784939,1.68585910772061,-0.0615336216790227
-62.699569326545,1,0.996007959109396,1.68585910780205,-0.0616171497694729
-62.5325977320421,1,0.996007960613436,1.68585910789281,-0.0617083975775763
-62.3520380139049,1,0.996007961583814,1.68585910799257,-0.0618070711279209
-62.1760978989803,1,0.996007961469144,1.68585910809087,-0.0619032201268041
-62.0176222696988,1,0.996007960592497,1.68585910818,-0.0619898249948192
-62,1,0.996007960491594,1.68585910818996,-0.0619994553295106
-61.9118886515058,1,0.996007959812742,1.68585910823961,-0.0620476070233276
-61.7327285495507,1,0.99600795833078,1.68585910833924,-0.0621455156791445
-61.5058772118356,1,0.99600795760177,1.68585910845977,-0.0622694869827144
-61.3712909201084,1,0.996007958516745,1.68585910852776,-0.0623430365787231
-61.2367046283812,1,0.99600796000682,1.68585910859204,-0.0624165861908006
-61.0572801452748,1,0.996007962334162,1.68585910867171,-0.0625146392875628
-60.8428906869931,1,0.996007964220811,1.68585910875752,-0.0626318003026805
-60.7042547654282,1,0.996007964631392,1.68585910880815,-0.0627075629609255
-60.5656188438634,1,0.996007964039305,1.68585910885449,-0.0627833256338669
-60.3880166823496,1,0.996007962248867,1.6858591089078,-0.0628803828487016
-60.180300644657,1,0.996007959862254,1.68585910896176,-0.0629938969185221
-60.0379218769899,1,0.996007959082463,1.68585910899428,-0.0630717049941748
-60,1,0.996007959029906,1.68585910900232,-0.0630924287856639
-59.8103906150506,1,0.996007959446165,1.68585910903745,-0.063196047790761
-59.6221412846017,1,0.996007961129486,1.68585910906303,-0.0632989235384792
-59.4640386562289,1,0.996007963191675,1.68585910907664,-0.0633853244709545
-59.3254223098401,1,0.996007964882243,1.68585910908196,-0.0634610763972076
-59.1761022547441,1,0.996007965945573,1.68585910908,-0.0635426777686273
-58.9962955201398,1,0.996007965914027,1.68585910906752,-0.0636409397036768
-58.8000256027353,1,0.996007964412427,1.68585910904178,-0.0637481985607948
-58.6259097142954,1,0.996007962622713,1.68585910900955,-0.0638433505310391
-58.4822834543562,1,0.996007961604428,1.68585910897754,-0.0639218402915414
-58.3431484847143,1,0.996007961146104,1.68585910894134,-0.0639978756373436
-58.1788241940737,1,0.99600796147377,1.68585910889256,-0.06408767661682
-58,1,0.996007962780564,1.6858591088331,-0.0641854016007828
-57.8072018032876,1,0.99600796447969,1.68585910876294,-0.0642907632021079
-57.638761189321,1,0.996007965658263,1.68585910869938,-0.0643828136901966
-57.4968353091087,1,0.996007966206695,1.68585910864627,-0.0644603742063875
-57.3542047325006,1,0.99600796607279,1.68585910859388,-0.0645383198419342
-57.1846323633375,1,0.996007965250171,1.6858591085338,-0.0646309888056629
-56.9895092672176,1,0.996007964012307,1.68585910846851,-0.0647376209029232
-56.8050736277264,1,0.996007963226829,1.68585910841114,-0.0648384124597948
-56.6535568234095,1,0.996007963370569,1.68585910836789,-0.0649212142813544
-56.5167403412249,1,0.996007963938948,1.68585910833156,-0.0649959825801758
-56.3626667050168,1,0.996007964782921,1.68585910829351,-0.0650801816913636
-56.1760573140844,1,0.99600796574349,1.6858591082516,-0.0651821611545805
-56,1,0.996007966230558,1.68585910821627,-0.0652783740525335
-55.8293834154689,1,0.996007966116035,1.6858591081861,-0.0653716136669105
-55.6690307954761,1,0.996007965489757,1.68585910816224,-0.0654592441697751
-55.5128498759664,1,0.996007964499325,1.6858591081441,-0.0655445949012158
-55.3500627432856,1,0.996007963335843,1.68585910813097,-0.0656335558476443
-55.17700206433,1,0.996007962378869,1.68585910812363,-0.0657281311564655
-55.0024866719345,1,0.996007962073516,1.68585910812309,-0.0658235014516531
-54.8377396614794,1,0.996007962508347,1.68585910812873,-0.0659135334531374
-54.6820646689438,1,0.996007963369129,1.68585910813924,-0.0659986077143817
-54.5242483306596,1,0.996007964283836,1.68585910815461,-0.0660848521957575
-54.3550836809958,1,0.996007964887333,1.68585910817594,-0.0661772983816075
-54.1783072202513,1,0.996007964826978,1.6858591082031,-0.0662739043247255
-54,1,0.9960079640888,1.68585910823503,-0.0663713468129954
-53.843170297685,1,0.99600796329172,1.68585910826692,-0.0664570521207253
-53.6896390920786,1,0.996007962223904,1.68585910830219,-0.0665409549066602
-53.5242636892796,1,0.996007960442629,1.68585910834591,-0.0666313304439233
-53.3455685578923,1,0.996007957764987,1.68585910840053,-0.0667289850850468
-53.1691449955316,1,0.996007954922429,1.68585910846213,-0.0668253983680343
-53.0084252684014,1,0.996007952966268,1.68585910852474,-0.0669132297002424
-52.8576490483871,1,0.996007952165086,1.68585910858871,-0.0669956270310758
-52.6999993377572,1,0.996007952510909,1.68585910866044,-0.0670817806516525
-52.5255742613906,1,0.996007953997424,1.68585910874494,-0.0671771018148559
-52.3441129156495,1,0.996007955902695,1.68585910883781,-0.0672762682232795
-52.1754212068851,1,0.996007957126804,1.68585910892805,-0.0673684561755926
-52.0231434474444,1,0.996007957316477,1.68585910901225,-0.0674516740919694
-52,1,0.996007957281025,1.68585910902527,-0.067464321695369
-51.8842827627782,1,0.996007956656057,1.68585910909072,-0.0675275597285672
-51.7120598162451,1,0.996007955268345,1.68585910918804,-0.0676216773886687
-51.4858855626719,1,0.996007954952432,1.68585910931096,-0.0677452787053115
-51.3482752055365,1,0.99600795674842,1.68585910938187,-0.0678204809194079
-51.2106648484011,1,0.996007959638366,1.68585910944857,-0.0678956831350469
-51.0306833208423,1,0.996007964005451,1.68585910952902,-0.0679940406276525
-50.8194124041215,1,0.996007967621428,1.6858591096131,-0.0681094973651435
-50.6803299871246,1,0.996007968397834,1.68585910966291,-0.0681855040004949
-50.5412475701276,1,0.996007967471309,1.68585910970786,-0.0682615106483036
-50.3642404897508,1,0.996007964526565,1.68585910975825,-0.0683582426204786
-50.1577240475931,1,0.996007960553376,1.68585910980773,-0.0684711010794243
-50,1,0.996007958875984,1.68585910983953,-0.0685572951210828
-49.8534702228483,1,0.996007958935595,1.68585910986459,-0.0686373716565246
-49.6808970361448,1,0.996007960283642,1.68585910988934,-0.068731680658812
-49.485021159756,1,0.996007961334429,1.68585910991283,-0.0688387243670537
-49.3016053379555,1,0.996007960060379,1.68585910993163,-0.0689389588647022
-49.1511509746915,1,0.996007957408099,1.68585910994595,-0.0690211803072644
-49.0143016718248,1,0.996007954134949,1.68585910995785,-0.0690959667647658
-48.8591410980049,1,0.996007950417977,1.68585910996998,-0.0691807601338237
-48.6714567508685,1,0.996007947635655,1.68585910998309,-0.0692833273710438
-48.4755594561419,1,0.996007947871379,1.68585910999506,-0.0693903829125633
-48.3096128601046,1,0.996007950469065,1.68585911000452,-0.0694810707321533
-48.1713432044926,1,0.996007953477209,1.68585911001218,-0.0695566334073017
-48.0296013337956,1,0.99600795610986,1.68585911001914,-0.0696340936268833
-48,1,0.996007956540378,1.68585911002054,-0.0696502703970865
-47.8519933310219,1,0.996007957678702,1.68585911002665,-0.0697311542379656
-47.6846138003351,1,0.996007957624488,1.68585911003059,-0.0698226249964398
-47.5011601939005,1,0.996007957835377,1.68585911002833,-0.0699228799373672
-47.3250355761087,1,0.996007960003882,1.68585911001811,-0.0700191296190935
-47.1694219184922,1,0.996007963789816,1.68585911000212,-0.0701041702882221
-47.0224650543566,1,0.996007968115914,1.68585910998082,-0.0701844801197864
-46.8630738663927,1,0.996007972235016,1.68585910995095,-0.0702715851276747
-46.6827246318517,1,0.996007974594573,1.6858591099091,-0.0703701434058149
-46.4982354573472,1,0.996007973684587,1.68585910985814,-0.0704709641021916
-46.3332086869868,1,0.996007970733018,1.68585910980642,-0.0705611488531554
-46.1863323403419,1,0.996007967601895,1.68585910975607,-0.0706414146408069
-46.0363030088602,1,0.996007965018946,1.68585910970066,-0.0707234034965334
-46,1,0.996007964623383,1.68585910968674,-0.0707432425615938
-45.818484955699,1,0.996007964141166,1.68585910961348,-0.0708424379170336
-45.5464703179714,1,0.996007967183095,1.68585910948361,-0.0709910901013596
-45.4204757927803,1,0.996007969335009,1.68585910942497,-0.0710599442679363
-45.2944812675892,1,0.996007970772887,1.68585910935784,-0.0711287984783759
-45.1101116706869,1,0.996007971039547,1.68585910924929,-0.0712295538611793
-44.8811555712781,1,0.996007968249422,1.68585910909692,-0.0713546751967436
-44.7494332168467,1,0.996007966181402,1.6858591090117,-0.071426659559298
-44.6177108624152,1,0.996007964127168,1.68585910891964,-0.0714986439558317
-44.4387261271026,1,0.996007962416345,1.68585910878734,-0.0715964565959485
-44.221343817846,1,0.996007962843247,1.68585910861647,-0.0717152530102379
-44.0832359639641,1,0.996007964667163,1.6858591085112,-0.0717907269740288
-44,1,0.996007966002486,1.68585910844646,-0.0718362142408576
-43.8099239532812,1,0.996007968718392,1.68585910829429,-0.0719400881234978
-43.6216738482256,1,0.996007970482439,1.68585910814796,-0.0720429641152463
-43.4672947535427,1,0.996007971439927,1.68585910803664,-0.0721273300150826
-43.3315959174435,1,0.996007971913666,1.68585910794673,-0.0722014874078691
-43.181401178522,1,0.99600797206991,1.68585910785645,-0.0722835666068517
-42.9975919240812,1,0.996007972104829,1.6858591077602,-0.0723840156435425
-42.7988799209786,1,0.996007972158704,1.68585910767396,-0.0724926088258417
-42.6271358723596,1,0.996007972404108,1.68585910761453,-0.0725864644005193
-42.487013450314,1,0.996007972837195,1.68585910757655,-0.0726630391824969
-42.3487502061025,1,0.996007973128847,1.68585910754716,-0.0727385979693901
-42.1817334354057,1,0.996007973298687,1.68585910752196,-0.0728298701421301
-42,1,0.99600797332264,1.68585910750676,-0.0729291847576338
-41.8074910824654,1,0.996007973151876,1.68585910750366,-0.0730343880317322
-41.6324426892505,1,0.996007972760201,1.68585910751245,-0.0731300494047583
-41.484245406689,1,0.996007972279915,1.68585910752888,-0.073211037019052
-41.3421399069069,1,0.996007971559861,1.68585910755164,-0.0732886955769717
-41.1796026577333,1,0.996007970603292,1.68585910758554,-0.0733775198036705
-40.9905690113407,1,0.996007969750963,1.68585910763485,-0.0734808239405315
-40.8026808570623,1,0.996007969509198,1.68585910769338,-0.0735835020989534
-40.6435135522858,1,0.996007969980037,1.68585910775018,-0.0736704846998363
-40.5037730305391,1,0.996007970679912,1.68585910780483,-0.073746850835129
-40.3544410423455,1,0.996007971314102,1.6858591078672,-0.0738284585832678
-40.1757954772198,1,0.996007971676831,1.68585910794663,-0.073926085785304
-40,1,0.996007971527696,1.68585910802932,-0.0740221554571695
-39.8220422552418,1,0.996007970953287,1.68585910811699,-0.0741194067856348
-39.6527262589842,1,0.996007970141371,1.68585910820434,-0.0742119355419294
-39.4959919346814,1,0.996007969256818,1.68585910828904,-0.0742975885974089
-39.3416737489078,1,0.996007968339337,1.68585910837586,-0.0743819212767268
-39.1767447784685,1,0.996007967498515,1.68585910847205,-0.0744720526109899
-38.9996739091353,1,0.99600796701592,1.68585910857878,-0.0745688193318486
-38.824238456538,1,0.996007967116862,1.68585910868753,-0.0746646923256651
-38.6627947942256,1,0.996007967691478,1.68585910878988,-0.0747529189936883
-38.5105847697288,1,0.996007968396052,1.68585910888783,-0.0748360996047905
-38.3524308533566,1,0.996007968937982,1.68585910899048,-0.0749225284753436
-38.1791427164811,1,0.996007969044364,1.68585910910342,-0.0750172279910301
-38,1,0.996007968574267,1.68585910922014,-0.0751151269580758
-37.8311172435078,1,0.996007967861923,1.68585910933014,-0.0752074190052528
-37.6695839278846,1,0.996007966939811,1.68585910943629,-0.0752956947261101
-37.5097647631686,1,0.996007965661538,1.68585910954348,-0.0753830337153453
-37.3449198317042,1,0.996007964000487,1.68585910965687,-0.0754731192408473
-37.1740559491097,1,0.996007962241172,1.68585910977756,-0.0755664940597016
-37.0035824065738,1,0.996007960936016,1.68585910990102,-0.0756596555728713
-36.8397444866347,1,0.99600796049184,1.68585911002223,-0.0757491908078164
-36.6808586712582,1,0.996007960899004,1.68585911014167,-0.0758360197839711
-36.5194067338878,1,0.996007961907308,1.6858591102644,-0.0759242511163611
-36.3505418025058,1,0.996007963095055,1.68585911039363,-0.0760165335573709
-36.1781122559228,1,0.996007963859212,1.68585911052591,-0.0761107640173048
-36,1,0.996007963735754,1.6858591106622,-0.0762081000109426
-35.8418683145079,1,0.996007963004821,1.68585911078306,-0.0762945168782349
-35.6895235496833,1,0.996007961705204,1.68585911090032,-0.0763777713133962
-35.527008025026,1,0.996007959701243,1.68585911102802,-0.0764665839769387
-35.3497028123707,1,0.9960079571612,1.68585911117147,-0.0765634790500157
-35.1712973468995,1,0.996007954927369,1.68585911132056,-0.0766609754195548
-35.007745856925,1,0.996007953811211,1.68585911146137,-0.0767503542744022
-34.8565712951572,1,0.996007953801795,1.68585911159467,-0.0768329692882091
-34.7013883683908,1,0.996007954646225,1.68585911173398,-0.0769177748337211
-34.5296706174111,1,0.996007956133689,1.6858591118904,-0.0770116164671295
-34.3476728752957,1,0.996007957558733,1.68585911205794,-0.0771110759994179
-34.1757660436209,1,0.996007958114307,1.68585911221715,-0.0772050209705523
-34.0215894654411,1,0.99600795776547,1.68585911236023,-0.0772892765598793
-34,1,0.99600795768023,1.68585911238031,-0.0773010749293703
-33.8920526727946,1,0.996007956932892,1.68585911248013,-0.0773600667968887
-33.7170116903982,1,0.996007955487475,1.68585911263876,-0.0774557244877616
-33.48503744218,1,0.996007955183224,1.6858591128364,-0.0775824954636363
-33.3504884335127,1,0.996007956836559,1.68585911294329,-0.0776560247109643
-33.2159394248454,1,0.996007959334964,1.68585911304275,-0.0777295539684354
-33.0354638213155,1,0.996007963073967,1.68585911316412,-0.0778281815092238
-32.8200005082338,1,0.996007965962644,1.68585911329054,-0.0779459293923115
-32.6823504319666,1,0.996007966406058,1.68585911336184,-0.0780211533057181
-32.5447003556993,1,0.996007965403038,1.68585911342511,-0.0780963772345518
-32.3670185430445,1,0.996007962697609,1.68585911349541,-0.0781934779865528
-32.1580743983503,1,0.996007959297587,1.68585911356238,-0.0783076632113722
-32,1,0.996007958098579,1.6858591136031,-0.0783940487577928
-31.8546240103977,1,0.996007958413574,1.68585911363341,-0.0784734948013739
-31.6860372620485,1,0.996007959697662,1.68585911366165,-0.0785656253079292
-31.4930862902457,1,0.99600796044252,1.68585911368835,-0.0786710706355723
-31.3076671277675,1,0.996007958854021,1.68585911371079,-0.0787723999778228
-31.1533950703431,1,0.99600795597899,1.68585911372893,-0.0788567077845991
-31.0152710940397,1,0.99600795274119,1.6858591137448,-0.0789321908660409
-30.8626782351278,1,0.996007949340682,1.68585911376176,-0.0790155810438616
-30.6789909205159,1,0.996007946986965,1.68585911378185,-0.0791159639913751
-30.4832849043492,1,0.996007947474753,1.68585911380293,-0.0792229150432959
-30.3135552971524,1,0.996007950128725,1.68585911382159,-0.0793156702778822
-30.172540211892,1,0.996007953079293,1.68585911383776,-0.0793927333298834
-30.0318017919839,1,0.996007955491566,1.68585911385361,-0.0794696452058131
-30,1,0.996007955899091,1.68585911385721,-0.0794870245066634
-29.8409910400803,1,0.996007956745476,1.68585911387427,-0.0795739210026123
-29.675791034596,1,0.996007956436037,1.68585911388832,-0.0796642007046119
-29.5073575548337,1,0.996007956639709,1.68585911389481,-0.0797562473700622
-29.3402307570627,1,0.996007958797849,1.6858591138912,-0.0798475798902986
-29.1768325180227,1,0.996007962940447,1.685859113877,-0.0799368747630276
-29.0150240992602,1,0.996007967984355,1.68585911385225,-0.0800253007954039
-28.8506751888581,1,0.996007972383983,1.68585911381637,-0.0801151151559698
-28.682467583674,1,0.996007974556469,1.68585911376896,-0.0802070382297161
-28.5137036555173,1,0.996007973713978,1.68585911371128,-0.0802992653189733
-28.3485280835237,1,0.996007970566592,1.68585911364585,-0.080389531415088
-28.1868485340641,1,0.996007966726948,1.68585911357404,-0.0804778869790696
-28.0244101866016,1,0.996007963777144,1.68585911349495,-0.0805666572140465
-28,1,0.996007963529414,1.68585911348259,-0.0805799970259145
-27.8779490669919,1,0.996007962976142,1.68585911341841,-0.0806466961150125
-27.6380159709063,1,0.996007965065915,1.68585911327978,-0.080777816205216
-27.4527645543822,1,0.99600796755224,1.68585911316029,-0.0808790535642256
-27.2675131378581,1,0.996007968489692,1.68585911302916,-0.0809802909543589
-27.0915858175797,1,0.99600796714746,1.68585911289495,-0.0810764328640972
-26.9373921355085,1,0.99600796465426,1.68585911277241,-0.0811606976052428
-26.7913123804677,1,0.996007961846849,1.6858591126509,-0.0812405281988917
-26.6312275790378,1,0.996007959262886,1.68585911251127,-0.0813280123798458
-26.4491536046864,1,0.996007958084794,1.68585911234573,-0.0814275133649603
-26.2640453454728,1,0.996007959184915,1.6858591121715,-0.081528672562954
-26.10030766598,1,0.996007961676957,1.68585911201598,-0.0816181529971854
-26,1,0.996007963567558,1.68585911192224,-0.0816729697437537
-25.8421086834624,1,0.996007965785149,1.68585911177034,-0.0817592552110267
-25.6653538789716,1,0.996007967115363,1.68585911160529,-0.0818558492754758
-25.4851383958628,1,0.996007967480955,1.68585911145037,-0.0819543345212728
-25.3205520055577,1,0.996007967583542,1.68585911132503,-0.0820442786517103
-25.1703500160866,1,0.996007967886402,1.68585911122583,-0.0821263618867114
-25.0170531809989,1,0.99600796848986,1.68585911113993,-0.0822101364095063
-24.8460593629969,1,0.996007969451591,1.68585911106253,-0.0823035820826966
-24.6624794812846,1,0.99600797047532,1.68585911100064,-0.0824039058641001
-24.4885023167735,1,0.996007971072768,1.68585911096161,-0.0824989818925831
-24.3342184428765,1,0.996007971197235,1.6858591109424,-0.0825832957980102
-24.1863302660845,1,0.996007970896678,1.68585911093654,-0.0826641145467311
-24.0246899557838,1,0.996007970255593,1.68585911094314,-0.0827524486473021
-24,1,0.996007970172655,1.68585911094535,-0.0827659413484431
-23.8765502210808,1,0.996007969725972,1.68585911096037,-0.0828334048672043
-23.6686833760141,1,0.996007969393673,1.68585911099753,-0.082947001086772
-23.4860911845124,1,0.996007969892612,1.68585911103772,-0.083046785060311
-23.3034989930108,1,0.996007971002447,1.68585911108123,-0.0831465690310801
-23.1309958421307,1,0.99600797224012,1.68585911112373,-0.0832408394789295
-22.9769457099539,1,0.996007973189962,1.68585911116234,-0.0833250255982835
-22.8279252000307,1,0.996007973613785,1.68585911119913,-0.0834064631029687
-22.6650214292496,1,0.99600797337218,1.68585911123803,-0.0834954876144329
-22.4837688938646,1,0.996007972415254,1.68585911127941,-0.0835945394653635
-22.302617796525,1,0.996007971211566,1.68585911131861,-0.0836935358884054
-22.1408997830519,1,0.996007970522852,1.68585911135242,-0.0837819123952754
-22,1,0.99600797047427,1.68585911138091,-0.0838589120302704
-21.8453392585876,1,0.996007970904306,1.68585911141042,-0.0839434318480356
-21.6519251546188,1,0.996007971697636,1.6858591114473,-0.0840491298600761
-21.4487419443596,1,0.996007971697925,1.6858591114891,-0.0841601666101971
-21.2825710087073,1,0.99600797086503,1.68585911152873,-0.084250976654271
-21.1494424658912,1,0.996007969853681,1.68585911156501,-0.0843237294619758
-21.0123792365605,1,0.996007968431045,1.68585911160451,-0.0843986325552275
-20.8397539104384,1,0.996007966836475,1.68585911165806,-0.0844929698475303
-20.6349550520093,1,0.996007966051256,1.68585911172676,-0.0846048895458489
-20.4887787377498,1,0.996007966646648,1.68585911178029,-0.0846847728126225
-20.3426024234904,1,0.99600796778524,1.68585911183613,-0.0847646560893524
-20.1665985520188,1,0.996007969282635,1.68585911190591,-0.0848608397171476
-20,1,0.99600797027657,1.68585911197454,-0.0849518834681513
-19.8160316769741,1,0.996007970329899,1.68585911205258,-0.0850524195618834
-19.6449421472079,1,0.996007969671776,1.68585911212822,-0.0851459175495147
-19.4941459742663,1,0.996007969092689,1.68585911219823,-0.0852283254744312
-19.3465489825758,1,0.996007968809928,1.68585911226948,-0.0853089850912896
-19.1815232962195,1,0.996007969058204,1.68585911235211,-0.085399169243571
-18.9965927425389,1,0.996007970019979,1.68585911244816,-0.0855002311250758
-18.8149119164513,1,0.996007971265365,1.68585911254566,-0.0855995170811109
-18.6563321792154,1,0.996007972268407,1.68585911263338,-0.0856861785988444
-18.5118911011177,1,0.99600797275991,1.68585911271483,-0.0857651135356095
-18.3577547167961,1,0.996007972607128,1.68585911280256,-0.085849346827931
-18.179570566127,1,0.996007971721195,1.68585911290465,-0.0859467218854945
-18,1,0.996007970537409,1.68585911300786,-0.0860448546030641
-17.8279624292746,1,0.996007969700627,1.68585911310721,-0.0861388706573325
-17.6596813251898,1,0.996007969036428,1.6858591132064,-0.0862308339212282
-17.4964810575325,1,0.996007968062748,1.68585911330656,-0.086320020616525
-17.3355965858741,1,0.996007966522353,1.68585911340994,-0.0864079417861249
-17.1717196034559,1,0.996007964510254,1.68585911352017,-0.0864974983423235
-17.0028640739841,1,0.996007962489911,1.68585911363877,-0.0865897756230873
-16.8330289323382,1,0.996007961157039,1.68585911376279,-0.0866825882583317
-16.6676666626663,1,0.996007960951251,1.68585911388762,-0.0867729565308117
-16.5069294870876,1,0.99600796176522,1.68585911401219,-0.0868607972508546
-16.3454775089452,1,0.996007963157976,1.68585911413979,-0.0869490286041822
-16.1785885892776,1,0.996007964528641,1.68585911427353,-0.0870402311787759
-16,1,0.996007965186505,1.68585911441785,-0.0871378274781309
-15.8331401002107,1,0.996007964834527,1.68585911455413,-0.0872290142007238
-15.6778955612725,1,0.996007963712258,1.68585911468404,-0.0873138532939824
-15.5222372176276,1,0.996007962040108,1.68585911481966,-0.0873989185426733
-15.3544998822757,1,0.996007960159989,1.68585911497311,-0.0874905848199352
-15.1765061329529,1,0.996007958777894,1.68585911514475,-0.0875878561090148
-15.0034061372837,1,0.996007958514187,1.68585911532021,-0.0876824530291169
-14.8445796962278,1,0.996007959259121,1.68585911548819,-0.0877692496250762
-14.6922403336352,1,0.996007960495122,1.68585911565472,-0.0878525011153896
-14.5312856795415,1,0.996007961795059,1.68585911583542,-0.0879404607595326
-14.3555949559844,1,0.99600796261916,1.68585911603714,-0.0880364734845678
-14.1768720539751,1,0.996007962455933,1.68585911624593,-0.0881341432622029
-14,1,0.996007961371543,1.6858591164549,-0.0882308015794782
-13.8495522603555,1,0.996007960258992,1.68585911663453,-0.0883130193330731
-13.6995990966264,1,0.996007958798243,1.68585911681611,-0.0883949668893049
-13.5307609710653,1,0.996007956438398,1.6858591170261,-0.0884872349166884
-13.3446135785236,1,0.996007952983931,1.685859117266,-0.0885889623137626
-13.1660069067559,1,0.996007949572149,1.68585911750479,-0.0886865688285245
-13.0106324289995,1,0.996007947455574,1.68585911771934,-0.0887714792049081
-12.8659720743805,1,0.996007946596705,1.6858591179239,-0.0888505344413512
-12.7083976207598,1,0.996007946953637,1.68585911815094,-0.0889366471052957
-12.5270958241369,1,0.996007948666398,1.68585911841643,-0.0890357265116296
-12.3396667874248,1,0.996007950828665,1.68585911869413,-0.0891381544026484
-12.1735089132109,1,0.996007952161406,1.68585911894212,-0.0892289578252515
-12.0283010429427,1,0.996007952402739,1.68585911915942,-0.0893083122852457
-12,1,0.996007952345501,1.68585911920179,-0.0893237784816721
-11.8584947852863,1,0.996007951363856,1.68585911941211,-0.0894011094778697
-11.6916541092001,1,0.996007949954752,1.68585911965325,-0.0894922859346365
-11.4994463915815,1,0.996007950169234,1.6858591199129,-0.0895973251073386
-11.3157256362269,1,0.996007953488062,1.68585912013721,-0.0896977262117357
-11.1625369515254,1,0.996007958267221,1.68585912030513,-0.0897814418536984
-11.0239207672709,1,0.99600796286681,1.68585912044083,-0.0898571937942273
-10.8698152893736,1,0.996007966733456,1.68585912057295,-0.0899414104399334
-10.6852040020139,1,0.996007968160236,1.68585912070585,-0.0900422981177319
-10.4906809768991,1,0.99600796553741,1.68585912081686,-0.0901486024438678
-10.3226430656405,1,0.996007961355781,1.68585912089063,-0.0902404329729669
-10.1818315232216,1,0.996007958052065,1.68585912093791,-0.0903173846115271
-10.0397611298947,1,0.996007955841115,1.68585912097192,-0.0903950242121373
-10,1,0.996007955554179,1.68585912097917,-0.0904167531449338
-9.92844392453812,1,0.99600795534235,1.68585912098963,-0.0904558579244031
-9.85688784907623,1,0.996007953697215,1.68585912099659,-0.0904949639777983
-9.73941123776622,1,0.996007932373495,1.68585912099914,-0.0905591690799711
-9.56579126454226,1,0.996007799024323,1.68585912097936,-0.0906540640711236
-9.40696143408956,1,0.996007534335779,1.68585912093408,-0.0907408793321113
-9.24813160363686,1,0.996007168443412,1.68585912086189,-0.0908276971710265
-9.0689957846962,1,0.996006753486403,1.68585912074857,-0.0909256164874436
-8.892130268959,1,0.996006488460685,1.68585912060503,-0.0910222961969391
-8.73449654867154,1,0.996006453541033,1.68585912045239,-0.0911084640337146
-8.58574368608493,1,0.996006594386815,1.6858591202887,-0.0911897777377287
-8.42575603396172,1,0.99600686452267,1.68585912009327,-0.0912772330972379
-8.24427471472443,1,0.996007173200068,1.68585911984987,-0.0913764379746579
-8.0571970840788,1,0.99600732874118,1.68585911957791,-0.0914787021986328
-8,1,0.996007327239862,1.68585911949102,-0.0915099685025562
-7.93950281967931,1,0.996007300101271,1.68585911939734,-0.0915430381841074
-7.87900563935862,1,0.996007251047272,1.68585911930178,-0.0915761054545089
-7.7867849063952,1,0.996007161694347,1.68585911915204,-0.091626506973796
-7.66103165537482,1,0.996007113047255,1.6858591189388,-0.0916952254969031
-7.49453089254347,1,0.996007397779056,1.68585911863879,-0.0917861980167766
-7.31762375555521,1,0.996008253225061,1.68585911829722,-0.091882845558509
-7.16257242110968,1,0.996009321987047,1.68585911797911,-0.0919675468320008
-7.00752108666416,1,0.996010379357128,1.68585911764476,-0.0920522443549405
-6.83863396225438,1,0.996011141015265,1.685859117264,-0.0921444968816407
-6.66717742945613,1,0.996011237806089,1.6858591168622,-0.092238150890449
-6.49751318098021,1,0.996010679291221,1.68585911645206,-0.0923308245921761
-6.3283395151276,1,0.996009768989492,1.68585911603328,-0.0924232294780253
-6.16057783194983,1,0.99600894476744,1.6858591156108,-0.0925148625697275
-6,1,0.996008570704443,1.6858591152019,-0.0926025714274653
-5.93813876015921,1,0.996008572992291,1.68585911504361,-0.0926363609998883
-5.87627752031842,1,0.9960086554011,1.68585911488496,-0.0926701528361324
-5.78168921290198,1,0.996008901060842,1.68585911464146,-0.0927218271305229
-5.6522142010904,1,0.99600932503741,1.68585911430593,-0.092792569218814
-5.47485221495502,1,0.996009661115431,1.68585911384162,-0.0928894879465725
-5.27129361299722,1,0.996009229511449,1.68585911330255,-0.0930007332665378
-5.14493116319959,1,0.996008513416017,1.68585911296533,-0.0930697948316314
-5.01856871340195,1,0.996007607688442,1.68585911262687,-0.0931388584776768
-4.84157774627668,1,0.996006400473832,1.685859112152,-0.0932355957184043
